</s> 0.008005 0.008839 -0.007661 -0.006556 0.002733 0.006042 0.001882 0.000423 -0.007207 0.004437 -0.008713 0.002499 -0.001503 -0.001914 -0.006631 -0.003764 0.005159 0.006051 0.005938 0.003195 0.003090 -0.007605 -0.008192 0.009939 0.007603 0.006180 -0.001208 0.008031 -0.000990 0.001469 -0.000298 -0.005966 0.002625 -0.002675 -0.007651 0.009508 0.008759 -0.002190 -0.000452 0.001018 -0.007275 -0.008014 0.009109 0.000126 -0.005165 -0.006084 -0.006153 0.003394 0.000403 0.002662 
， 0.176503 0.025064 0.051620 -0.087773 0.021005 0.270641 0.245155 0.130980 -0.020038 0.004927 0.017358 -0.237690 0.236809 -0.102637 0.113389 0.083514 0.095559 -0.079794 0.208122 0.145434 0.253245 -0.082949 -0.046493 0.104773 0.097465 -0.095670 -0.117841 0.049683 -0.043045 -0.035427 0.035732 -0.240939 0.082169 0.051059 0.028940 -0.013601 -0.036956 -0.082329 0.072472 -0.014012 -0.186196 -0.092950 -0.008379 0.106764 0.027386 0.116481 0.055137 -0.151811 -0.086519 -0.072719 
的 0.003691 0.038866 -0.007959 0.088730 -0.024718 0.396937 0.083287 0.138170 0.053137 0.087943 0.036636 -0.100994 0.175585 -0.031119 0.110198 -0.010626 0.070052 -0.044212 0.179347 0.007638 0.197050 0.037445 -0.087187 -0.006145 0.219239 -0.175901 -0.096664 -0.011408 -0.021006 0.068761 -0.004376 -0.165933 -0.043392 0.125931 -0.090203 0.195453 -0.059749 -0.025109 0.038580 0.114477 -0.042187 -0.075145 -0.044619 0.024366 0.053556 0.033360 0.177171 -0.030585 -0.092927 -0.047976 
。 -0.013501 -0.003029 0.134916 0.171373 -0.230125 0.161002 -0.004760 0.011216 -0.015785 0.279265 -0.042883 -0.075731 0.254689 0.163748 0.135760 0.099305 -0.124602 -0.129420 0.247048 0.158619 0.218875 0.248764 0.005281 -0.019600 0.390842 -0.172668 -0.012729 -0.021256 0.107005 -0.080667 -0.128593 -0.167109 0.089138 0.127167 -0.145567 0.175639 0.070891 0.004089 -0.024675 0.039644 -0.050576 0.024526 -0.044608 0.108685 -0.117922 0.209878 0.344712 -0.052835 -0.037113 -0.220100 
国 -0.070763 0.089786 -0.060404 0.045855 -0.078281 0.317024 -0.011532 0.192277 0.081057 -0.072017 -0.147478 -0.168923 0.181767 0.257062 -0.103136 0.094142 0.173677 -0.007730 0.177399 -0.265929 -0.058984 -0.222349 -0.005519 0.238473 -0.066974 -0.242150 0.005142 -0.370439 -0.305924 -0.092305 0.340010 -0.435214 -0.210595 0.144364 -0.279363 0.127407 -0.111184 -0.033254 0.141708 -0.022286 0.093528 0.086558 -0.376402 0.113567 0.025226 -0.343338 0.026287 -0.405804 -0.097466 0.196359 
一 0.336623 -0.076657 0.237278 0.012253 -0.015702 0.151123 0.307809 -0.080722 -0.026902 -0.058683 0.002292 -0.118970 0.093618 0.003029 0.175312 0.164323 -0.115259 0.064642 -0.000875 0.014577 0.175907 0.043181 0.045384 0.273662 0.366795 -0.168450 0.165063 -0.211631 -0.038808 -0.044216 0.052656 -0.412160 0.025975 -0.019331 0.136553 -0.128445 0.273173 -0.094119 0.209284 -0.057882 -0.070478 -0.003407 0.093786 0.171114 -0.086020 0.182301 0.029874 0.095299 0.142121 0.206373 
、 -0.094062 -0.078495 0.001239 0.244127 0.169756 -0.029376 0.029347 0.143195 0.320569 0.067777 -0.194680 0.037576 -0.115666 0.113006 -0.023111 0.267809 0.127520 -0.160206 0.159250 -0.149523 -0.085613 0.298599 -0.036511 0.267213 0.222590 -0.232084 0.013875 -0.037594 -0.000977 0.045677 -0.061769 0.326687 -0.251752 -0.036434 0.123526 0.295379 -0.271821 0.057353 0.079181 0.115787 -0.169845 0.038975 -0.283345 -0.063167 -0.023002 -0.022970 0.319662 -0.236894 -0.018387 0.138677 
在 0.020845 -0.062804 -0.002096 -0.120089 0.193184 0.116301 0.221812 0.127018 -0.087637 -0.072640 -0.015377 -0.177500 0.188718 -0.113505 0.225999 0.045967 0.211664 0.093898 0.119532 0.085792 0.257564 -0.221160 -0.034682 0.338445 -0.021427 -0.105753 0.089244 0.092131 0.030828 -0.145046 0.275756 -0.235864 0.003788 0.083728 -0.103906 -0.008643 -0.226757 0.009744 0.147094 0.083593 -0.124508 -0.134330 0.132716 0.127981 -0.025792 -0.141580 0.056744 -0.214993 -0.041693 -0.005880 
中 -0.065430 -0.107008 -0.156507 0.024796 0.090435 0.262977 0.143275 0.005495 0.113222 -0.179553 -0.226209 0.006381 0.174779 0.243123 0.082780 0.073180 0.191422 -0.215116 -0.021280 -0.149971 -0.173161 -0.252106 -0.110497 0.239245 0.145546 -0.142999 0.147027 -0.184782 -0.292778 0.013788 0.143596 -0.284331 -0.021625 0.278148 -0.046565 0.125571 -0.095557 0.026955 0.173222 0.014220 0.090263 0.037644 -0.154971 -0.131542 0.091259 -0.058620 0.241402 -0.167977 0.019192 -0.022958 
是 0.062513 -0.072995 -0.126469 0.003930 -0.100697 0.321782 0.172706 0.192143 -0.069286 -0.056179 0.049974 -0.336040 0.319418 -0.131416 0.003884 -0.008666 0.146806 0.153761 -0.030251 0.000033 0.301415 0.092069 -0.101595 0.032925 0.181174 -0.219362 -0.138522 0.076113 0.122078 -0.010391 0.088892 -0.091213 0.146366 0.106215 0.018409 -0.041700 -0.066761 -0.188064 0.065185 0.039798 -0.117720 -0.137184 0.037760 0.218292 -0.040730 0.067278 -0.100723 -0.057047 -0.039370 -0.048937 
人 0.081419 0.134592 0.041025 0.108152 0.026240 0.359444 0.128933 0.106919 -0.083422 0.171392 0.158036 -0.144672 0.101544 0.089524 -0.015172 -0.184530 -0.003315 0.138241 0.046231 -0.235696 0.191967 -0.020213 -0.073818 0.102716 0.311978 -0.025755 -0.272920 0.242966 -0.216922 -0.146651 0.069024 -0.093282 0.101971 0.172647 -0.051541 0.012360 -0.060658 0.003595 -0.147026 -0.011334 -0.153671 0.133495 -0.269233 0.023422 0.100891 0.216820 0.307555 -0.118397 0.084467 0.184783 
年 0.283349 -0.030950 -0.008929 -0.438464 -0.093020 -0.275682 0.463886 0.054440 0.187391 0.170074 -0.218190 -0.216390 0.294718 0.454765 -0.053561 -0.038638 0.048876 0.501477 0.097237 0.142906 -0.023592 -0.471866 0.037811 0.449197 0.133995 0.123656 0.256786 0.083668 0.052416 -0.135983 0.174266 -0.251983 0.140953 0.004335 0.707864 -0.323002 0.091976 -0.097384 0.124482 0.001165 -0.228275 0.193703 -0.265758 -0.142994 0.144580 -0.478650 0.028563 -0.253782 -0.091800 -0.338468 
有 0.028682 0.001893 -0.103746 -0.101143 -0.171922 0.368107 0.358141 0.075940 0.061947 0.260587 0.036525 -0.331764 0.200367 -0.033542 -0.173154 0.047194 0.059626 0.057036 -0.261921 -0.141458 0.470377 0.055652 -0.117668 -0.082099 0.180916 -0.059756 0.005819 0.167815 -0.061173 -0.077652 -0.200161 -0.202844 -0.074915 0.038505 -0.027076 0.051941 0.058850 -0.145951 -0.129162 0.151378 -0.281251 -0.115469 0.055807 0.203259 0.019823 0.287459 0.071346 -0.150619 -0.135420 -0.090482 
大 -0.022928 -0.097211 0.075178 0.251137 0.219350 0.173669 0.338163 0.072157 -0.097106 -0.050291 -0.019748 -0.282260 0.097037 0.054915 0.160214 0.297189 -0.085350 -0.033570 0.022790 0.023711 0.145919 0.084394 -0.176919 -0.047681 0.152687 -0.211070 -0.014218 0.118162 -0.083336 0.005188 -0.036978 -0.064287 -0.119240 -0.091688 0.021044 0.135213 -0.102478 -0.170781 -0.177115 0.244020 0.078450 0.138390 -0.021337 -0.062754 0.202379 -0.218716 0.070270 -0.123221 -0.209920 0.040944 
了 0.298433 0.068098 -0.017080 -0.016825 -0.124588 0.108044 0.339624 -0.017291 -0.099909 0.061050 -0.003692 -0.228092 0.006783 -0.023342 0.076321 0.043993 0.036402 -0.036671 0.273185 0.289178 0.307137 0.078250 0.057075 0.036922 0.267618 -0.198049 0.062228 0.093687 -0.084306 -0.161509 -0.140929 -0.149974 0.067340 -0.016628 -0.123679 0.007708 -0.020954 0.138534 -0.112472 -0.012806 -0.021284 -0.012801 0.059803 -0.071313 0.061257 0.066814 0.144170 -0.051546 -0.133859 -0.053366 
不 0.210555 0.008023 -0.110644 -0.146152 -0.140061 0.256784 0.290598 0.220351 -0.142843 -0.056750 0.105303 -0.383170 0.195664 -0.068561 0.065377 0.131383 -0.002958 -0.123790 0.084243 0.097813 0.356142 0.049095 -0.026745 -0.190519 0.081024 -0.118059 -0.423514 0.086570 0.041504 0.022805 -0.022527 -0.075844 0.080324 0.064440 -0.019118 0.133916 0.131918 -0.139569 -0.206287 -0.042947 -0.325059 -0.242537 0.049070 0.256993 0.045148 0.155070 -0.117023 -0.119350 -0.163065 -0.123839 
十 0.558839 -0.201812 0.350077 -0.024585 -0.008496 -0.147359 0.077147 -0.117406 0.330143 0.577120 -0.146591 0.142705 -0.008952 0.425606 -0.019358 0.100573 -0.684895 -0.280764 -0.128497 -0.028330 -0.265248 -0.521887 -0.053593 0.382644 0.634688 0.018140 0.267993 -0.253703 0.122498 -0.351813 0.404573 -0.093064 0.037903 -0.283504 0.782039 0.021758 0.226093 -0.560262 0.012792 0.099656 0.094000 -0.179676 -0.260642 0.096418 -0.512818 -0.052390 0.235005 0.070078 0.444995 0.065429 
为 0.169136 -0.046481 -0.089519 -0.085975 0.044799 0.377533 0.038271 0.094891 0.282757 -0.069471 -0.051022 -0.241692 0.293095 0.051728 0.088078 -0.047343 -0.147184 0.157161 -0.020006 0.123904 0.254031 0.070096 -0.237054 0.212073 -0.028356 -0.107658 -0.200896 -0.091054 0.194392 0.029019 -0.027649 -0.157663 0.060988 0.153666 -0.122192 -0.106645 -0.077943 -0.090776 -0.005616 0.076123 0.034584 -0.090675 -0.098862 0.175085 0.166042 -0.002648 -0.092603 0.026905 0.131769 -0.127112 
和 -0.037523 0.165394 -0.011206 0.136360 0.160051 0.321014 0.049762 0.177346 0.106609 0.128116 -0.164357 0.086421 -0.129338 0.215039 -0.009326 0.237529 0.081425 -0.041785 0.218765 -0.050776 0.126455 0.234096 -0.062880 0.325060 0.176126 -0.111968 0.064620 0.003818 -0.016731 0.027389 -0.004240 0.005875 -0.086881 0.022140 -0.154119 0.307946 -0.183220 0.211374 0.003831 0.052637 -0.097800 0.029084 -0.291345 0.060449 -0.031174 -0.095817 0.366978 -0.161071 -0.025494 0.142513 
会 -0.103544 0.200640 0.044760 0.127199 -0.480593 0.020254 0.298751 -0.057729 -0.020976 0.101435 -0.266960 -0.212674 0.425935 -0.073264 0.208067 -0.049742 -0.221116 -0.026000 0.466560 -0.011750 0.133631 -0.107804 -0.163583 0.302372 0.314763 -0.267446 -0.216032 0.211639 -0.028906 0.288831 0.366578 -0.042646 -0.205705 0.192754 -0.193955 0.215800 -0.020403 0.065095 -0.010949 -0.313193 0.063602 0.024116 0.081642 0.136223 0.005628 0.001690 0.071480 0.022686 -0.159073 0.217381 
以 0.244274 0.066254 0.076120 -0.203626 0.101585 0.291185 -0.085863 -0.036202 -0.026628 0.243169 0.032354 -0.218138 0.054614 -0.151631 0.120457 0.143034 0.202426 -0.106148 0.430069 0.020201 0.204193 -0.077564 -0.068161 0.118842 0.003899 -0.100417 -0.035373 0.129657 -0.098842 0.006195 -0.373490 -0.168480 0.173020 0.348279 0.060729 0.166844 -0.076421 -0.146395 -0.091959 0.048168 -0.217252 0.186623 -0.114121 0.217996 -0.096505 -0.002623 -0.112111 -0.057831 0.262756 -0.167661 
上 0.148793 -0.110630 0.242776 -0.107824 0.077640 -0.019670 0.216615 -0.040960 -0.118630 0.134517 -0.219225 0.060356 0.225800 -0.123379 0.358472 0.323300 0.098679 0.080498 0.180256 -0.085985 0.286664 -0.153633 -0.043762 -0.032222 0.233663 -0.211157 0.132754 0.067543 -0.253629 0.131646 -0.026572 -0.188805 0.151419 0.233096 0.011894 0.046423 -0.095875 0.052685 0.068119 0.030922 -0.197205 0.003483 0.297713 0.000749 -0.086166 -0.102101 0.070686 -0.080577 -0.015069 -0.082766 
台 0.528212 -0.116798 -0.434905 -0.203411 0.047256 0.346486 0.295645 -0.406167 -0.060219 0.100531 0.030225 0.260822 -0.098154 -0.389504 0.064629 -0.060765 -0.464462 -0.352514 -0.051712 0.118450 0.092875 -0.317418 -0.020033 0.184106 0.247223 0.103906 -0.085414 -0.018973 0.289861 0.019666 0.217530 -0.122124 0.233732 0.232072 -0.118551 -0.104525 -0.427204 -0.536944 0.053393 0.184142 -0.116514 -0.171807 0.345776 -0.296017 0.307367 -0.171803 0.225945 -0.299600 -0.215901 -0.065630 
出 0.301419 0.050645 0.064055 0.004032 -0.118003 0.227510 0.136825 0.203631 -0.162346 -0.023758 -0.238911 -0.298082 0.121379 -0.234858 -0.044114 0.275661 -0.044984 -0.156386 0.397233 0.383922 -0.195614 -0.062189 -0.034940 0.133981 0.238146 -0.152950 -0.040144 -0.205838 -0.220729 0.234156 -0.134427 -0.311935 0.047266 0.225413 -0.081887 -0.225665 -0.000177 -0.156912 0.029224 0.121891 -0.292295 0.202721 0.099690 0.062403 0.014894 0.074716 0.052147 0.122496 0.030736 0.107275 
行 -0.119596 -0.122297 -0.448533 0.201534 -0.236862 -0.142603 -0.010311 -0.310518 -0.002710 0.000937 0.352438 0.371713 0.557410 -0.066916 -0.004450 0.133999 0.112335 -0.019069 0.369636 0.174152 -0.121177 -0.179710 -0.162059 0.168667 0.463156 -0.432973 0.055595 0.012215 -0.090507 -0.012108 0.419072 -0.368007 0.004797 0.080928 -0.407593 0.543783 -0.404576 -0.246997 0.056675 0.090679 -0.128420 0.147655 -0.248242 -0.081561 -0.153738 -0.120024 0.049029 0.158719 0.003451 -0.012577 
业 0.071464 0.155897 -0.214923 0.228394 -0.181712 0.323685 0.127270 0.136253 0.536803 -0.076390 0.463122 -0.037297 0.099536 0.010765 0.145029 0.232132 -0.331429 0.071872 -0.060572 0.029522 0.107045 -0.142100 -0.041035 0.351440 -0.016582 -0.531295 0.234625 -0.129248 -0.581064 0.537874 -0.063918 0.256256 -0.117933 -0.414202 0.168659 0.035741 -0.239140 -0.174892 0.141183 0.317189 0.009872 0.405104 -0.137568 -0.189604 -0.193142 0.014774 0.234260 0.008414 -0.295917 -0.423584 
发 0.178825 0.326665 -0.004907 0.217589 0.108884 0.215793 0.113433 0.084939 -0.146213 0.009922 -0.168919 -0.328742 -0.056655 -0.161772 -0.076781 0.077594 0.108986 -0.069078 0.251505 0.460114 0.177081 -0.209198 -0.440684 0.013407 -0.025299 -0.285711 0.329335 0.141620 0.108302 0.097188 -0.313464 -0.218728 -0.227545 0.402937 0.070525 0.162595 -0.275344 0.305829 0.164380 0.206757 0.203936 -0.169581 -0.094087 0.078874 -0.472432 0.266307 0.428217 0.117545 -0.365607 -0.065863 
来 0.412352 -0.018941 -0.240945 -0.069819 0.038909 0.244479 0.103327 0.055876 -0.028335 -0.129185 -0.034424 -0.227229 -0.000830 -0.087147 -0.054955 0.073693 0.158359 -0.028531 0.321502 0.203214 0.159974 -0.225474 0.033037 -0.210456 0.175158 -0.236978 0.051389 0.079144 -0.046002 -0.009865 0.078964 -0.095024 0.288697 0.175187 0.198579 -0.003486 0.029042 -0.207069 -0.181432 -0.059341 -0.141702 -0.006209 0.172687 0.004532 0.135837 -0.090139 0.030548 -0.337049 -0.099770 0.035370 
家 -0.030641 0.032688 -0.121610 0.156377 -0.090127 0.346390 0.091922 0.143351 0.232901 0.039276 0.131731 -0.106544 0.020391 0.234260 0.059258 -0.066170 -0.074751 0.083497 -0.072606 0.037729 -0.005686 0.096674 -0.087494 0.221911 0.192658 -0.080281 0.161329 -0.111293 -0.316426 0.003212 0.009372 0.018526 -0.139598 0.048025 0.015410 0.015055 -0.229225 -0.057055 0.058956 0.001227 0.039859 0.182424 -0.189401 0.132914 0.302074 -0.076506 -0.034928 -0.240508 0.071030 0.274845 
这 0.088875 -0.138638 0.050504 0.155997 -0.003353 0.374333 0.474798 0.085277 -0.170110 -0.129049 0.268552 -0.074221 0.324137 -0.012177 -0.047546 0.159005 0.096748 0.192425 0.115774 0.044989 0.253000 -0.034067 -0.227407 0.170750 0.163188 -0.189739 0.094331 0.090371 -0.171423 -0.260739 0.112144 -0.282882 -0.009099 0.064269 0.011487 -0.320993 0.182677 0.077168 -0.001279 -0.046106 -0.199634 -0.047720 0.421377 0.478702 0.093606 0.463034 -0.092853 0.191255 -0.056074 0.204837 
经 0.170105 -0.011905 -0.370412 0.146025 -0.135739 0.365383 -0.068263 0.169501 0.027651 0.218959 -0.340448 -0.175176 0.041574 0.007876 0.207937 -0.323247 0.556747 -0.061925 0.262312 0.280569 -0.015925 -0.406066 -0.232378 0.015242 0.243955 -0.441144 -0.154496 -0.461464 -0.071205 0.266090 0.016791 0.107423 -0.707445 0.021726 0.238976 -0.117257 0.051560 0.110229 -0.128189 0.343429 -0.021743 -0.333551 -0.354029 -0.066516 0.021948 -0.222603 0.361023 -0.212712 -0.188747 -0.360635 
新 -0.261526 0.303160 0.123448 0.198673 -0.126347 0.533278 0.209088 -0.031656 0.449105 -0.068403 -0.473704 0.130828 -0.156748 -0.000917 0.249031 0.129470 -0.293218 -0.010128 0.621417 -0.185806 -0.129722 0.045123 0.009767 0.107233 -0.040991 -0.146832 0.117865 -0.059056 0.181327 0.002399 0.150225 0.094617 0.165293 0.009364 0.069508 0.301284 0.062550 -0.071643 -0.291579 0.275113 -0.119735 -0.327886 0.375208 -0.109823 0.099448 -0.117632 0.405126 0.284214 -0.123347 0.257374 
个 0.074617 -0.021138 0.071975 0.172411 -0.287583 0.280194 0.453186 0.132724 -0.001021 0.060188 -0.044785 -0.101028 0.083761 0.249927 -0.073655 -0.065113 0.148827 0.340002 -0.103631 -0.026995 0.462570 0.013063 0.256804 0.358237 0.414183 -0.200905 0.319163 -0.085817 0.137748 -0.091495 -0.021617 -0.244515 0.110369 0.045891 0.098065 -0.188252 -0.010150 -0.009195 0.091341 0.100345 0.146015 0.077528 0.287336 0.368760 0.057624 -0.016548 -0.061346 -0.131788 0.210714 0.013695 
对 0.278468 0.183039 -0.017572 0.020421 0.139808 0.433909 0.225984 0.243854 -0.085028 -0.225120 0.079864 -0.143821 0.071070 0.020012 0.113234 -0.121648 0.260472 -0.090357 0.269415 -0.101960 0.084704 -0.168690 -0.198839 0.132584 0.012760 0.038177 -0.097425 -0.141938 -0.003606 -0.056503 0.132047 -0.283880 0.015778 0.104278 -0.213338 0.205385 -0.034663 -0.059242 0.209055 -0.111674 -0.096402 -0.027861 -0.156196 0.175590 -0.002935 0.043532 0.161032 -0.125770 -0.194058 -0.047155 
到 0.324997 -0.071560 0.013723 -0.035003 -0.170435 -0.140603 0.265348 0.094013 -0.108359 0.414317 0.068259 -0.441519 0.035032 -0.139554 0.098801 0.004402 0.013013 -0.074771 0.134009 0.107064 0.478129 -0.065525 -0.047841 0.017406 0.206535 -0.192722 0.138520 0.242107 0.044975 -0.222973 -0.025644 -0.085728 0.288466 -0.086955 0.158894 0.000371 0.114084 -0.052741 0.014866 -0.061911 -0.272935 -0.041344 0.002002 -0.033994 0.032732 0.078229 0.080049 -0.401058 0.251661 -0.114771 
地 0.237054 -0.096920 -0.012692 0.423881 0.224154 0.144220 0.334737 0.144545 -0.059163 0.099816 0.245237 0.206074 -0.166938 0.060668 0.065013 0.174689 0.214379 0.234458 0.001392 -0.238236 0.418331 0.101404 -0.125690 -0.089963 -0.152187 -0.160166 0.076572 -0.016788 0.033551 -0.279996 -0.093564 0.050852 -0.206305 0.045457 0.178987 0.187348 -0.222966 0.007550 0.137610 0.133754 -0.328770 -0.161048 0.054185 0.109392 0.186814 -0.244570 0.142260 -0.098725 -0.236935 0.174684 
成 0.178917 0.050221 0.086269 -0.248458 -0.168508 0.282561 0.126689 -0.407778 0.163042 0.138118 -0.200936 -0.525772 0.354854 -0.036648 0.250293 -0.062445 -0.108377 0.080852 0.106096 -0.118960 0.439074 0.091058 0.056323 0.248649 0.169040 -0.042981 -0.110929 -0.257373 0.053873 0.122812 0.122354 0.160781 -0.098517 -0.158908 -0.048559 -0.036428 -0.047156 0.153841 -0.289186 0.039794 0.223783 -0.151055 -0.141728 0.013493 0.129497 -0.033393 0.077229 0.101406 -0.143444 -0.312402 
「 0.091023 -0.122449 -0.046335 -0.104370 -0.010491 0.454187 0.120180 -0.172200 0.166163 -0.190629 0.105895 -0.150813 0.168729 -0.063044 0.043660 -0.195221 -0.030921 -0.039104 -0.105721 0.057568 0.068333 0.077260 0.195311 0.150116 0.149951 -0.127221 -0.264377 -0.278484 0.208090 0.189741 0.006440 0.083090 0.197575 0.207723 -0.009281 0.034635 -0.042755 -0.154996 0.109708 0.012976 -0.289752 -0.008275 0.130795 0.141050 0.093020 0.020306 0.121004 -0.141263 0.129662 0.119877 
」 -0.002772 -0.071172 -0.121039 -0.191402 -0.019990 0.395829 0.070951 -0.232127 0.132865 -0.159092 0.103440 -0.188144 0.132085 -0.106554 0.050138 -0.119356 -0.151220 -0.107901 -0.058112 0.247369 0.058071 0.168433 0.296757 -0.001812 0.272375 -0.124044 -0.384381 -0.243744 0.246214 0.364268 -0.128654 0.211211 0.105746 0.244003 -0.001153 0.035383 0.083346 -0.200550 0.070863 -0.080843 -0.178762 0.002203 -0.011985 0.043136 0.153754 -0.070321 0.190602 -0.106203 0.051838 0.124295 
外 0.262766 0.056709 -0.312619 0.154392 0.041260 0.122923 0.190607 0.437027 0.148552 -0.277065 0.026793 -0.028087 0.393552 0.180866 0.273603 0.049676 0.048390 -0.491007 0.163505 -0.282817 0.198109 -0.293797 -0.106101 -0.066157 -0.264758 -0.173077 0.240786 -0.185769 -0.327792 0.236925 -0.157758 -0.355272 -0.212256 -0.160981 -0.295457 0.127779 -0.131789 -0.244237 -0.030068 0.070674 -0.285845 0.053184 -0.366459 0.144406 0.081083 0.045565 0.125855 -0.181714 0.157007 -0.026324 
政 0.174336 0.156038 -0.098177 -0.479270 -0.256052 0.558205 0.177834 0.020432 0.209548 0.036591 0.330192 -0.140721 0.015707 0.043885 -0.252644 -0.294172 0.427913 -0.193697 0.530149 -0.652590 0.071327 -0.117710 -0.068097 -0.217449 0.452562 0.159235 -0.330169 -0.488058 0.056331 0.101464 0.238177 -0.377386 0.016933 -0.180967 -0.037508 0.662744 -0.530821 -0.215514 -0.301972 0.078708 -0.150318 0.070873 0.049890 -0.354204 0.348432 -0.446085 0.256213 0.431543 -0.279431 0.111286 
民 -0.000401 0.484881 -0.075559 -0.066515 0.171555 0.332770 0.023527 0.165734 -0.118134 0.079720 0.067309 0.245069 -0.187384 0.288724 0.340173 -0.055687 -0.279780 0.321744 0.298820 -0.151722 -0.120697 -0.219557 -0.023968 0.332492 0.056784 -0.393576 -0.596668 -0.117772 -0.301934 -0.302119 0.255367 -0.357446 -0.005008 0.217387 -0.158177 0.020423 -0.362085 -0.120979 -0.008731 -0.166316 -0.022418 0.111855 -0.032046 -0.092188 0.575857 0.078717 0.491129 0.104190 0.058790 0.149934 
时 -0.268563 0.157708 -0.014793 0.002280 0.269378 0.060603 0.281758 0.180797 0.134375 0.007902 0.162291 -0.125626 0.446072 0.145910 -0.041393 -0.079142 0.063747 -0.070183 0.207950 0.171997 0.329468 -0.135833 -0.068705 -0.171109 0.216516 -0.098264 -0.152750 -0.064383 -0.212034 -0.147873 0.199240 -0.419434 -0.117756 0.129478 0.105761 -0.019748 -0.087024 -0.095756 0.003065 0.254249 -0.112395 -0.177765 0.405396 0.236658 0.039300 0.122028 -0.082447 -0.143376 0.132785 -0.163807 
资 0.235743 0.172446 -0.260762 0.578490 -0.349015 0.197050 -0.044687 0.150252 0.538921 -0.316433 0.368952 0.027477 0.239569 0.184407 0.646927 0.036974 -0.432587 -0.343670 -0.196327 -0.265938 0.529256 0.021880 0.228443 0.246498 -0.149162 -0.042488 0.543200 -0.093856 -0.390646 0.185724 -0.120114 0.234846 -0.024086 -0.621910 -0.405196 0.015369 -0.040484 -0.309161 -0.429640 -0.214116 -0.419165 0.020579 -0.327126 -0.303873 -0.266757 -0.094994 0.196261 -0.157127 -0.244622 -0.449778 
他 0.020726 0.178578 0.018905 -0.036763 -0.007052 0.392688 0.355352 0.236539 -0.216830 -0.029180 0.311857 -0.379410 0.221764 -0.168923 -0.247841 -0.023194 0.248172 -0.041695 0.123184 0.254764 -0.025891 -0.162763 -0.292461 -0.122859 -0.034564 -0.241342 -0.108191 -0.039295 -0.054092 0.033186 0.190202 -0.043563 0.329564 0.374576 -0.076405 0.047097 -0.003883 -0.186332 0.235681 -0.231556 -0.273491 -0.154754 -0.037142 0.398150 0.076691 0.257580 -0.354535 -0.010873 0.115471 -0.118201 
三 0.253671 -0.269603 0.371474 0.070621 0.200716 -0.052941 0.157902 -0.043254 0.255726 0.105185 -0.209542 0.111125 -0.025262 0.139554 0.380134 0.413465 -0.243544 -0.299834 -0.308255 -0.184520 0.004172 -0.108940 -0.059481 0.348431 0.409534 -0.014549 0.369250 -0.325292 -0.057235 -0.173866 0.180924 -0.304428 0.027969 -0.065938 0.478986 -0.001376 0.257193 -0.213023 0.120075 -0.063409 0.226077 -0.056799 -0.050512 0.186223 -0.179439 -0.011473 0.011000 0.014944 0.253675 -0.069162 
之 0.047459 -0.344295 0.221787 -0.199238 -0.062202 -0.061418 0.095657 -0.097589 0.055824 0.407248 0.098994 -0.112853 0.155620 0.016472 0.384068 0.228380 -0.328824 -0.169941 0.080993 0.316782 0.158738 0.053614 -0.027920 -0.150692 0.074465 0.036216 -0.104120 -0.205355 0.159694 0.017804 -0.200729 -0.491401 0.228399 0.103412 -0.015698 0.042648 -0.133390 -0.256014 0.284591 0.305182 0.137237 -0.358366 -0.513431 0.414895 -0.201326 -0.322835 0.172908 -0.184974 0.635268 -0.284295 
多 0.218554 0.056601 0.171564 0.146105 0.043195 0.239427 0.181504 0.265428 -0.145577 0.085633 -0.009029 -0.209201 0.161550 0.403969 -0.005128 0.066815 -0.199919 0.057843 0.002155 -0.129294 0.145738 -0.045310 -0.297648 0.142345 0.535365 0.148984 0.111720 0.226446 -0.177823 -0.215935 -0.212412 0.145900 -0.076976 -0.204661 0.064245 -0.130359 0.273206 -0.090109 -0.372428 0.029979 -0.110146 -0.194951 -0.003812 0.030629 0.062852 0.061505 0.008894 -0.286814 -0.066562 0.145188 
要 -0.060142 0.061171 -0.061696 0.001642 -0.262845 0.308063 0.235260 0.396144 -0.090092 0.182776 0.250661 -0.098036 0.242171 0.194479 0.091895 -0.012451 -0.073313 0.157651 0.330409 0.172963 0.222004 0.477538 -0.231696 -0.110258 0.040039 -0.300726 -0.158766 -0.085659 -0.050634 0.176464 0.201036 -0.115724 0.334491 0.209476 0.045481 0.179073 0.164870 -0.108114 0.093196 0.049567 -0.079395 -0.126918 0.160543 0.138281 0.165542 0.019362 -0.332225 0.088057 -0.192691 -0.044190 
美 0.051115 -0.101137 0.096793 0.200034 0.181214 0.338288 -0.208107 0.196470 0.011803 0.069807 -0.415677 -0.016789 0.259637 0.280308 0.062628 0.085355 -0.032963 -0.166758 0.337482 -0.034244 -0.203729 -0.179257 0.051593 -0.057843 0.089998 0.194300 0.205409 -0.327158 -0.269682 -0.346828 -0.132662 -0.352828 0.153692 -0.019966 -0.183159 0.113926 0.088877 -0.041467 -0.015517 -0.419300 0.073034 -0.169011 -0.362201 0.130715 0.163718 -0.215985 -0.088624 -0.722396 0.060602 0.039626 
二 0.528407 -0.256903 0.490062 0.267910 0.039263 -0.226432 0.224165 -0.042802 0.460474 0.278838 -0.465903 0.036152 -0.051603 0.192807 0.233267 0.395107 -0.500547 -0.144358 -0.250667 -0.152560 -0.088002 -0.331471 -0.063367 0.509378 0.423353 0.261538 0.241576 -0.226661 0.128805 -0.259680 0.361973 -0.246885 0.148607 -0.100451 0.618991 -0.026224 0.295098 -0.454620 -0.141721 -0.182917 0.229633 -0.098689 -0.225438 0.198284 -0.279927 0.149036 0.100673 0.048158 0.335457 -0.036408 
生 0.120614 0.041889 0.085788 0.481026 0.058320 0.265266 0.019614 0.142256 0.286697 0.068792 0.327654 -0.476085 0.054076 0.273114 0.169138 0.212706 -0.045581 -0.002965 0.146163 0.200521 0.113009 -0.005774 0.131233 -0.095912 0.181896 0.119244 -0.177108 0.445547 -0.167031 0.076632 0.053033 0.292229 -0.007280 0.525300 0.366723 -0.141741 -0.607701 0.229452 0.288024 0.285839 -0.069559 -0.060930 0.107459 -0.208169 -0.042894 0.260771 0.245220 0.193486 -0.017783 -0.363108 
日 0.121676 0.169925 -0.295300 0.041724 -0.064612 -0.693280 0.735337 0.029521 0.481708 0.126232 -0.642909 0.277196 0.321038 0.018088 -0.317045 -0.450885 -0.049266 -0.296332 0.005979 -0.084972 0.166242 -0.283045 0.193940 0.587447 0.051736 0.370542 0.015335 -0.358141 -0.021438 -0.475566 0.472558 -0.111830 0.384522 -0.006832 0.424258 -0.003795 -0.431829 0.015744 -0.281942 -0.086636 -0.050562 -0.207632 -0.081434 -0.011788 -0.439045 -0.245542 -0.090494 -0.257000 -0.037256 -0.294419 
进 0.210798 0.048781 -0.281199 0.193708 0.044113 -0.045201 0.304953 -0.396673 -0.406637 -0.098231 0.139963 0.122537 -0.008048 -0.010578 -0.009964 0.292435 -0.146299 -0.123834 0.369050 0.234673 0.166703 0.005131 -0.112992 0.344775 0.192164 -0.274948 -0.184825 -0.171859 -0.155763 0.095106 0.128010 -0.667463 -0.170073 0.038820 -0.372747 0.299609 0.168513 0.059624 -0.073483 0.381765 -0.086377 0.188427 0.016571 -0.047287 0.231069 -0.158069 0.230065 0.123580 -0.250533 -0.110646 
说 -0.070833 0.066135 0.140656 -0.124707 0.053034 0.354071 0.187211 0.186432 -0.070962 -0.234824 0.215109 -0.275022 0.349619 -0.184681 -0.101178 -0.075299 0.344996 -0.054095 0.086337 -0.019051 -0.295708 -0.041874 -0.347575 0.267458 0.104668 -0.118155 0.215376 0.100796 0.186665 0.304137 0.086616 0.195934 0.449286 0.286581 -0.148482 -0.199967 0.175551 -0.172587 -0.107804 -0.103195 -0.613655 -0.142824 0.000107 0.328682 0.084526 0.179838 -0.081407 -0.285139 -0.138014 0.067319 
作 -0.049470 0.186751 -0.055942 -0.048675 -0.391204 0.038358 -0.007081 0.061355 0.284185 0.038119 -0.044454 -0.275132 0.055911 0.113008 -0.343712 0.416917 -0.153401 -0.397890 0.381421 0.076390 0.341423 0.063336 0.046706 0.188174 -0.014694 -0.462856 -0.144466 -0.044793 -0.222491 0.163461 -0.189457 0.160843 -0.073176 0.028615 -0.136038 0.084781 0.109121 0.168492 0.303084 -0.181947 0.318252 -0.228002 -0.126683 0.006404 0.173556 -0.203892 -0.119730 -0.011768 -0.307289 -0.153164 
分 -0.140115 -0.494791 0.178554 0.073595 -0.159554 0.220487 0.550416 -0.112275 -0.235026 0.641491 0.098297 0.013289 0.123695 0.060110 0.226568 0.261066 -0.142811 -0.286997 -0.285990 0.133072 -0.028665 0.049601 0.085078 0.075660 0.233215 0.323293 0.079580 -0.036019 0.284964 0.047152 -0.128461 -0.323447 0.055933 -0.372023 0.275431 0.285445 -0.428132 -0.158676 -0.109948 0.340724 -0.139075 -0.558349 -0.880315 0.258842 -0.088849 -0.258566 0.119296 0.324243 0.709250 -0.438702 
长 -0.184001 -0.062511 0.075078 -0.036919 -0.062452 -0.380136 0.318191 0.238716 0.033538 0.258069 0.107691 -0.088394 0.192866 -0.095724 0.603739 0.276643 0.066594 -0.129399 0.087119 0.395884 -0.370891 -0.195872 -0.314195 0.170589 0.412693 -0.022239 -0.142554 0.015583 0.081210 0.653274 0.088898 0.094302 -0.291554 0.029540 -0.107112 0.496602 -0.357377 0.050654 -0.319364 0.221048 -0.115998 -0.473464 -0.197020 0.042214 0.281872 -0.457727 0.206486 -0.136113 0.382855 0.005927 
也 0.160038 0.128950 -0.047604 -0.043971 0.050669 0.248580 0.233389 0.129223 -0.060029 0.059232 0.201253 -0.302887 0.283156 -0.166488 -0.070230 -0.098022 0.051325 -0.053365 0.085670 0.090232 0.337023 -0.065831 -0.154394 -0.082474 0.044195 -0.076024 -0.238093 -0.029657 -0.065440 0.030177 -0.047657 -0.136108 0.042012 0.229231 -0.013726 0.103081 -0.040109 -0.104278 -0.059995 -0.002106 -0.163471 -0.087183 0.142395 0.168496 0.158322 0.094784 -0.144083 -0.131366 -0.122951 -0.045613 
工 0.259232 -0.141192 -0.008099 0.028586 -0.109862 -0.035906 -0.193899 -0.039043 0.324339 0.206668 0.037810 -0.164989 -0.101986 0.139055 -0.002072 0.485551 -0.266877 -0.376274 0.069814 0.019202 0.407797 0.032687 -0.489609 0.349239 0.176359 -0.251198 -0.108510 0.051225 -0.425234 0.600174 -0.110264 0.224431 -0.092819 -0.136505 0.196582 0.547579 -0.042774 0.164939 0.415171 0.248833 0.188515 0.292241 0.054334 0.233098 0.276502 -0.142389 -0.134969 0.034256 -0.317253 -0.385344 
前 0.212070 -0.226803 -0.001330 -0.038126 -0.144237 0.136576 -0.176019 0.193534 0.207468 -0.170345 0.093523 0.214473 0.115426 -0.130904 -0.070853 0.209768 0.345889 -0.190873 0.202008 0.326137 0.605949 -0.634298 -0.248373 0.060226 0.183039 0.109607 0.027003 0.100927 0.113451 0.001847 0.319113 -0.215423 0.103914 0.166980 -0.089547 -0.305369 -0.328262 -0.165513 -0.079708 0.199079 0.091834 -0.046325 0.074680 0.093236 -0.048892 0.128367 0.092598 -0.126814 0.236734 -0.158687 
百 0.235407 -0.119020 0.592001 -0.003611 0.067568 0.018402 0.061410 0.158877 -0.070277 1.048928 0.152988 -0.006925 0.065762 0.400814 0.373116 0.116550 -0.692598 -0.181381 -0.334316 0.286434 -0.100076 0.230989 0.086365 0.230518 0.747098 0.327525 0.344822 -0.153402 -0.243374 -0.198659 -0.363156 -0.327355 -0.390275 -0.539909 0.293948 -0.029785 0.343369 -0.816710 0.405330 0.148823 -0.207081 -0.022427 -0.475430 0.104049 -0.046543 -0.357211 0.086032 -0.063120 0.710995 -0.312618 
开 0.149542 0.181012 -0.012022 0.106340 0.135407 -0.277747 0.307087 -0.222346 0.176980 -0.283913 -0.137981 -0.298714 0.031435 0.229408 0.289316 -0.106621 0.019507 0.114880 0.306123 0.543011 0.610677 -0.256917 -0.076283 -0.048614 -0.422564 -0.046239 0.500101 -0.523902 -0.287101 -0.043372 -0.014196 -0.076109 -0.041692 0.132059 0.099958 0.195961 -0.201122 0.132561 0.080821 0.328337 -0.036962 0.081501 -0.026254 0.126108 -0.204796 -0.020051 0.208797 -0.048191 -0.335472 -0.107794 
公 -0.225426 -0.159936 0.399966 0.035854 -0.172581 -0.036978 -0.015475 0.002904 0.509710 0.152146 -0.339178 -0.139148 0.070322 -0.056272 0.246856 0.025884 0.089206 0.086915 -0.279510 0.250004 0.084260 0.185258 0.465130 0.503738 -0.336776 0.264101 0.291096 0.057071 -0.434246 -0.003469 0.239114 -0.098569 -0.566450 0.258312 -0.144675 0.432792 -0.192836 -0.287709 -0.307097 0.417134 -0.123770 -0.219148 -0.155873 0.394776 0.030433 0.288177 -0.173289 -0.440718 -0.313945 -0.106087 
九 0.674708 -0.149928 0.365719 -0.084650 -0.250750 -0.720122 0.147906 -0.320282 0.377746 0.153058 -0.089942 0.216666 -0.006849 0.236775 -0.012174 0.123571 -0.284934 0.294193 -0.178049 0.150426 -0.489488 -0.524822 -0.289820 0.583727 0.331245 -0.115329 0.288473 -0.470689 0.110747 -0.220366 0.436731 -0.528246 0.296535 0.028047 0.903129 -0.050380 0.291375 -0.491272 0.483863 -0.300146 -0.289939 0.082586 -0.576751 0.173532 -0.485140 -0.189110 0.291659 0.032264 0.022018 0.139750 
法 0.000371 -0.196567 -0.162451 0.080150 -0.159456 0.140529 -0.092873 -0.135212 0.434399 0.111221 0.093578 -0.337875 -0.059606 -0.400533 0.335342 0.000291 0.405355 -0.090080 0.088112 -0.196376 -0.025897 -0.118397 0.281968 0.112839 0.349236 -0.166160 -0.089109 -0.163901 -0.187743 -0.380863 -0.090955 -0.046579 0.149693 -0.097145 -0.347050 0.404447 -0.228013 -0.302043 0.050640 -0.205592 -0.148583 -0.173682 -0.111751 0.054794 0.233599 -0.038089 -0.283227 0.211562 -0.384726 0.157771 
方 0.246900 0.084132 0.146884 0.005472 0.073930 0.166698 0.377141 0.044517 0.232249 0.390368 -0.047655 0.190143 -0.034484 -0.009250 -0.094403 -0.460358 0.564327 -0.177567 0.366089 0.056732 0.528284 -0.067813 -0.144210 -0.034621 -0.115240 -0.094184 -0.021770 0.087756 -0.174746 -0.036610 -0.261563 -0.214222 -0.213843 -0.102778 -0.316584 0.071879 0.381690 -0.078996 0.155412 0.251747 -0.285377 -0.274931 -0.066275 0.204541 0.022323 0.090103 0.109441 0.073194 -0.208879 0.239541 
与 -0.096053 0.079177 -0.099759 0.187192 0.137996 0.295168 0.131051 0.218100 0.265855 -0.125878 -0.163316 -0.046226 -0.058303 0.136100 -0.003354 0.106935 -0.117114 -0.120784 0.214979 -0.228962 0.104927 -0.097663 -0.033894 0.194337 0.063219 -0.059530 -0.334185 -0.069180 0.035187 0.059041 -0.040584 -0.241249 -0.277744 0.261378 -0.301945 0.286654 -0.137870 -0.023552 0.134819 -0.027955 0.045681 -0.179766 -0.172861 0.068066 0.076234 -0.305448 0.231282 -0.290995 -0.208040 0.125731 
电 0.281301 0.058199 -0.154001 -0.227728 -0.144206 -0.136557 0.399722 0.155667 0.241380 -0.009067 -0.372727 0.343270 0.075336 -0.777148 -0.521793 -0.287454 -0.278881 -0.836555 -0.168385 -0.099794 0.027438 0.019493 0.197768 0.718077 0.352950 -0.196745 0.038800 -0.180972 -0.186316 -0.115934 0.327518 0.242726 0.488381 -0.012282 0.624143 0.085150 -0.397264 0.043353 0.333682 0.467889 0.268500 -0.072814 -0.225236 -0.110027 -0.718717 0.513100 -0.136264 -0.493146 -0.626839 -0.200550 
市 0.332174 -0.048984 -0.107921 -0.061282 -0.188188 -0.061203 0.405412 0.067352 -0.112526 0.231927 -0.246917 0.013330 0.105254 -0.029590 0.520453 0.177148 -0.138427 0.011442 -0.211774 0.066565 0.174747 0.116975 -0.325915 -0.013890 -0.320956 -0.195095 0.400883 -0.354897 0.076088 -0.231206 0.343578 0.035880 -0.395478 0.004104 -0.298956 -0.169795 -0.647230 0.126050 -0.015393 0.486769 -0.414092 -0.318760 0.338934 -0.656207 0.196331 0.073275 0.257587 -0.074700 0.016518 0.108128 
将 0.096164 0.029576 0.021227 -0.091266 -0.057835 0.126558 0.198282 0.199204 -0.097844 0.141429 -0.031578 -0.220291 0.077214 0.102965 -0.019095 0.148874 0.110173 -0.006795 0.313256 0.232143 0.180547 -0.246894 -0.067688 0.229688 -0.058264 -0.101588 -0.013833 0.054501 -0.059586 -0.058603 0.155059 -0.316356 0.132899 0.118824 -0.129710 0.254304 -0.064521 -0.091717 -0.079698 0.120281 -0.018365 0.086564 -0.036545 0.043666 0.116546 -0.087084 -0.179156 -0.076183 -0.276300 -0.161770 
总 -0.184133 -0.078010 -0.070766 0.122267 0.094644 0.153132 -0.346621 0.623853 0.020327 -0.251345 0.098182 -0.285066 0.321763 -0.825945 0.158485 0.416752 -0.292758 -0.095472 0.265141 0.431553 0.283577 -0.351009 0.242592 0.657790 0.058921 0.592871 -0.346574 -0.111048 -0.437593 0.271760 0.456443 -0.490643 -0.019829 -0.303583 0.073603 0.152591 0.040036 -0.072962 -0.153937 0.061286 -0.340860 -0.021900 0.173116 0.036974 0.094066 -0.159494 0.533145 0.005606 0.409336 0.365456 
五 0.456877 -0.243613 0.617280 0.049007 0.037075 -0.081153 -0.054028 -0.109014 0.183065 0.364203 -0.251931 0.006705 0.000601 0.609624 0.334825 0.293293 -0.244180 -0.116779 -0.320781 -0.012371 -0.159799 -0.291373 0.051344 0.457970 0.547301 0.200174 0.311789 -0.298345 0.053276 -0.075408 0.067314 -0.418324 -0.041713 -0.010722 0.484034 -0.046178 0.308266 -0.544111 0.184786 -0.007863 0.015679 -0.021470 -0.304880 0.117948 -0.354963 0.021596 0.141380 -0.096756 0.467773 -0.205497 
高 -0.080748 0.300724 0.358187 0.202045 0.037991 -0.076059 0.160550 -0.027601 0.031843 0.562107 -0.059983 -0.073808 0.066277 -0.013282 -0.028403 0.721115 -0.035990 0.136434 -0.198475 0.181053 0.044473 -0.107013 -0.242011 -0.166213 0.258882 -0.093674 -0.064069 -0.263650 0.351457 -0.098151 0.082077 0.262872 -0.021964 0.136801 0.130049 -0.182269 -0.044275 -0.322772 -0.454165 0.604629 0.009380 0.189370 -0.217215 -0.052264 -0.132605 -0.071189 0.170072 -0.008061 -0.255110 0.341314 
学 -0.323496 0.153743 -0.216556 0.306701 0.252503 -0.016196 0.227808 -0.204804 0.635223 0.022643 0.045870 -0.629106 -0.154653 0.316746 0.302679 0.196776 -0.233476 -0.235133 -0.028077 -0.152039 0.272904 -0.200953 -0.303352 -0.193713 0.604090 -0.053154 -0.067211 0.293794 -0.228330 0.085251 -0.009613 0.487807 0.159559 0.623580 0.030319 -0.209244 -0.082719 0.060466 0.246179 0.363241 -0.115830 -0.101613 -0.186870 -0.153684 0.359134 -0.090256 -0.194885 -0.047174 0.045494 0.156424 
１ -0.338525 0.082935 -0.731985 0.107195 0.600423 -0.117652 0.644043 0.275858 0.119629 0.557023 -1.307428 0.045045 0.685960 0.313617 -0.312521 0.355858 0.551013 0.281320 -0.080290 0.031322 0.087379 -0.800567 0.254489 0.436097 0.071771 0.401896 0.234783 0.073527 -0.222348 -0.604006 0.068398 0.005389 0.597249 -0.257260 0.330619 0.433067 0.177531 0.296997 -0.395894 -0.195123 0.033141 0.028578 0.027524 0.031154 0.068755 0.309725 0.199031 0.098921 0.114214 -0.312690 
就 0.091918 0.037290 0.047356 -0.063464 -0.093085 0.148460 0.247747 0.092176 -0.006021 0.084855 0.061081 -0.388871 0.261468 -0.121995 -0.106047 0.027439 -0.101287 0.057312 0.073808 0.192865 0.394377 -0.075446 0.129920 -0.004529 0.185873 -0.066076 0.048198 -0.041491 -0.034788 0.149580 0.148907 -0.069512 0.172985 0.099361 0.067335 -0.044271 0.033037 -0.184832 0.080741 0.114271 -0.151446 0.013341 0.227037 0.251469 -0.053615 0.020362 -0.127766 -0.100233 0.064901 0.122721 
加 0.153840 0.042501 0.143425 0.287446 0.479610 -0.112569 0.504076 0.349720 0.152558 0.081469 0.057022 -0.069552 -0.072536 -0.048620 0.033404 0.498353 -0.315515 -0.038261 0.422153 -0.007759 0.083022 0.126414 -0.394188 0.269274 -0.027624 -0.039741 -0.049898 0.031693 -0.000918 0.103149 -0.010116 -0.207457 -0.152659 -0.099880 -0.512540 0.408086 0.377722 0.172183 -0.172724 -0.139871 0.117067 0.244421 -0.022182 -0.128094 -0.003759 -0.822378 -0.326101 -0.103084 0.132575 0.065676 
主 -0.226060 0.055164 -0.106881 -0.329276 -0.221259 0.345418 -0.126111 0.310545 -0.240722 0.052329 -0.012791 0.117383 0.209730 0.074335 0.205992 -0.073534 -0.303128 0.102983 0.214783 -0.015302 -0.071990 0.105342 -0.023240 0.147397 0.179917 -0.229241 -0.434669 -0.270212 -0.284224 0.093997 0.580026 0.176256 -0.262571 0.479383 -0.074200 0.154306 -0.216945 0.068991 0.013474 0.062738 0.067049 -0.266549 -0.278470 0.125178 0.479891 0.042789 0.389700 0.196933 -0.237516 0.060576 
月 0.180890 0.048513 -0.235162 -0.023117 0.100834 -0.691406 1.124896 0.015636 0.685709 0.165813 -0.826619 0.058289 -0.028804 -0.094674 -0.138084 -0.374001 -0.289897 0.039094 -0.050957 0.008015 -0.094996 -0.517774 0.254135 0.981302 0.113631 0.064052 0.154159 0.209941 0.172693 -0.871375 0.896585 -0.325892 0.668154 -0.354864 0.762044 0.167764 0.116839 0.267946 -0.046006 -0.144849 -0.252751 -0.017914 -0.005908 0.298966 -0.124687 -0.026081 0.103213 -0.052475 0.145805 -0.347345 
过 0.157993 -0.147745 -0.120485 -0.275128 -0.175842 0.053452 0.111385 -0.043400 -0.041288 -0.141814 -0.056939 -0.303759 0.082890 -0.215777 0.113102 0.122725 0.287967 -0.276968 0.109185 0.312887 0.013996 0.045082 -0.025235 0.082070 0.613824 -0.155727 -0.229340 0.259199 -0.178858 -0.121971 0.151407 -0.275143 -0.107908 -0.013327 0.279588 -0.011837 0.059147 0.016305 -0.134715 0.090466 -0.233063 0.087349 0.140269 0.143745 0.321190 -0.122435 -0.146423 -0.427144 -0.116557 -0.163916 
区 0.466773 0.024393 -0.163236 0.409991 0.133614 0.390004 0.013253 0.017486 -0.016372 0.159163 0.097479 0.160053 -0.338264 0.392953 0.220832 0.215362 0.154384 0.228100 0.185252 -0.279721 0.132302 0.237601 -0.327047 0.046444 -0.230442 -0.254646 0.561692 -0.168649 0.213783 -0.243452 -0.042042 0.049626 -0.292476 -0.166761 0.219000 0.337780 -0.540261 0.307960 -0.178735 0.201460 -0.158550 -0.266169 -0.114500 0.162492 0.153470 -0.436716 0.355458 -0.083616 0.092270 0.152054 
产 0.244063 0.522241 0.119881 0.433482 0.199219 0.476256 -0.112632 0.454287 0.281534 0.013090 0.089215 -0.160088 -0.253337 0.145764 0.127471 0.537550 -0.287468 -0.001639 -0.218942 -0.009544 0.340797 0.130080 0.011333 0.612931 -0.312369 -0.119545 -0.438095 0.014123 -0.564272 0.200137 -0.105957 0.175243 -0.021972 -0.482705 0.514585 -0.094847 -0.322006 -0.153631 0.034183 0.513525 0.071106 0.377718 -0.079439 -0.358379 -0.407009 0.170769 0.255484 0.246179 -0.041668 -0.475860 
而 0.278857 -0.119701 0.109939 -0.071430 0.054309 0.088565 0.232574 0.177651 -0.060773 -0.201132 0.242803 -0.297256 0.109793 -0.180891 0.181518 0.137013 0.005445 -0.060645 0.211832 0.042782 0.178115 -0.078722 0.147906 -0.063183 0.112346 -0.070852 -0.357089 0.196937 0.042770 -0.233585 -0.137225 -0.198150 0.003654 0.038078 -0.052824 -0.035281 -0.153364 0.022407 -0.048691 -0.030592 -0.113864 -0.128246 -0.009145 0.038485 0.218823 0.002575 0.161132 -0.063312 -0.143177 -0.137537 
部 0.188592 -0.081052 -0.120918 -0.081313 -0.146311 0.175958 0.153875 0.198033 0.140032 0.299210 0.134576 0.075834 0.263471 -0.148582 0.067397 0.315189 0.235338 -0.349406 -0.025723 -0.175075 0.003457 0.002468 -0.218478 0.153024 -0.132638 0.084539 0.181865 0.000330 -0.253919 0.418111 -0.021997 -0.263379 -0.367191 -0.057517 0.096857 0.503657 -0.248653 0.124698 0.251956 0.337357 -0.054314 -0.342068 -0.378629 0.115204 0.414521 -0.183474 0.294260 -0.317619 0.219790 0.249334 
同 -0.108407 0.398048 -0.049445 0.098189 0.296285 0.236268 0.185244 0.244107 0.282508 -0.022920 0.303026 -0.102446 0.149500 0.156545 0.016036 0.039370 -0.067933 0.009174 0.169506 -0.100544 0.131566 -0.140757 0.026580 -0.010187 0.204282 -0.100625 -0.373384 0.147333 -0.134764 0.043126 -0.074043 -0.476694 -0.192494 0.003429 -0.219690 0.058133 0.069463 -0.005019 0.178068 0.147376 -0.106526 -0.450374 -0.005015 0.128705 0.134682 -0.132896 -0.128720 -0.425433 0.021420 -0.125851 
合 -0.165848 0.302556 -0.274207 0.021986 -0.089337 0.312699 -0.103555 0.190100 0.505805 0.076197 -0.220434 -0.345067 0.089853 0.105741 -0.050076 0.193635 -0.120291 -0.325319 0.329608 0.080971 0.238820 0.038848 0.168790 0.503713 -0.220751 -0.203848 0.183850 -0.418345 0.050968 0.139863 -0.376797 -0.282197 -0.591426 -0.127527 -0.545370 0.369059 -0.045662 0.141342 0.322454 -0.190375 0.567259 -0.404523 -0.136965 0.204592 0.181961 -0.131737 -0.367167 -0.308977 -0.057208 -0.075774 
者 0.053308 0.224288 -0.115465 -0.223022 -0.002529 -0.422310 0.214930 0.150738 0.318972 0.015636 0.282887 0.179228 0.155920 -0.089421 0.067110 -0.126545 -0.434862 -0.621160 -0.094762 0.141891 -0.094967 0.146794 -0.445145 0.329129 0.266528 0.219735 -0.382889 -0.291153 -0.244216 -0.137768 -0.437180 0.020926 0.799990 0.420187 0.028120 -0.077205 -0.265843 0.075246 -0.170019 -0.114976 0.124628 0.052237 -0.147247 -0.011648 -0.301863 0.369742 0.263376 -0.519429 -0.403361 0.338134 
天 -0.026282 -0.247099 0.355571 -0.329907 -0.099386 -0.381101 0.394392 0.241944 -0.207383 0.056687 0.129822 -0.476724 0.183251 -0.122276 0.324323 0.162650 0.011425 0.127933 0.315253 -0.077138 0.301806 -0.396753 0.361172 0.144950 -0.109746 -0.149094 0.500755 0.240950 -0.097473 -0.098562 0.258322 -0.009510 0.220061 0.306677 0.097216 -0.261514 -0.183457 0.272809 -0.099869 0.027098 -0.385135 -0.248882 0.380450 0.004952 -0.284907 -0.243575 0.122220 -0.100226 -0.117508 0.165803 
全 0.175909 -0.240894 0.293018 0.139002 -0.261089 0.315652 0.073652 0.013972 -0.220037 0.180513 -0.107749 -0.027932 -0.103952 0.188236 0.188811 0.032724 0.181903 0.092670 -0.044184 0.078969 0.237190 -0.082198 -0.055444 0.424777 -0.122315 -0.271719 -0.347269 -0.189196 -0.225630 0.118797 0.236417 -0.228082 -0.141898 0.078370 0.039730 0.229733 -0.077155 0.352311 0.043159 0.051968 0.009819 -0.159805 -0.278138 -0.168140 -0.050083 0.142416 0.024893 -0.039595 -0.071304 0.158837 
现 0.113222 -0.007253 -0.075422 -0.096889 -0.029760 0.352792 0.134173 -0.232644 -0.134468 0.065756 0.079953 -0.275213 0.376201 -0.140976 -0.080048 -0.167625 0.070349 0.048908 0.098971 0.174079 0.001958 -0.261580 -0.231951 -0.037652 0.145544 -0.383012 -0.124579 -0.244434 -0.078336 -0.191612 0.079002 -0.029253 -0.401831 0.201177 0.047701 -0.163024 -0.114202 0.151571 0.082699 0.106972 -0.376420 0.086390 0.226686 0.058138 -0.276403 0.050777 0.056607 0.184772 -0.114740 -0.394978 
（ -0.116658 0.291339 0.203561 -0.464674 0.447573 -1.242920 0.053916 0.421806 0.925834 0.343641 -0.167318 0.161372 0.062171 0.217524 -0.160497 0.026622 -0.325747 -0.427007 -1.227432 -0.288960 0.206107 0.657149 -0.250994 1.279491 0.305137 0.056642 -0.285792 -0.545487 0.368554 0.037971 -0.322684 0.027231 0.501967 0.690678 0.595155 -0.043698 -0.040124 0.509091 -1.082356 -0.084757 0.174497 0.093731 -0.034399 0.020089 -0.915659 0.126900 -0.033832 -0.738076 -0.514229 0.385289 
湾 0.209114 0.037585 -0.224024 -0.301678 0.073940 0.713212 0.214371 -0.087848 -0.138743 -0.044551 -0.267413 -0.085103 -0.308704 -0.439940 0.160108 0.060714 -0.460981 -0.130915 -0.145292 0.036345 0.392729 -0.358521 -0.147466 0.159896 -0.089106 -0.161574 -0.273552 -0.046371 0.351187 0.022003 0.043858 -0.132524 0.012485 0.419365 -0.039664 -0.226854 -0.462139 -0.294741 0.474425 0.002113 0.318484 -0.241459 0.332509 -0.640626 0.089105 -0.053791 0.107439 -0.578660 -0.202418 0.033319 
四 0.490948 -0.209878 0.529707 0.067828 0.086402 -0.121826 -0.018670 -0.114082 0.352989 0.243127 -0.266224 0.073925 -0.042569 0.379333 0.501766 0.346630 -0.315308 -0.152037 -0.222865 -0.040366 0.008023 -0.151590 0.089492 0.286918 0.406135 0.265649 0.343176 -0.378108 -0.098449 -0.202463 0.218393 -0.241756 0.099175 -0.225044 0.355094 -0.032273 0.289617 -0.387701 0.148408 -0.106344 0.066294 -0.173619 -0.160281 0.207799 -0.153168 -0.083770 0.152375 -0.118135 0.408236 -0.109984 
） 0.106006 -0.087759 0.191571 -0.681402 0.375945 -1.236719 -0.245877 0.285920 0.553979 0.515528 0.133254 0.401623 -0.171646 0.424901 -0.387410 0.233269 -0.276014 -0.546261 -0.885913 0.177921 0.143625 0.678581 -0.198058 1.092410 0.449563 -0.063132 -0.268126 -0.745164 0.296050 0.189593 -0.172309 -0.093354 0.342028 0.760969 -0.007017 -0.560118 0.039400 0.257801 -1.255916 0.256905 0.057409 -0.200257 0.075324 -0.230852 -0.326066 -0.044928 0.043823 -0.213205 -0.539009 0.449510 
０ 0.015402 -0.004388 -0.529637 -0.049618 0.476290 -0.149303 0.345409 0.073532 -0.242252 0.983331 -0.858577 -0.084156 0.782924 0.653942 -0.491204 0.236126 0.159938 0.194529 -0.611489 0.146102 0.158544 -0.516705 0.063282 0.618796 0.173035 0.500855 0.383917 0.291565 -0.336381 -0.371565 -0.238535 -0.095161 0.830458 -0.333657 0.071811 0.432637 0.068805 0.379252 -0.648586 -0.034783 -0.017507 -0.018996 0.134715 -0.066901 0.116025 0.376103 0.179530 -0.108514 -0.094000 -0.511300 
能 0.160208 0.277979 -0.118247 0.086314 -0.069030 0.307271 0.060247 -0.074519 -0.249073 0.228669 -0.092388 -0.580879 0.019094 -0.065243 -0.117804 0.097810 0.131186 -0.282747 0.114399 0.157371 0.473419 -0.016721 0.179463 -0.045146 -0.059046 -0.146576 -0.369470 0.130091 0.115697 -0.044356 -0.211601 -0.121981 0.275442 0.293131 0.114746 0.432467 0.138465 -0.187474 -0.246964 0.012632 -0.379348 0.091091 0.205018 0.349687 -0.133416 0.143246 -0.177762 -0.007681 -0.072629 -0.270506 
可 0.373152 0.183778 -0.273550 -0.040677 0.089394 0.166266 0.009957 -0.059822 -0.065506 0.246789 0.141993 -0.351076 0.142747 -0.142595 -0.075788 0.175169 0.051553 -0.194093 0.167632 -0.062484 0.374271 -0.210337 -0.000420 -0.108943 0.006253 -0.075302 -0.352882 0.186774 0.079135 -0.036929 -0.272470 -0.042533 0.067407 0.284409 0.196037 0.203693 0.133233 -0.395225 -0.184433 0.122260 -0.453677 0.019353 0.164399 0.192953 -0.221432 0.235379 -0.236075 0.004330 -0.060571 -0.027759 
们 0.027976 0.287179 -0.061751 0.242102 0.099963 0.397913 0.277760 0.416663 -0.190590 -0.092202 0.354498 -0.223061 0.069054 0.003137 0.029023 -0.163423 0.140606 -0.153220 0.147816 -0.217227 0.304370 -0.176276 -0.232216 0.055122 -0.052422 -0.458008 -0.209784 0.115573 0.340351 0.074368 0.494906 0.133218 0.373679 0.299025 -0.185254 0.057991 0.347497 -0.204482 0.073381 -0.076909 -0.479521 -0.157419 0.228894 0.602363 0.012829 0.496256 -0.480391 -0.263065 0.165595 -0.170937 
元 0.217966 -0.034645 0.136811 0.094150 0.259163 0.283926 -0.061693 0.367492 -0.158666 0.171079 -0.360089 0.700411 0.417902 0.591415 -0.168165 0.004830 -0.170602 0.109316 -0.016549 0.377832 -0.020839 -0.274246 0.449821 0.272204 0.736057 0.229077 0.446250 -0.031844 -0.058746 -0.218158 0.122555 -0.168891 -0.124419 -0.438259 0.096976 0.092412 0.135128 -0.315131 -0.033896 -0.756233 -0.412102 -0.205402 -0.666506 -0.285590 0.283109 -0.406295 -0.293757 -0.479436 -0.013524 -0.612641 
自 0.571923 0.495328 0.007842 0.009487 -0.104015 0.212692 0.144454 0.009193 0.137710 -0.235292 0.043660 -0.073372 -0.054418 -0.077531 -0.062239 -0.105078 0.039369 0.335995 0.160760 -0.061031 0.162473 0.037186 -0.127400 -0.042036 0.010164 -0.192604 -0.438922 -0.015107 -0.216711 -0.126080 0.038602 0.145056 0.197699 0.482242 0.261918 0.384025 -0.376470 0.162115 0.071570 -0.392416 -0.456019 -0.078524 -0.360648 0.049134 0.113438 -0.086672 -0.260553 -0.151549 0.133421 -0.002601 
展 0.201349 0.294205 -0.105330 0.270907 -0.166290 0.547575 0.230588 -0.117758 0.112644 0.103750 0.038624 -0.029461 0.008416 0.013523 -0.183260 0.123554 -0.189428 -0.059167 0.285103 0.750409 -0.172686 -0.364860 -0.067193 -0.328755 -0.409862 -0.562618 0.432746 -0.236019 -0.103245 -0.083611 -0.235451 0.086429 -0.667935 0.555581 0.116616 0.035616 -0.029391 0.363827 -0.097388 0.055913 0.270252 -0.142098 -0.154205 0.168530 -0.354267 -0.403621 0.469935 0.085277 -0.423124 -0.174696 
建 0.080687 0.105112 0.103350 -0.123401 -0.244190 0.143350 0.040731 -0.500901 0.347765 -0.130346 -0.281768 0.298141 -0.145455 0.202551 0.366208 0.195698 0.018634 0.090694 -0.051214 0.282498 0.342718 0.224636 -0.437587 0.181361 0.069564 0.014889 0.333543 -0.411931 -0.435172 0.144148 0.150948 0.355477 -0.026660 -0.276408 0.012571 0.266441 -0.279641 0.027074 0.093151 -0.302231 0.082945 -0.306832 -0.000757 0.346670 0.560845 -0.175183 0.050465 -0.043624 -0.567431 -0.234702 
力 0.147392 0.396341 0.182492 0.296635 0.150792 0.309302 0.098248 -0.062559 0.023647 -0.041715 0.345810 -0.087150 0.138884 0.210221 0.229640 -0.059868 0.020262 -0.189233 0.254637 0.124854 0.236429 0.256959 -0.039809 -0.145898 -0.172688 -0.140134 -0.468789 -0.041272 0.107163 -0.078878 0.007125 -0.128835 0.153329 0.411117 -0.078925 0.698466 0.085424 -0.133615 -0.226024 0.265433 0.306549 0.417234 -0.034354 -0.270789 -0.243800 -0.110709 0.217479 -0.089158 -0.370909 -0.427063 
重 -0.019899 -0.277962 0.082381 0.113760 -0.316265 0.343436 0.256938 0.249895 0.041537 0.246069 0.140401 -0.227341 0.116323 0.205557 0.219045 -0.002492 -0.336154 -0.073902 0.350767 0.084682 0.155114 0.380585 -0.335232 -0.400316 0.110130 -0.124530 0.080109 -0.218511 0.096509 -0.100114 0.062089 -0.135256 0.210469 -0.198416 0.341225 0.206272 0.008296 0.114484 0.020072 0.175748 0.292114 -0.197408 0.060628 0.207541 0.272918 0.120508 0.266848 0.232968 -0.390227 -0.277073 
表 -0.266991 0.506685 0.339022 0.024941 0.313653 0.361637 0.602006 -0.224753 -0.072826 0.181786 0.390469 -0.231230 0.463262 -0.250246 0.082838 -0.275166 -0.006760 -0.006979 0.694509 0.357891 -0.394542 -0.394903 -0.234706 0.394922 -0.007599 0.451610 -0.058518 -0.023240 -0.050381 0.118853 0.048982 -0.043152 -0.375416 0.104809 -0.309769 -0.347313 -0.379732 0.037479 -0.043557 -0.584324 -0.258397 -0.200848 0.030426 0.152055 -0.269745 0.010362 -0.099784 -0.263629 -0.229847 -0.101991 
文 -0.342634 -0.121718 0.139531 -0.066004 0.204048 0.405885 0.155294 -0.096269 0.323232 -0.183037 -0.179773 -0.084354 0.434274 0.208736 -0.098387 -0.241768 0.029416 -0.158607 0.147927 -0.030523 -0.484008 -0.187582 -0.127865 0.162728 0.439544 -0.044952 -0.192204 0.141744 -0.263422 -0.171065 -0.327730 0.434747 -0.122421 0.441608 -0.086124 -0.250507 -0.084518 0.034501 0.384993 0.219235 -0.279336 -0.521138 0.018856 -0.106820 0.056050 -0.495463 0.295915 -0.029578 -0.450195 0.040459 
点 0.264574 -0.213017 0.436786 0.271190 -0.185636 0.035887 0.303150 0.171002 -0.162537 0.636194 0.142112 0.145197 0.171203 0.293159 0.200040 0.030146 -0.532522 0.177479 0.046529 0.305756 0.052301 0.464781 0.154678 -0.019589 0.244461 -0.043858 0.575184 -0.152324 0.131965 -0.078415 -0.061257 -0.244431 0.358735 -0.136219 0.419847 0.097663 0.134418 -0.287708 0.391411 -0.012351 -0.096570 -0.215963 -0.520897 -0.114833 -0.102902 -0.457556 0.138147 -0.023619 0.441476 -0.619649 
已 0.309178 -0.047728 -0.096905 -0.144151 -0.292434 0.239187 0.014740 -0.079992 0.146685 -0.025039 -0.006014 -0.380492 0.030759 -0.033331 0.062516 -0.032756 0.375036 -0.069145 0.070359 0.393112 0.447778 -0.347780 -0.117597 0.272207 0.054469 -0.161017 0.095300 -0.047656 -0.008819 -0.136992 -0.051549 -0.091247 -0.133302 -0.152104 0.026144 -0.385390 -0.168720 -0.073305 -0.134981 0.206430 0.059462 -0.024887 -0.279139 0.131164 0.045372 -0.053248 0.290147 -0.154256 0.129001 -0.406002 
最 -0.142247 -0.194647 0.314502 0.041754 0.093041 -0.008500 0.079515 0.066681 0.087665 0.305033 -0.007066 -0.116450 0.190107 0.143238 0.017955 0.301867 -0.059771 -0.064913 -0.346334 0.208138 0.204198 0.023957 -0.095964 -0.052232 0.065549 -0.148528 -0.053652 -0.248244 0.219624 -0.325828 0.079235 -0.157233 0.036670 0.282927 0.205067 -0.217800 0.112872 -0.203285 -0.638013 0.162585 0.248664 0.214191 0.051965 -0.041540 -0.098329 -0.196037 0.191868 -0.068169 -0.272829 0.172216 
金 0.233881 0.182888 -0.221195 -0.170566 0.062637 0.225482 -0.237732 0.426693 0.155762 -0.182324 -0.027746 0.354946 0.577121 0.229967 0.528485 0.214054 -0.444550 -0.566431 -0.083380 -0.259995 0.430401 0.159027 0.437757 0.397598 0.168696 0.114846 0.239458 -0.113456 0.303587 -0.057134 -0.034335 0.118251 -0.085801 0.243640 -0.279365 -0.195632 -0.198846 0.323511 -0.072368 -0.269223 -0.634073 0.710396 -0.548617 -0.168223 0.027018 -0.198555 0.002973 -0.092249 -0.267374 0.114274 
目 0.064824 -0.529557 -0.123063 -0.029507 -0.301817 0.545284 -0.135700 -0.001227 0.294544 -0.253380 0.207593 0.335259 0.103391 0.111960 -0.427761 0.445851 0.177267 -0.201680 0.043946 0.313197 0.704526 -0.100512 -0.255201 0.141851 -0.000717 0.177538 0.241236 -0.227283 -0.183955 0.128342 0.143043 -0.278368 0.351000 0.237669 -0.119362 -0.381275 -0.213398 -0.306079 -0.322662 0.102978 0.342731 -0.535923 -0.246483 0.308627 0.244567 0.145322 -0.366934 0.146914 0.180333 -0.452712 
动 0.265008 0.169654 0.182349 0.368715 0.001066 -0.027197 -0.023520 -0.441024 0.006973 0.170554 -0.104445 0.110402 0.287316 0.061236 -0.122224 0.094107 0.014460 -0.245730 0.636804 0.182890 0.195503 -0.207590 0.019233 -0.003373 0.208160 -0.368477 -0.447170 0.409092 0.026765 0.110480 0.391301 -0.161792 0.016610 0.261157 -0.362569 0.517793 -0.140343 0.168939 0.041783 0.010825 0.126155 0.088643 0.201741 -0.010012 0.054564 0.112381 0.339710 -0.027179 0.028050 -0.202522 
下 -0.028811 -0.031138 0.159383 -0.069262 -0.039317 0.018427 0.386818 0.142826 -0.189224 0.240628 0.118584 -0.288038 -0.132860 -0.171547 0.395076 0.225552 0.180015 0.022411 0.150725 0.064328 0.281750 -0.159798 0.232114 -0.021009 0.056451 -0.286444 -0.165740 0.047750 0.117444 -0.039482 0.015777 -0.008898 0.143677 0.129589 -0.065361 0.126188 0.110038 -0.046926 0.295419 0.108576 -0.142502 -0.059345 0.151070 -0.095077 -0.183529 -0.141578 0.151487 -0.095758 0.057359 -0.132265 
社 -0.056414 0.096646 -0.178307 0.106022 -0.518268 -0.071177 0.393155 -0.032827 0.471621 -0.022680 -0.830065 0.209752 -0.223141 -0.015595 -0.026956 -0.246352 -0.809973 0.141167 0.893776 -0.258180 -0.157901 0.155719 -0.365337 0.431351 -0.002080 0.208633 0.060331 -0.052588 0.398946 -0.437644 0.270101 0.313074 -0.199981 0.025976 0.050213 0.137665 0.179289 -0.113780 -0.175408 0.397501 -0.015863 -0.279692 0.161539 0.424996 0.213243 0.260615 0.344632 -0.167191 -0.214809 0.426706 
定 0.105108 0.000986 -0.228459 0.128705 -0.589928 0.368185 0.299357 0.451381 0.152970 0.015865 0.087265 -0.240547 -0.254039 0.044916 0.172711 0.217933 0.292785 0.131332 -0.231463 0.319992 -0.191836 0.125511 0.348832 0.193194 0.313382 -0.382367 -0.001721 -0.220071 0.119358 -0.357245 0.065547 -0.287155 -0.231786 0.058600 -0.192734 0.338006 -0.336826 0.062770 -0.030048 -0.169847 -0.090862 -0.267737 -0.018288 0.071891 -0.097477 -0.021103 -0.173470 0.396286 -0.509902 -0.179039 
得 0.262939 -0.090732 -0.251879 -0.078870 -0.173984 0.272383 0.171803 -0.173309 -0.469634 0.072217 0.164981 -0.290330 0.194754 0.320113 0.057470 0.141049 -0.056972 -0.471941 0.141948 0.314665 0.400216 -0.077276 -0.066088 -0.119019 0.186042 -0.316146 -0.468455 -0.098931 0.136467 -0.368402 0.007679 0.339841 0.383351 -0.110947 -0.015773 -0.030870 0.084559 -0.086133 -0.352873 0.000564 -0.232840 0.150916 -0.173710 0.056441 -0.314462 0.063092 -0.035060 0.108127 -0.139397 0.100704 
关 -0.436980 0.181120 -0.520767 -0.182814 -0.150764 0.264780 0.433871 0.087217 0.406289 0.216823 0.012374 -0.074025 0.001898 -0.076778 -0.198362 0.507414 0.236857 0.089464 -0.051227 -0.267326 0.294737 -0.096656 0.080830 -0.425908 -0.145388 -0.080609 0.212886 -0.252017 -0.369692 -0.101227 -0.062303 -0.631118 -0.280426 0.202373 0.005117 0.091513 0.278718 -0.106639 0.338464 -0.627097 0.000511 -0.058736 -0.223482 0.212532 0.083303 -0.079169 0.572585 -0.282178 -0.221592 0.092506 
机 0.348001 0.285673 -0.194273 -0.210623 -0.024575 -0.014908 0.109262 0.023561 0.111215 0.038114 -0.185063 0.145339 0.685044 -0.311620 0.000656 0.115246 -0.015185 -0.545200 0.169801 -0.024132 0.571030 0.386265 0.348539 -0.006102 0.186782 -0.012501 0.320395 0.130918 0.176035 -0.176567 0.084550 0.071506 -0.413106 0.294528 0.185823 0.063125 -0.272742 0.230763 0.239560 -0.058267 -0.258728 0.587058 -0.093179 -0.217150 -0.001379 0.175202 0.089287 -0.121187 -0.191988 0.060639 
用 0.015030 -0.020773 0.180828 -0.036475 0.012698 0.215158 -0.162422 -0.018667 0.101039 0.040639 0.098941 -0.141642 0.279085 0.471428 -0.226812 0.243217 -0.059851 -0.729266 0.167884 0.031648 0.263529 0.144501 0.043827 -0.114790 -0.160161 -0.284923 -0.052083 0.033440 -0.139393 -0.128874 0.153530 -0.017366 -0.259826 -0.249896 0.130963 0.233021 -0.115723 0.038852 0.068702 0.199654 -0.351010 0.105090 -0.139217 0.273029 -0.112820 0.131217 -0.167748 -0.039545 -0.207391 -0.056755 
员 0.022260 -0.114503 0.261374 0.269686 -0.193249 -0.082479 0.078573 -0.054076 -0.058539 0.448456 -0.213856 -0.217326 0.438348 -0.352150 0.221793 0.006315 0.328952 -0.116676 0.236140 -0.065224 0.197141 -0.185558 -0.429875 0.293738 0.438126 -0.019747 -0.184480 0.086773 -0.311528 0.399385 0.321905 -0.024982 -0.064445 0.170322 -0.359471 0.224945 -0.081970 0.300196 -0.141296 -0.343554 -0.023354 0.439796 -0.167243 0.070990 0.557431 0.373930 0.172903 0.069285 -0.003453 0.314405 
华 -0.274594 0.119275 0.036688 -0.011059 -0.260859 -0.107353 0.181787 0.249364 0.699862 -0.279414 -0.788543 0.175269 -0.427864 0.124802 -0.130007 -0.217287 -0.720627 0.076502 0.676864 -0.314537 -0.560323 -0.327273 -0.299503 0.637085 -0.131024 -0.238242 -0.065372 0.262097 0.429232 -0.547486 0.425761 0.204859 0.189005 0.013808 -0.499389 0.251314 0.023883 -0.313599 -0.635613 0.411674 -0.031294 -0.612821 0.167593 0.267636 0.098145 0.118489 0.653049 -0.087934 -0.054224 0.361126 
等 -0.287960 -0.137716 0.038861 0.378435 0.040567 0.095240 0.021102 0.062414 0.369971 0.148351 -0.093078 0.125028 -0.081374 0.113155 -0.036172 0.280132 0.004095 -0.235634 0.114538 -0.237569 0.118111 0.325643 0.047241 0.189324 0.151678 -0.101501 0.069725 -0.068532 -0.058235 0.048854 -0.172288 0.155601 -0.155343 -0.187664 -0.021176 0.063583 -0.115963 0.037953 0.246055 0.158901 -0.147879 0.163577 -0.210744 0.113876 0.009119 0.032413 0.162542 -0.236202 -0.184578 0.153928 
理 -0.482520 0.015772 -0.212534 0.222882 -0.535897 0.095902 -0.205343 -0.018054 0.277596 -0.185004 0.262887 -0.098216 0.003597 -0.284162 0.233801 -0.172017 0.254668 -0.096050 0.217982 0.107720 0.434257 0.171246 0.196986 0.398822 0.220396 0.227883 -0.318338 -0.058745 -0.180814 0.233500 -0.191798 -0.038975 -0.046223 0.157428 0.255251 0.302325 -0.075299 -0.114351 -0.124462 0.134346 -0.677171 0.034919 -0.307634 -0.068868 0.146525 -0.125641 0.274305 -0.269460 0.010071 -0.008462 
我 0.011983 0.214546 -0.247554 -0.008755 -0.045271 0.388033 0.269910 0.172892 -0.334316 -0.092483 0.103404 -0.501947 0.141332 0.062937 -0.258176 0.033244 0.117346 -0.193552 0.134758 0.014656 0.058815 -0.204514 -0.132174 -0.218057 -0.320628 -0.656998 -0.018743 -0.176258 0.031293 -0.053987 0.231904 -0.124072 0.250502 0.530659 -0.052201 0.244770 0.254780 -0.073263 0.212632 -0.476685 -0.346576 -0.125364 0.100695 0.529425 0.126439 0.059351 -0.421060 -0.140053 0.249697 -0.119379 
两 -0.168279 -0.154319 -0.179869 -0.222473 0.239768 0.365897 0.191710 0.073347 -0.000482 -0.025377 -0.073945 0.076156 -0.180138 0.196662 -0.077120 0.454821 0.158621 0.104300 0.096522 -0.250435 0.241137 -0.192378 0.206589 0.031378 0.253439 -0.122072 0.130723 -0.087613 -0.087987 0.198894 -0.039618 -0.573197 -0.186814 0.142036 0.035563 -0.170357 0.290228 -0.087154 -0.028297 -0.208056 0.137223 0.025416 0.112031 0.331382 0.042051 -0.101241 0.287014 -0.150895 0.091561 0.091020 
都 0.145255 0.066792 -0.048911 0.026626 0.059686 0.263350 0.327863 0.095801 -0.184901 0.116314 0.130420 -0.219456 0.188910 -0.081278 -0.046691 0.007440 -0.015676 0.042168 -0.038204 0.015094 0.377294 -0.063466 -0.088675 0.024572 0.279451 -0.186576 -0.109827 0.068717 -0.119376 -0.091463 0.022804 0.168950 -0.071862 0.007916 0.053484 0.111454 -0.110421 -0.048866 -0.012610 0.045165 -0.153481 0.031939 0.259213 0.257316 0.014568 0.158058 -0.122053 -0.207883 0.089540 0.239692 
北 0.393592 -0.013172 -0.072036 -0.075040 0.248664 -0.003870 0.623651 0.189613 0.375008 0.186975 -0.551474 0.187625 -0.184985 -0.235546 0.249185 -0.133122 -0.306617 -0.316334 0.145894 -0.142114 -0.051063 -0.098392 -0.169686 0.438877 -0.306732 -0.285560 0.407155 0.304198 0.713149 -0.524864 0.351385 0.166392 -0.144863 -0.115588 0.138767 0.089646 -0.378666 -0.336194 0.000957 0.363527 0.267238 -0.562965 0.306252 0.071491 0.450737 -0.082013 0.218408 -0.070250 0.135499 0.491966 
统 -0.530919 -0.021939 -0.113545 -0.198625 0.112290 0.335047 -0.098683 0.098296 0.301962 0.199334 0.143602 -0.236975 0.130712 -0.632701 -0.324203 0.402392 0.108264 -0.053745 0.459747 0.613628 0.240004 -0.140455 0.516488 0.489490 -0.342171 0.508767 -0.464414 -0.036646 -0.505656 -0.178204 0.643014 -0.235290 -0.161632 0.141198 0.346595 -0.099978 0.164363 -0.455172 0.112762 -0.171800 -0.155547 -0.112165 0.084134 -0.165093 0.053439 -0.527013 0.392895 -0.015990 0.277646 0.502096 
事 -0.264331 -0.412187 -0.230108 0.087663 -0.478984 0.012546 -0.132535 -0.082790 0.218546 0.042560 0.496901 -0.161764 0.653325 -0.207214 0.102598 -0.081728 0.195335 -0.235774 0.180390 0.007954 0.072842 0.040197 -0.128363 0.191915 0.111233 -0.447794 0.020152 0.287866 -0.103511 -0.123660 -0.216046 -0.012479 0.080646 0.238123 0.095146 0.432717 -0.246012 -0.119041 -0.010020 0.057916 0.299436 0.119199 0.066909 0.529384 0.158677 0.104100 0.548114 0.024322 -0.018297 -0.146162 
今 0.055179 -0.136412 0.183642 -0.409988 -0.067627 -0.344901 0.070825 0.159531 -0.091139 -0.103278 -0.303072 -0.386360 0.318805 0.015803 0.210556 0.419332 0.164839 0.118744 0.196361 -0.080776 0.337962 -1.023891 -0.142915 0.288527 -0.114250 -0.192244 0.092472 0.097556 0.043150 0.019304 0.211034 -0.329714 0.120636 0.015229 0.164780 -0.413803 0.001813 0.168481 0.014464 0.071656 -0.352036 -0.314985 0.245368 -0.153128 -0.279368 -0.142273 0.038134 0.080717 -0.198692 0.140581 
海 0.289133 -0.117379 -0.117641 -0.280846 0.354849 -0.234976 0.245753 -0.109134 0.077896 -0.114058 -0.059817 0.257106 -0.130165 -0.044148 0.232374 0.615832 -0.002371 -0.163477 -0.037592 -0.300451 0.269721 0.042465 -0.138666 0.186640 -0.444803 -0.174039 0.557850 0.151884 -0.065961 -0.056815 0.040057 -0.076089 -0.137164 0.121924 -0.093429 0.009391 -0.171847 -0.029158 -0.300374 -0.031144 -0.031149 -0.261984 0.050466 0.151674 0.092003 -0.258718 0.478344 -0.339104 0.032620 0.102200 
本 -0.060593 0.118116 0.010574 0.245024 0.086618 0.291934 0.135792 -0.034879 0.400311 -0.069266 -0.170317 0.051261 0.076934 -0.041485 0.218774 0.066801 0.094787 -0.099339 -0.222784 -0.242341 0.075479 -0.361717 -0.126223 0.313599 0.154013 -0.395456 -0.418639 -0.044712 -0.121302 -0.381915 0.137484 0.069286 0.201297 -0.158091 -0.171191 -0.107784 -0.233231 0.039953 0.090935 -0.015097 -0.119854 0.079800 -0.025181 -0.110528 -0.298856 -0.282847 -0.190540 0.016048 -0.077609 -0.043077 
期 -0.365266 0.005197 0.299164 -0.001718 -0.102905 -0.189606 0.203052 0.061673 0.369909 0.001835 0.202259 -0.228141 0.260870 0.321534 0.320943 0.171933 0.185371 0.057590 0.187087 0.323736 0.105480 -0.265859 0.104477 0.369709 0.320054 0.196577 0.006993 0.194971 0.152219 -0.057871 0.197568 -0.721981 -0.241397 0.176447 0.165647 0.118178 0.014122 -0.269855 -0.041380 0.482722 0.241234 -0.287617 0.392720 0.360054 -0.208256 -0.371141 -0.205368 -0.138175 0.089602 -0.344636 
场 0.234749 0.039729 0.001896 -0.019149 -0.143201 0.246729 0.317435 -0.112196 -0.142912 0.243308 -0.331188 0.196940 0.532874 -0.323973 0.408000 0.147653 -0.051913 0.035939 0.038377 0.241565 0.434489 0.219496 0.095058 -0.265548 -0.227450 -0.257877 0.106887 -0.277268 0.028565 -0.311746 0.167292 0.216871 -0.396995 0.475667 -0.199924 -0.115619 -0.474037 0.200447 -0.049139 0.031800 -0.180452 0.163573 0.253425 -0.465725 0.035324 0.106872 -0.154968 -0.220687 -0.096448 0.037725 
立 0.160319 0.114415 -0.040268 -0.261797 -0.075176 0.143968 -0.141548 -0.286501 0.093339 0.169077 -0.258845 -0.190815 -0.052609 -0.225114 0.495091 -0.174701 -0.022570 0.129963 0.034478 0.123682 0.381289 -0.386017 0.009881 -0.087882 0.169180 -0.069850 0.021678 -0.603709 -0.098794 -0.020187 0.200693 0.030757 -0.064824 0.099994 -0.295981 0.290334 -0.531237 0.034205 0.251121 -0.269770 -0.024921 -0.089236 -0.189343 0.180368 0.439636 0.015654 0.039970 0.213447 -0.453551 0.157083 
投 0.145773 -0.026567 -0.101534 0.287790 0.124063 0.326456 0.064242 0.443414 0.272687 -0.177912 0.755779 0.154899 0.059271 0.087446 0.594770 -0.073761 -0.373051 -0.214688 -0.079644 -0.326872 0.569620 -0.305484 -0.083019 0.498162 -0.319821 -0.231719 0.511257 0.168143 -0.128196 0.236343 0.112960 0.016842 -0.172926 -0.696277 -0.437024 -0.069762 0.216475 -0.578741 -0.468116 0.041911 -0.189300 -0.065247 -0.279854 -0.031096 -0.106375 -0.004575 -0.031460 -0.112445 -0.327086 -0.549478 
“ -0.053387 0.036548 0.106209 -0.244693 -0.063580 0.527022 0.132225 -0.037883 -0.089194 0.008720 0.141032 0.022978 0.115159 0.116075 -0.155119 0.248631 0.502563 -0.134774 -0.110986 0.019810 -0.266204 0.240556 -0.197712 0.503981 0.146210 -0.460815 0.454525 0.036751 0.311700 0.091816 0.486174 -0.108672 0.175937 0.287383 -0.059936 -0.030122 0.121163 -0.119734 0.231811 -0.135367 -0.231200 0.067121 -0.064817 0.355047 -0.352674 0.069762 0.138347 -0.107361 -0.127585 -0.306541 
代 -0.311245 0.248670 0.451584 -0.016030 0.123946 0.207060 0.255051 -0.351365 -0.215384 -0.376402 -0.190197 -0.477709 0.076694 0.106706 0.206769 -0.384120 -0.230426 0.161791 0.290169 0.050300 0.104603 -0.285805 -0.186826 0.589581 0.234117 -0.009942 -0.342491 -0.161348 0.033034 0.027963 -0.105560 -0.066648 -0.419073 0.159115 0.059834 -0.007977 -0.216205 -0.087380 0.200019 0.118357 -0.081463 0.087402 -0.113665 -0.213283 -0.083646 -0.211291 -0.097557 -0.192997 0.026626 -0.113726 
” -0.171680 0.098899 0.147582 -0.193654 -0.218162 0.164314 0.104004 -0.378873 0.125486 0.106887 0.048756 0.038669 0.103859 0.336594 0.107658 0.245378 0.356180 -0.102838 -0.095787 0.212106 0.026879 0.446148 -0.046188 0.205946 0.184879 -0.316469 0.322866 0.200365 0.294064 0.034450 0.139485 -0.126227 0.031562 0.263169 -0.227820 0.117607 0.160756 -0.083783 0.068995 -0.220350 0.026295 0.206760 0.040406 0.158189 -0.392585 0.089917 0.334429 0.117382 -0.087377 -0.308147 
八 0.553441 -0.159525 0.517035 0.117233 0.082328 -0.277050 -0.065570 -0.174264 0.343008 0.221114 -0.231679 0.048932 0.030186 0.296508 0.178118 0.324729 -0.371976 -0.080290 -0.297881 0.051034 -0.249375 -0.437954 -0.000699 0.406247 0.382974 0.016859 0.268905 -0.533928 -0.117130 -0.237786 0.363303 -0.316103 0.036287 0.027755 0.689512 0.035972 0.290570 -0.594545 0.362781 -0.192251 -0.093785 -0.093084 -0.435342 0.113699 -0.334578 0.034355 0.175398 -0.137595 0.427624 -0.141757 
实 -0.177848 -0.330308 -0.088797 -0.121137 -0.282025 0.455111 -0.140885 -0.195717 -0.117021 0.047465 -0.011993 -0.234417 0.171679 0.064532 0.123273 0.052522 0.192594 -0.036293 -0.084392 0.053017 0.282344 -0.115320 -0.349690 0.200641 -0.082966 -0.556304 -0.202896 -0.260717 0.005483 -0.341445 -0.151544 -0.220631 -0.089479 -0.053728 -0.096334 0.469599 -0.001090 0.052880 0.371812 0.062359 -0.116357 0.135561 -0.158936 -0.133180 -0.108509 -0.160701 -0.005445 0.067878 -0.254140 -0.586808 
面 0.057982 0.058383 0.258026 0.018608 -0.107569 0.264848 0.450313 0.107212 -0.050905 0.108702 -0.039233 0.249931 -0.253534 -0.118998 0.038071 -0.171378 0.493625 -0.176324 0.226731 0.130037 0.507668 0.043568 -0.048628 -0.061466 -0.020974 0.079803 0.034945 -0.384806 -0.242846 -0.180177 -0.215326 -0.209396 -0.060866 -0.028454 -0.304360 -0.007190 0.142266 -0.245248 0.310377 0.203502 -0.253312 -0.151275 -0.192419 0.114397 -0.093922 0.021319 0.007637 0.028362 -0.307736 0.223367 
济 0.262655 0.179167 -0.305074 0.185760 -0.772235 0.487767 -0.118270 0.379825 0.342150 0.146864 -0.339762 -0.015449 -0.154260 0.113432 -0.024968 -0.121602 0.482383 0.013744 0.363418 0.472206 0.039263 -0.251990 -0.407509 0.136554 -0.186645 -0.638874 0.179371 -0.251296 0.486858 -0.046592 -0.316991 0.305616 -0.580277 0.466302 -0.041595 -0.164445 -0.240874 0.238689 -0.280778 0.163855 0.359933 0.128675 -0.280604 0.054794 0.075514 -0.571447 0.650847 -0.181476 0.189164 -0.293490 
化 -0.099183 -0.035976 0.359272 0.292023 0.157801 0.567366 0.003472 -0.155537 0.425691 -0.212007 -0.423892 -0.017659 0.187149 0.005023 -0.025713 0.014268 -0.127826 -0.126303 -0.089391 -0.236257 0.041808 0.133913 -0.106054 0.097973 0.152121 -0.200903 -0.379328 0.059440 -0.242709 0.105592 -0.382261 0.198738 -0.496413 0.329467 0.094412 0.130934 -0.202251 0.163562 0.297670 -0.009234 -0.270608 0.153232 0.084669 -0.219578 0.082618 -0.293451 0.228249 -0.033565 -0.410921 -0.264686 
内 -0.014993 -0.069881 -0.055030 0.193917 0.191274 0.196619 0.043521 0.246496 -0.100039 0.014926 0.088338 0.117084 0.055017 0.206709 0.458097 0.187043 0.068713 -0.161184 0.140166 -0.281762 0.200410 -0.125999 -0.100636 0.028280 0.063964 -0.046775 0.185356 -0.313796 -0.128271 0.044480 0.013661 -0.278107 -0.116578 -0.089422 0.118273 0.215057 -0.114622 0.043585 -0.124862 0.257803 -0.040980 -0.122700 -0.083723 -0.003852 0.004443 0.130649 0.028485 -0.023855 0.013443 -0.015854 
还 0.129648 0.031765 0.007669 -0.085873 0.029313 0.141500 0.367776 0.175979 -0.119994 0.056963 0.169910 -0.277827 0.192168 -0.056496 -0.024808 0.115064 0.166019 -0.042187 0.018873 0.046157 0.327882 -0.029238 -0.085307 -0.108299 0.006558 -0.095785 -0.003747 0.083117 -0.072068 0.037135 0.001206 -0.119432 0.082673 0.119648 -0.074123 0.108270 0.066389 -0.072551 -0.025896 0.042046 -0.309788 -0.173412 0.207297 0.138095 0.068850 0.278053 -0.176833 -0.043854 -0.082048 0.087296 
商 0.298247 0.245603 -0.507828 0.275018 -0.218638 0.245594 0.215567 0.051361 0.054492 -0.361911 0.173557 -0.061752 0.146088 0.040580 -0.045725 0.085588 -0.540641 -0.324032 -0.079194 0.033969 0.203485 -0.023576 -0.003887 0.348575 -0.237967 -0.174059 0.376168 -0.019162 -0.689562 0.497872 -0.218535 0.018616 -0.172997 -0.338962 -0.317716 0.035151 -0.435766 -0.638465 0.003809 -0.091540 -0.092249 0.327130 -0.012401 -0.137163 -0.111533 0.222848 0.064117 -0.236781 -0.215763 -0.228034 
利 -0.115612 -0.119138 -0.261297 0.050215 0.126974 0.237425 -0.167068 0.131168 -0.013172 -0.026191 0.124114 -0.160263 0.384685 0.309827 -0.301552 0.267747 -0.075437 -0.479583 -0.099979 -0.203316 0.063461 0.261534 -0.052747 0.062651 -0.220527 -0.277141 -0.355198 0.084334 -0.302483 -0.500759 0.391426 0.060672 -0.255338 -0.473455 0.073031 0.228345 -0.100746 -0.070266 -0.397317 -0.038089 -0.313345 0.253587 -0.336198 0.036342 -0.099455 -0.458267 0.196165 0.023177 0.017887 0.315246 
制 -0.068638 0.036192 0.116980 -0.409979 0.051590 0.467949 -0.220065 -0.040300 0.567548 0.077917 -0.213519 -0.001599 -0.034688 -0.276300 0.073867 0.056756 0.161766 -0.247622 0.290687 0.025426 0.353002 0.433934 0.042987 0.298055 0.327248 -0.159578 -0.088187 -0.384977 0.000070 -0.308534 -0.053532 -0.255769 -0.309999 -0.059711 -0.108373 0.401973 0.019965 0.183468 0.169233 0.216352 -0.058165 0.412719 -0.172118 -0.127922 -0.003192 0.117330 -0.047068 0.201211 -0.171722 -0.291818 
其 0.063254 -0.104628 -0.047224 -0.042451 0.240227 0.465354 0.023854 0.252267 -0.210634 0.171624 0.239871 -0.099483 0.235479 0.252559 0.029316 0.168304 0.072342 -0.226040 -0.068888 -0.395666 0.070007 -0.020378 -0.141285 0.102364 0.054345 -0.190826 -0.089195 0.085246 -0.039432 0.048981 -0.063999 0.011037 0.036108 0.018381 -0.039004 0.085508 -0.065348 -0.225409 0.152810 0.147693 0.039483 0.142080 -0.268237 0.172101 0.020441 0.027555 0.003454 0.094111 0.055091 -0.270841 
当 0.096278 0.259123 0.028506 0.029882 0.315762 0.103919 0.198600 0.338393 -0.104895 0.099206 0.411835 -0.197813 0.283079 -0.228766 -0.052384 0.133173 0.098319 -0.077695 -0.004237 -0.118105 0.309886 -0.281408 0.039402 0.018536 0.026668 -0.095404 -0.290837 -0.009493 0.062394 -0.084795 0.118770 -0.232352 -0.075838 0.101996 0.074011 -0.005616 -0.109420 -0.022543 0.135063 0.292782 -0.282035 -0.163940 0.234528 0.068798 0.100639 0.083426 -0.021536 -0.218841 -0.069822 -0.026664 
万 0.503982 -0.105634 0.436116 -0.025567 0.052826 0.345078 -0.356328 0.364015 -0.330441 0.811192 -0.396474 -0.202654 -0.105826 0.365423 -0.065853 0.096861 -0.425556 0.154804 -0.285732 0.124476 0.130806 0.096392 0.457745 0.269466 0.627849 0.319582 0.640965 0.123997 -0.231997 -0.289118 -0.113166 0.092139 0.326134 -0.144200 0.056355 -0.147313 0.049601 -0.380988 -0.159201 -0.182816 -0.288169 0.150702 -0.323136 0.047483 0.166116 -0.133495 0.257624 -0.377145 0.292177 -0.312457 
２ -0.123458 0.239700 -0.823229 0.335588 0.597058 -0.130885 0.755238 0.302310 0.172661 0.562801 -1.189048 0.041701 0.641011 0.276607 -0.239939 0.350005 0.371962 0.282965 -0.240058 0.028864 0.073140 -0.499194 0.200368 0.424748 0.030975 0.435291 0.240566 0.181793 -0.205629 -0.438484 0.000090 -0.066741 0.806321 -0.125264 0.256031 0.420373 -0.027955 0.434630 -0.471044 -0.003755 -0.093183 -0.074127 0.101836 0.169527 -0.067375 0.463047 0.226490 0.118896 -0.058996 -0.349421 
： -0.228761 0.162729 -0.062215 -0.160786 0.294641 0.698515 0.416157 0.123631 0.067527 -0.019458 -0.072417 -0.131540 0.405800 -0.147269 -0.028039 -0.101341 0.572583 -0.070158 -0.060761 0.053216 -0.537010 -0.016562 -0.342970 0.496673 0.136650 -0.210808 0.417629 -0.043757 0.089612 0.340326 0.138970 -0.014029 0.706825 0.144710 -0.181270 -0.171446 0.267101 -0.017733 -0.188864 -0.129223 -0.384833 -0.131428 -0.008562 0.115912 -0.295871 0.349097 0.159591 0.016143 -0.001740 -0.028573 
然 0.284848 -0.375751 0.174799 -0.028970 0.167503 0.602165 -0.068468 0.308117 -0.157294 -0.452572 0.193750 -0.343756 -0.080156 -0.107611 0.346847 0.452481 0.001844 -0.187724 0.142501 -0.022204 0.137065 -0.339015 0.093645 -0.360427 -0.013032 0.138382 -0.311052 0.100693 0.088828 -0.061226 -0.141065 -0.102386 0.364996 0.288237 0.175129 -0.056639 -0.304176 -0.003759 -0.338383 -0.026838 -0.336689 -0.509682 -0.048516 -0.062814 -0.275827 0.148202 -0.018744 0.099353 0.021228 -0.346425 
特 -0.087420 0.055091 -0.232485 0.037739 0.120018 0.365487 0.091526 0.355308 -0.020190 0.402603 0.054729 -0.173057 0.122270 -0.360613 -0.261760 0.078116 0.093942 0.349292 0.265724 -0.443230 0.013091 0.386787 -0.555351 0.027813 0.465986 0.239813 0.123604 -0.191274 -0.032653 -0.317362 0.211288 0.190837 -0.081914 -0.143512 -0.275269 0.441642 -0.565339 -0.297765 0.143405 0.086724 -0.138319 -0.218705 -0.195887 0.221540 -0.881736 -0.590797 0.241058 0.234739 -0.041038 0.297530 
子 0.069137 -0.055375 0.090177 -0.005175 0.232428 0.104264 0.510261 0.107119 0.132223 -0.085743 -0.200404 0.119018 0.074697 0.014069 -0.072415 0.292371 -0.093393 0.018182 -0.280349 0.206309 0.171289 0.022632 0.416545 0.028624 0.416271 -0.283367 -0.160659 -0.120313 -0.257782 0.341023 0.037888 0.454158 0.152305 0.081132 0.018310 0.050971 -0.353670 0.188216 0.252883 0.202171 -0.185760 0.173952 -0.078282 0.243370 -0.025651 0.474036 -0.209264 -0.135997 0.460440 0.041685 
六 0.461056 -0.251470 0.613071 0.274754 0.074771 -0.186965 -0.087810 -0.038130 0.105209 0.302870 -0.210937 0.057270 0.040271 0.316791 0.319755 0.321112 -0.290427 0.028772 -0.358622 0.125042 -0.189413 -0.170591 -0.090730 0.397309 0.551931 0.179852 0.298235 -0.313584 -0.115670 -0.229192 0.165559 -0.358282 -0.091675 -0.015828 0.500371 -0.009541 0.217003 -0.526130 0.287629 -0.150047 -0.029006 -0.079974 -0.258145 0.115557 -0.275284 -0.077593 0.205217 -0.162448 0.513950 -0.013924 
港 0.086281 -0.036362 -0.399918 -0.358919 -0.015882 0.225734 0.110657 0.021266 0.249575 -0.028650 -0.256524 0.317143 -0.542676 0.014331 -0.143117 0.787808 -0.159992 0.272028 0.346011 -0.768708 -0.348273 0.266563 -0.279270 -0.057215 0.071141 -0.239669 0.525863 -0.337180 0.248824 -0.008628 0.453590 -0.259062 -0.258254 0.112445 0.196648 0.130256 -0.953704 -0.198482 -0.537474 -0.198016 -0.213817 -0.054479 0.199420 -0.066788 -0.204169 -0.176709 -0.033492 -0.236599 0.010739 -0.317343 
府 0.207972 0.355687 -0.033224 -0.198333 -0.392809 0.417697 0.066120 0.072575 0.303770 0.037746 0.325723 -0.169676 0.219706 0.381853 0.102179 -0.142180 0.628108 -0.076434 0.466109 -0.373151 -0.081915 -0.114278 -0.084556 -0.212186 0.060594 0.411984 -0.350367 -0.340935 -0.076454 0.067998 0.596839 -0.425709 -0.142719 -0.102034 -0.303863 0.702989 -0.435571 -0.339230 0.124146 0.132090 -0.463176 -0.077886 0.555364 -0.372017 0.125705 -0.472886 0.241640 0.059732 -0.063171 -0.042594 
名 0.061072 -0.166292 0.064853 -0.115320 0.112012 0.275464 0.490551 -0.031377 -0.072684 0.322556 -0.156133 -0.129074 0.215923 -0.077892 -0.055293 -0.012370 0.174590 0.206027 -0.120188 -0.212226 0.238899 0.090459 0.099447 0.432400 0.396504 0.065324 0.189620 0.288513 -0.456813 0.003382 -0.240782 0.121574 0.490767 0.081406 -0.290873 -0.084447 -0.149200 0.099039 -0.396189 0.012578 0.245759 0.293100 -0.141445 -0.049357 0.191640 0.212792 0.013372 0.126592 0.448400 0.205260 
度 -0.233075 -0.002004 0.535088 -0.070669 0.045952 -0.088305 0.475538 0.106620 0.543543 0.479716 0.098443 0.275852 -0.071273 -0.143526 -0.061675 0.445992 0.173741 -0.447782 -0.227282 0.360832 0.026745 0.145687 -0.148978 0.076393 0.584422 0.011259 -0.193891 -0.358469 0.449396 -0.515626 -0.081633 -0.156188 -0.413371 0.039981 0.462747 0.067309 0.208323 -0.235789 -0.616438 0.303060 0.092346 0.493513 0.176665 -0.221381 -0.112353 -0.224645 0.054900 -0.119890 -0.071716 -0.057884 
斯 0.113136 0.206869 -0.240040 -0.200792 0.922625 0.259164 -0.237443 0.360721 0.080555 0.321678 0.145986 -0.307606 -0.140334 -0.307142 -0.006575 0.612203 0.594594 0.308174 0.669793 0.157188 0.187106 0.657575 -0.490009 0.277037 0.310087 0.739791 -0.146333 0.135272 -0.408751 -0.518296 0.679689 0.173164 0.296460 -0.125917 -0.829479 -0.113877 0.109359 0.391288 -0.365925 0.010238 0.068349 -0.112919 -0.208840 0.244211 -0.662457 -0.363681 0.408024 -0.252821 0.362965 0.808626 
及 0.036205 0.195832 -0.257528 0.089529 0.157477 0.253162 -0.066877 0.023656 0.233296 0.201401 -0.077053 0.015616 0.046197 0.077176 0.058664 0.187116 0.147903 -0.419529 0.207939 -0.281422 0.102648 0.028741 -0.204132 0.196508 0.105208 -0.115916 -0.106506 -0.058060 -0.070907 0.073805 -0.121128 0.043055 -0.082631 0.048407 0.090314 0.255320 -0.235804 -0.123917 0.199478 0.124008 -0.157833 0.141334 -0.226395 0.028134 -0.070968 0.051729 0.095650 -0.165456 -0.083945 0.131309 
所 0.011915 0.006037 -0.352945 -0.088637 -0.160182 0.266169 0.173871 -0.034575 0.248749 0.289654 0.002517 -0.345607 0.003867 0.104131 0.277121 0.104326 0.098217 -0.181773 0.019170 -0.155431 0.150492 0.004767 -0.149323 -0.146502 0.131628 0.123968 -0.085796 0.165846 -0.273041 0.023832 -0.111192 0.033574 -0.096341 0.416496 -0.091481 0.061635 -0.152034 -0.227135 0.048592 0.026414 -0.199001 -0.039707 0.038750 -0.116158 0.006570 0.174826 0.018161 0.204595 0.183008 -0.174727 
企 0.309767 0.302312 -0.594384 0.281904 0.017120 0.457303 -0.066675 -0.102065 0.251975 0.173390 0.520102 -0.259007 0.109392 0.239466 0.050682 0.201507 -0.344796 0.037475 -0.573340 -0.281091 0.406975 -0.160640 -0.127935 0.690104 -0.200952 -0.301051 0.351582 -0.143572 -0.311957 0.395401 -0.245630 0.133044 -0.243494 -0.524385 -0.199491 0.398674 0.124410 -0.488084 -0.100692 0.372196 0.013210 0.367119 -0.135975 -0.283483 0.075286 0.003471 0.195500 -0.061669 -0.407080 -0.482825 
报 -0.227234 0.098968 0.182593 -0.046025 0.200516 0.226744 -0.094407 -0.170656 0.394782 0.250232 -0.150968 -0.097549 0.291247 -0.328834 -0.131042 -0.160002 0.069104 -0.255157 0.337224 -0.068076 -0.403732 0.117367 -0.062206 0.030742 -0.113848 -0.438294 0.278329 -0.138083 -0.553950 -0.169613 -0.225877 -0.617285 0.585406 0.275020 -0.363716 -0.325297 0.103271 0.614431 -0.430971 0.186366 -0.501651 -0.827899 0.026779 -0.234955 -0.173868 0.322719 0.006844 -0.225034 0.025161 0.414097 
小 0.064324 -0.139066 -0.016370 -0.045803 0.368997 -0.104199 0.431277 0.003008 0.322961 0.102313 0.236093 -0.174520 0.119031 0.338881 0.085434 0.323857 -0.015554 0.104139 -0.423149 0.006459 -0.049106 0.077667 0.218259 0.055966 0.541482 -0.316759 0.183244 -0.211063 0.100052 0.021702 -0.137536 0.164867 -0.121953 0.169205 0.136770 -0.333362 -0.109805 0.408593 0.145133 0.383749 -0.059527 0.034410 0.276390 0.392470 0.132390 0.147215 -0.005091 -0.226688 -0.091423 0.034486 
因 0.098637 0.062882 0.061968 0.024870 -0.001710 0.224245 0.181148 0.337096 0.203560 -0.282773 -0.090459 -0.235583 0.307227 -0.200545 0.103731 0.132464 0.191817 0.263610 -0.063892 -0.173531 0.363569 0.165931 -0.207033 -0.002165 -0.006179 -0.079716 -0.539301 0.118331 0.096037 -0.117523 -0.075693 -0.132475 0.144627 0.117669 0.232733 -0.406238 -0.388806 -0.325833 0.164281 0.061258 0.010414 -0.140342 -0.213034 0.511607 0.088650 0.176514 -0.139356 0.038765 -0.247634 -0.366461 
但 0.131963 -0.012898 -0.010830 -0.067945 -0.020137 0.305802 0.170532 0.219418 -0.072366 -0.066970 0.192344 -0.329242 0.229025 -0.250437 0.065436 0.134769 0.177118 -0.029431 -0.049630 0.013694 0.264530 -0.056226 -0.169830 -0.154069 0.141878 -0.038426 -0.283411 0.130484 0.096006 -0.251685 -0.089855 -0.154615 0.128257 0.107871 0.056112 -0.057602 0.026611 -0.263536 -0.096266 -0.052890 -0.179663 -0.178096 -0.019306 0.121628 0.018956 -0.049087 -0.097071 -0.061361 -0.089040 -0.081820 
从 0.224550 -0.054236 -0.182036 -0.008257 0.092597 -0.188626 0.160465 0.194506 0.106026 0.048198 0.044984 -0.476064 0.061822 -0.268280 0.085386 -0.075933 0.156464 0.081232 0.118723 0.087455 0.105543 -0.142671 -0.242299 0.160948 0.255489 -0.284099 0.147007 0.029800 0.092432 -0.117482 0.242870 -0.032300 0.179748 0.041519 0.322119 -0.200089 0.028159 -0.173395 0.091180 0.192866 -0.203244 -0.038763 -0.081089 -0.052009 -0.043122 0.062483 0.117201 -0.210347 -0.031807 0.020886 
议 0.066236 0.316453 0.093386 0.230157 -0.240831 -0.128784 0.084936 -0.114419 -0.172029 0.317578 -0.201525 -0.140879 0.465492 0.035137 0.449291 0.062877 0.078546 -0.012761 0.670950 0.231533 0.055583 0.224836 -0.042276 0.034213 0.508240 0.161626 0.099971 -0.015870 -0.256849 0.315017 0.400282 -0.272347 -0.052564 0.075041 -0.508689 -0.030996 -0.296021 -0.151880 0.132452 -0.661078 0.417635 -0.127591 0.101387 0.574138 0.119256 -0.100414 0.009896 0.103164 -0.719468 0.196903 
达 0.166817 0.280071 0.045904 0.140081 0.214254 0.290261 -0.058778 0.183886 -0.190510 0.571274 -0.194195 -0.327097 0.041120 -0.169491 0.079604 0.054662 -0.064653 0.052510 0.267684 0.327684 0.226361 0.174106 -0.140125 0.372018 0.340683 0.403397 0.243140 0.016098 -0.077619 -0.284063 0.158222 -0.168610 -0.010058 -0.441035 0.058204 -0.057287 -0.059892 -0.206730 -0.246646 -0.103769 -0.147185 -0.053030 -0.499561 0.169516 -0.268224 -0.388756 0.361001 -0.097499 0.346298 -0.089053 
际 -0.151246 -0.274790 -0.198175 0.209533 -0.166109 0.308370 0.046575 0.069914 0.139433 0.116317 -0.473465 0.208998 0.435262 0.242641 0.256677 0.014300 -0.071634 -0.367167 0.075754 -0.368297 -0.175120 0.020752 0.115395 0.045750 -0.099989 -0.559192 -0.053301 -0.090460 -0.057555 -0.124560 0.203448 -0.229150 -0.346549 0.249930 -0.395856 0.194222 0.099478 0.260074 0.028631 -0.124877 0.087532 0.376610 -0.187585 -0.064825 -0.087099 -0.127697 -0.021324 -0.094174 -0.390187 0.004027 
去 0.366146 -0.099936 -0.057387 -0.130714 0.004316 -0.087270 0.209573 0.286344 -0.043844 -0.179931 0.033706 -0.319601 -0.045517 0.154136 0.029171 0.421836 0.080926 0.087215 0.070551 0.271001 0.023616 -0.302705 0.151528 -0.079191 0.445534 -0.120991 -0.163648 -0.019903 -0.122880 0.108967 0.403927 -0.255194 -0.027929 -0.167820 0.452405 0.000135 0.262438 0.055082 0.119968 0.010570 -0.439541 -0.068251 0.247151 -0.097785 0.248470 -0.197926 -0.162803 -0.292459 0.035973 -0.075484 
并 0.153845 0.097470 -0.009522 -0.059317 -0.088017 0.048389 0.308358 -0.045019 0.097574 0.149309 0.252048 -0.382045 0.143851 -0.256402 -0.168398 0.021395 -0.017694 -0.082305 0.298174 0.137076 0.169874 -0.073499 0.050995 0.053319 -0.106500 0.093168 -0.260305 -0.002442 -0.235666 -0.191510 -0.259687 -0.357065 -0.049356 -0.024508 -0.302487 0.219359 -0.169523 0.015811 -0.069851 -0.150468 -0.122795 -0.150296 -0.121419 -0.020492 0.095682 0.221947 0.022166 0.017438 -0.488332 -0.202505 
心 -0.181486 0.057944 -0.230980 0.184323 -0.246909 0.141227 0.032703 0.273719 0.157398 -0.031170 0.145099 -0.159562 -0.064258 0.251305 -0.029724 0.255318 0.063958 -0.044127 0.030689 -0.033859 0.323733 -0.077812 -0.049844 -0.346110 0.194890 -0.032191 -0.190842 -0.016163 0.093309 -0.003722 0.205119 0.119778 -0.009853 0.573743 -0.111002 0.151425 0.072071 -0.131185 0.144606 -0.246223 -0.041135 -0.139452 -0.170269 0.037629 -0.056842 0.502491 0.386803 -0.182818 -0.142173 -0.176792 
体 -0.314252 -0.302659 0.070324 0.092699 -0.198765 0.591418 0.332124 -0.193635 0.163483 0.109592 -0.220930 -0.010255 0.092168 -0.244833 0.077167 0.021789 0.091209 -0.003331 0.135877 -0.116607 0.373602 -0.028626 0.074779 0.240949 0.201454 -0.040857 -0.445610 -0.210067 -0.276538 -0.096621 -0.034656 0.057937 -0.342560 0.240001 0.026140 -0.014100 -0.083528 0.486749 -0.031688 -0.116869 -0.078005 0.274400 -0.332029 -0.163958 0.074994 0.179806 0.289450 -0.208654 -0.074745 -0.562203 
水 -0.271158 0.027273 0.273360 0.369477 0.501169 0.179305 0.249052 0.135778 -0.206545 0.147312 0.028917 -0.078247 -0.126966 -0.373451 0.303580 0.544252 0.380161 -0.563527 -0.098983 0.654250 0.501934 0.194651 0.323693 0.030157 -0.303992 -0.160246 -0.182339 -0.062906 -0.194081 -0.089514 0.116277 0.200378 0.116814 0.094196 0.608389 -0.131138 -0.260363 -0.086921 -0.188027 -0.475593 -0.134790 0.196024 0.413661 0.283927 0.319070 -0.110077 0.597858 0.110647 0.274827 0.217972 
司 -0.181670 -0.420697 0.222504 -0.318135 -0.135942 -0.226624 -0.331456 -0.187894 0.607608 0.256239 0.039555 0.047627 0.269085 -0.306919 0.119605 -0.157522 -0.004165 0.179815 -0.262048 0.126784 0.141616 0.316959 0.423747 0.624332 -0.489254 0.223542 0.141529 0.069321 -0.817746 -0.026377 0.132769 0.023089 -0.820675 0.361102 -0.299243 0.573489 -0.033654 -0.260609 -0.362181 0.499932 -0.221341 -0.036151 -0.594918 0.213405 -0.063448 0.587302 -0.576447 -0.492838 -0.415918 0.069827 
世 0.364531 -0.552779 0.083780 0.302457 -0.401329 0.276969 0.674491 -0.344300 0.131100 -0.106490 -0.431540 0.288351 -0.021795 0.499233 0.046173 0.170059 0.139531 0.472917 0.081711 -0.110817 -0.275882 -0.137640 0.047141 0.264488 -0.285212 -0.160532 -0.565574 -0.143655 0.006327 0.520355 0.105731 -0.359381 0.397644 0.480229 0.046481 -0.383715 -0.187921 -0.163996 -0.055711 -0.162596 0.195978 0.101142 -0.512773 0.144131 -0.506527 -0.224669 0.050956 -0.010176 -0.098698 0.329047 
于 0.082002 0.127142 0.000548 -0.052721 0.058987 -0.313652 0.396264 0.352314 0.353422 0.114696 -0.015988 0.009455 0.259382 0.307041 0.018250 0.131284 0.388590 0.073796 -0.128078 0.066697 0.139953 -0.183268 -0.072356 0.157444 -0.116754 0.054251 0.123425 0.103432 0.239947 -0.465899 0.100912 -0.438943 -0.053760 0.126387 0.284445 -0.003281 -0.249299 0.120075 0.029421 -0.026293 -0.171024 -0.018248 -0.340722 0.224858 0.065536 -0.167833 0.143022 0.001304 -0.338362 0.083663 
口 0.453237 0.311724 -0.305584 -0.113510 0.162708 0.022778 0.195275 0.169166 -0.314015 -0.033467 0.019868 0.321619 -0.194890 0.314017 -0.148820 0.674933 -0.229711 -0.096759 0.031047 0.154703 -0.134896 0.129514 0.057900 0.232967 0.043548 -0.340464 0.094360 -0.243196 -0.451063 0.410973 -0.128871 -0.174424 -0.140743 -0.250858 0.033956 -0.124332 0.055535 -0.336498 -0.234850 0.183314 -0.312120 0.155693 -0.041645 -0.163676 -0.202720 -0.026772 0.332271 0.010780 0.376914 -0.187749 
交 0.104771 0.046155 -0.714800 -0.283420 -0.173519 0.059374 0.290006 0.095745 0.157474 -0.248162 -0.317506 -0.134158 0.243921 -0.007250 0.087062 0.290446 -0.147957 -0.458208 0.215558 -0.154789 -0.127092 0.113133 0.259131 -0.218319 0.024783 -0.266656 -0.011493 0.153475 -0.312792 0.430280 -0.096120 -0.331007 -0.488916 -0.156127 -0.184860 0.197383 -0.071851 -0.025894 -0.125785 -0.168915 -0.197374 -0.331850 -0.208218 0.269668 0.107814 -0.216962 0.084708 -0.205929 0.277999 0.050623 
南 0.036021 0.176705 -0.136867 -0.136159 0.542184 0.094102 0.213455 0.332034 -0.050187 -0.381604 -0.191005 0.036781 -0.124963 -0.144571 0.127212 0.301749 0.502051 -0.469550 0.210681 -0.030223 0.182804 0.211642 -0.399069 0.127795 0.186518 -0.077800 0.425616 0.084502 0.185836 -0.204857 0.385364 0.198467 -0.307659 -0.185623 0.127545 0.400774 -0.297660 -0.317627 -0.267285 -0.017937 0.275856 -0.381313 -0.038926 -0.036207 0.221087 -0.532599 0.166467 -0.330716 -0.032228 0.531501 
第 0.243288 -0.464471 -0.021515 0.101967 -0.048285 0.152663 0.374235 -0.387793 -0.113136 0.194470 0.094675 -0.179932 0.222553 -0.001103 0.275818 0.127163 -0.189171 0.321691 -0.128056 -0.151953 -0.086352 -0.166737 0.405758 0.687413 0.456346 -0.354505 0.306514 0.050068 -0.124251 -0.146572 0.494545 -0.201503 0.225949 0.072850 0.130061 -0.149935 -0.032634 -0.060268 -0.249013 -0.072470 0.462663 0.264478 0.015409 0.059519 -0.225652 -0.397510 -0.170422 0.437567 0.172060 0.425016 
七 0.549553 -0.250564 0.608989 0.095746 -0.098578 -0.308807 0.001882 -0.128244 0.241780 0.370776 -0.182304 0.098116 -0.045151 0.379842 0.360800 0.245827 -0.305423 0.044183 -0.286226 0.032171 -0.189265 -0.536084 -0.167914 0.266774 0.419298 0.090733 0.228116 -0.517105 -0.071430 -0.249131 0.220950 -0.381445 0.018702 -0.105397 0.687281 -0.047161 0.179818 -0.496395 0.420648 -0.245507 -0.057384 -0.023278 -0.593764 0.102565 -0.288227 -0.024948 0.271057 -0.075510 0.541484 -0.090261 
明 -0.115322 -0.001823 0.502955 -0.192276 -0.048517 0.078081 0.397130 0.142874 0.163402 -0.193228 -0.050580 -0.195246 0.134231 -0.049638 -0.241720 0.113853 0.329564 -0.240718 0.220579 0.310267 -0.339045 -0.344562 -0.296094 0.370035 0.035196 -0.031724 -0.049020 -0.108119 -0.045925 -0.127420 -0.167639 0.093078 -0.014187 0.131305 -0.167610 -0.061538 0.024798 0.043388 -0.187048 -0.155103 -0.322409 -0.279305 0.115919 -0.044265 -0.196336 -0.186623 -0.026306 0.173945 -0.243945 -0.042984 
后 0.038778 -0.106219 0.002658 -0.164475 0.051311 -0.023017 0.092016 -0.216412 -0.212553 0.099763 0.093725 -0.381943 0.356717 -0.007300 0.317117 0.402998 0.269581 -0.041829 0.399539 0.282957 0.255272 -0.249502 -0.184603 -0.027539 -0.000911 -0.148391 0.121932 0.175933 -0.006079 -0.300178 0.148085 -0.321727 0.142739 0.259674 -0.038777 0.127006 -0.157265 0.115271 -0.080716 -0.006709 0.070988 -0.064696 -0.021359 0.207958 -0.137384 0.018951 0.134037 0.233999 -0.047356 -0.067382 
里 -0.121792 -0.053163 0.010135 0.068547 0.128292 0.031951 0.202637 -0.011850 -0.223870 0.111877 0.026630 -0.276909 -0.054623 0.082952 -0.195459 0.085354 0.274517 0.362624 -0.072052 0.161871 0.363529 0.181656 -0.070022 0.309431 0.120952 -0.022537 0.251101 0.273929 -0.160821 -0.337013 0.104404 0.255139 -0.101237 0.070967 -0.104057 0.232460 0.034549 -0.069667 0.186745 0.414455 -0.273831 -0.064560 0.200643 0.299998 -0.257169 0.068009 0.046092 -0.490606 0.157954 0.282443 
入 0.364125 -0.092283 -0.277522 0.250347 0.195680 -0.001848 0.284180 -0.169173 0.299606 -0.008788 0.045576 0.010716 0.050819 0.066996 0.404542 0.218025 0.034241 0.062253 0.371879 -0.145366 0.261125 0.032228 -0.057998 0.128948 -0.062999 -0.425706 0.114853 -0.078489 -0.401943 -0.061122 0.104376 -0.309949 0.019982 -0.081484 -0.254637 0.029944 0.207311 0.025335 -0.287985 -0.090116 -0.028876 0.298329 -0.215896 -0.356816 -0.126739 -0.231008 0.053744 -0.122649 0.161342 -0.312578 
间 -0.161396 0.254597 0.069189 -0.016131 0.154334 -0.168264 0.303943 0.053689 0.042552 0.173976 0.132696 -0.075926 0.321472 0.444224 0.266108 -0.017489 0.171970 -0.098315 0.180078 -0.185813 0.165577 -0.172864 0.112261 -0.059423 0.147987 -0.119427 -0.112755 -0.126026 0.043320 -0.115708 0.004363 -0.484211 -0.322351 0.045224 0.052385 0.142606 -0.048562 0.046949 0.325033 0.396274 -0.018418 -0.331143 0.248465 0.192993 -0.131316 -0.192427 0.066388 -0.395630 0.148694 -0.124956 
次 0.278664 -0.148519 0.192322 0.349224 -0.254387 0.112838 0.358282 -0.124401 -0.291377 -0.161587 0.049972 -0.198397 0.678699 -0.142262 -0.017055 0.071431 0.186211 0.107167 0.357393 0.101558 0.217515 0.056432 0.055837 0.444438 0.343909 -0.038108 0.108662 0.078673 0.026544 -0.093623 0.051511 -0.463991 0.048094 0.175448 -0.000322 -0.225569 -0.024933 -0.192922 -0.127794 -0.137336 0.295117 0.337238 0.240890 0.286333 0.245441 -0.458289 -0.097442 0.117665 0.009827 0.273273 
完 0.424330 0.391374 -0.569353 -0.622473 -0.059409 -0.305515 -0.416913 -0.613733 -0.153637 0.461064 0.310103 -0.273266 -0.298573 0.209997 -0.796049 0.696216 -0.118764 -0.313761 -0.907551 0.230110 0.866931 -0.362709 0.219686 1.032667 0.325462 0.134141 -0.549365 -0.777819 0.127452 0.298227 -0.151898 -0.230506 0.193671 0.165779 0.150313 0.053090 0.160114 0.263670 -0.545303 -0.182777 -0.032165 -0.485832 0.400739 -0.438206 0.231057 -0.040643 -0.091338 -0.043435 -0.544689 0.060260 
道 0.139683 0.175678 -0.125805 -0.252704 -0.081684 0.166791 0.103054 -0.093060 0.175557 0.063729 0.059561 0.034529 0.221013 -0.271504 -0.184365 -0.044791 0.403577 -0.142374 -0.075256 0.079762 -0.071540 0.427289 0.044578 -0.045497 0.014043 -0.735994 0.077300 -0.030649 -0.526081 0.048133 0.062436 0.099096 0.568330 0.389370 0.060225 -0.164566 0.324475 0.306981 -0.455563 0.288238 -0.321842 -0.532084 -0.046494 0.235988 -0.209461 -0.014367 0.077403 -0.226826 0.237620 0.091138 
正 0.090792 -0.123302 -0.041402 -0.073818 -0.183346 -0.015945 0.080058 -0.032733 0.186077 -0.088795 -0.137315 0.211090 0.118823 -0.105008 -0.187456 -0.165390 0.068129 -0.012957 0.210878 0.291977 0.494631 -0.434773 -0.104073 0.044709 0.222742 -0.022929 -0.129888 -0.187875 0.002743 -0.138051 0.140503 -0.026794 -0.152653 0.164499 -0.319153 0.058884 -0.018818 -0.105896 0.040397 0.227102 -0.134415 -0.337014 -0.045079 0.268447 0.119096 -0.044710 0.006961 0.029577 -0.327341 -0.279042 
由 0.190426 0.104029 0.012966 0.190690 0.090907 0.095354 -0.036442 0.125818 0.168319 -0.055577 -0.145761 -0.202906 0.139358 0.021732 0.056927 0.086736 0.123314 0.102849 0.031102 -0.072171 0.001084 -0.223464 0.109073 0.116234 -0.108988 -0.175362 -0.078017 -0.232711 -0.188453 -0.060673 0.150172 -0.253973 0.024262 0.294912 0.186059 0.164163 -0.344920 0.003564 0.118407 0.102495 -0.374320 -0.084645 -0.315769 0.217158 0.380558 -0.221326 0.091140 0.049182 -0.075371 0.105387 
此 0.115993 0.054492 -0.161720 0.037201 0.298038 0.102208 0.161180 0.075193 0.316635 -0.290940 0.209123 -0.298969 0.635407 0.026697 0.237294 0.118863 -0.106760 -0.019390 0.360695 0.007231 0.299279 -0.206106 -0.338410 -0.188988 -0.243362 -0.034550 -0.513441 0.033774 0.035814 -0.108008 -0.039928 -0.383408 -0.051387 -0.081624 0.003510 -0.181450 -0.209080 -0.207285 0.037362 0.019325 -0.163279 -0.338095 0.077788 0.596842 0.207695 0.058758 -0.241951 0.053458 0.039546 -0.115019 
提 0.056189 0.516652 -0.257491 0.143834 -0.369924 0.022218 0.106476 0.443789 0.144751 0.422825 0.071082 0.020376 -0.126945 0.122431 -0.175532 -0.023869 0.242715 -0.380130 0.058320 0.544766 0.178027 0.010151 0.193745 0.049436 0.210675 -0.080352 0.210895 -0.288402 -0.069534 0.197048 -0.013364 -0.075463 0.048800 0.487634 -0.215044 -0.321849 -0.092634 -0.696253 -0.187051 0.225452 -0.201627 0.261999 0.175702 -0.030537 0.173644 -0.110901 0.254106 0.329159 -0.355554 0.167591 
界 0.362779 -0.772974 -0.007193 0.428173 -0.322778 0.800658 0.637637 -0.247971 0.060959 -0.192319 -0.388771 0.293742 0.109234 0.281928 0.134899 0.322360 0.065584 -0.032328 -0.016436 -0.290841 -0.181704 -0.363536 0.153754 0.217314 -0.271257 -0.115748 -0.368372 0.117457 -0.197823 0.362200 -0.030898 -0.134934 0.152997 0.480000 -0.299843 -0.286727 -0.260376 -0.035589 -0.214140 0.181249 0.326418 -0.086433 -0.665046 0.247465 -0.272928 -0.223905 0.126646 -0.090089 0.210280 0.089850 
记 -0.300854 0.434607 -0.309251 -0.517855 0.115408 -0.891103 0.399228 0.313377 0.086090 0.202320 -0.044930 0.089313 -0.053675 -0.233574 -0.193222 0.082498 -0.523526 -1.072963 -0.296015 -0.113477 0.182646 -0.056614 -0.239960 0.802464 0.561582 -0.077740 -0.167454 -0.606107 -0.224278 -0.117571 -0.142260 0.339637 0.904224 0.298885 -0.021108 -0.140953 -0.289338 0.353192 -0.351284 -0.103031 0.247358 -0.923412 0.028814 -0.491941 -0.595283 -0.042293 0.204064 -0.629209 -0.074953 0.338248 
问 -0.182242 -0.287071 -0.571986 0.330006 -0.416014 0.284613 0.018913 0.248198 -0.219340 -0.195906 -0.076191 -0.167844 -0.220790 -0.068784 0.064496 0.288713 0.001853 0.121300 0.295961 -0.062704 0.072339 0.538009 -0.221130 -0.388217 0.434373 0.474871 0.143766 -0.403342 -0.204281 -0.048498 0.210335 -0.663671 0.416872 0.265839 0.090113 -0.192336 -0.206887 -0.212946 0.076800 -0.253903 -0.267653 -0.052546 0.606709 0.667372 -0.078936 -0.220911 0.300573 -0.484952 -0.611680 0.046458 
务 -0.398167 -0.085602 0.047399 0.464685 -0.536285 -0.026007 -0.352208 0.220048 0.146894 0.455665 0.130987 -0.032739 -0.011147 -0.293425 -0.009017 0.184316 0.015454 -0.138332 0.004268 -0.335271 0.146367 -0.406978 0.073118 0.328952 0.156814 -0.308568 -0.156199 0.004660 -0.355835 0.551774 0.100182 -0.167341 -0.388433 0.056886 -0.291405 0.626116 -0.064632 -0.299745 -0.014264 0.241115 -0.349358 0.343001 -0.343347 0.009088 0.115557 0.293465 0.256427 -0.083361 -0.264147 0.005957 
设 -0.033199 -0.014077 0.153971 0.098824 0.147814 0.242027 -0.379876 -0.516808 0.204506 0.127038 -0.180531 0.260421 -0.355366 0.175458 0.232481 0.361447 -0.099133 -0.276985 -0.061860 0.287256 0.682550 -0.082340 -0.370637 0.164194 -0.082507 -0.226654 0.512242 -0.386502 -0.406303 0.013712 0.162143 0.382698 -0.022669 -0.164825 0.006688 0.318140 -0.414223 0.293886 0.090052 -0.216153 -0.223511 -0.081629 -0.199355 0.146211 0.360998 -0.157056 -0.253860 0.403855 -0.486820 -0.108253 
好 0.090449 -0.122813 -0.053501 -0.099054 -0.412500 0.311349 0.300081 0.032066 0.043101 0.167331 -0.085035 -0.206196 0.099297 -0.023211 -0.060289 0.204251 0.009785 -0.064306 -0.086781 0.218472 0.510416 -0.070846 -0.031249 -0.317494 0.262325 -0.327563 -0.194836 -0.272254 0.097802 0.047963 -0.199238 0.337468 0.067064 -0.110615 -0.284288 0.102833 0.293733 0.001206 0.200146 -0.133205 -0.296923 -0.118098 0.303937 0.237272 -0.239286 -0.073658 -0.048309 -0.431767 -0.116528 0.207197 
通 -0.168518 -0.104548 -0.206298 -0.402670 -0.011272 -0.141254 0.085723 -0.134867 0.001854 -0.002396 -0.446348 0.092599 -0.112103 -0.340246 0.056027 0.306881 0.101975 -0.490790 0.020233 0.154432 0.108446 0.404223 0.045386 -0.122611 0.294464 -0.485135 0.034089 0.278017 -0.375644 0.223805 0.452566 -0.304694 -0.243803 -0.143468 0.146419 0.152869 -0.084339 -0.002633 -0.243566 0.116954 -0.412386 -0.213799 -0.395966 0.412072 0.048258 -0.077778 -0.097996 -0.147797 -0.391547 -0.011722 
如 0.081804 0.149238 -0.014966 -0.200086 0.082867 0.156244 -0.033557 -0.125559 0.266540 -0.245824 0.176335 -0.353618 0.588145 0.040233 0.523114 0.219326 0.084919 0.222890 0.166990 -0.281211 0.141465 0.047411 -0.268852 0.100851 -0.035445 -0.115327 -0.310093 0.017990 0.305857 0.233412 0.010764 0.160722 0.345620 0.061391 0.218667 -0.329494 0.206518 -0.273172 0.084510 -0.197630 -0.378217 -0.242837 0.158222 0.015251 -0.217227 0.235955 0.023292 0.067726 -0.192609 -0.300159 
起 0.437475 0.113830 0.167208 0.070099 0.120684 0.019186 0.413367 -0.219720 -0.108638 -0.173113 0.026402 -0.124022 0.112295 -0.176040 0.078867 0.091292 -0.028882 0.153129 0.219736 0.230512 0.160500 -0.042592 -0.018232 -0.134730 0.140724 -0.262456 0.175441 0.162207 -0.017311 -0.022300 -0.033623 -0.056574 0.143164 0.050064 0.065555 0.034887 -0.075774 -0.257465 0.023151 -0.131835 0.082719 0.042884 0.286297 0.028739 -0.043351 0.275982 0.265183 -0.384075 -0.319176 -0.031921 
