</s> 0.005003 0.005524 -0.004788 -0.004098 0.001708 0.003776 0.001176 0.000264 -0.004504 0.002773 -0.005445 0.001562 -0.000939 -0.001196 -0.004145 -0.002353 0.003224 0.003782 0.003711 0.001997 0.001931 -0.004753 -0.005120 0.006212 0.004752 0.003863 -0.000755 0.005020 -0.000619 0.000918 -0.000187 -0.003729 0.001640 -0.001672 -0.004782 0.005943 0.005474 -0.001369 -0.000283 0.000636 -0.004547 -0.005009 0.005693 0.000079 -0.003228 -0.003803 -0.003846 0.002121 0.000252 0.001664 -0.005267 -0.004760 -0.000163 0.001430 0.003187 -0.003963 0.005099 0.001159 0.001400 -0.000760 0.003733 -0.002860 -0.002622 0.002698 -0.000941 0.001288 0.002256 -0.005111 -0.002479 0.003642 0.005290 0.004915 -0.003809 -0.002635 -0.001136 0.002502 -0.004736 0.003747 0.003485 -0.001999
， 0.205410 -0.173033 -0.106232 0.043872 -0.091851 0.184663 0.102838 -0.173902 0.068039 -0.033066 -0.032895 0.159283 0.066461 -0.127384 0.003026 -0.278911 -0.196122 0.014949 0.066040 0.140392 0.020968 0.029375 -0.079263 0.135340 -0.136841 -0.091837 0.051220 0.123755 -0.093269 0.003207 0.051888 -0.125212 0.024168 -0.081607 0.111216 -0.002132 -0.209753 0.153732 -0.184084 -0.042455 0.025607 0.088115 0.004368 -0.160092 0.203543 -0.003912 -0.027857 0.193185 -0.050454 -0.109870 -0.122891 0.033614 -0.008316 0.016763 -0.161367 0.105969 0.099257 0.000579 -0.081281 0.009101 0.227273 0.110875 -0.161560 0.051266 -0.015824 -0.038725 -0.129347 -0.123094 -0.057827 -0.122418 -0.072247 -0.038040 -0.002021 -0.104935 0.019873 0.054051 -0.032365 0.201255 -0.170683 -0.126956 
的 0.261732 -0.112402 -0.116018 0.117356 -0.026847 0.120374 0.016799 0.035523 0.029760 -0.023370 -0.160343 0.129638 0.013391 -0.004509 -0.055230 -0.354255 -0.055525 0.165005 0.073113 0.089445 0.037393 0.016139 -0.151145 0.098811 -0.138278 -0.101097 0.051305 0.049630 -0.132342 0.087080 0.166072 0.069602 -0.102580 -0.200085 0.093435 0.026510 -0.076873 0.140701 -0.124946 -0.019134 0.048953 0.035717 0.011010 -0.127156 0.082086 0.026978 0.039332 0.023839 -0.189875 -0.062425 0.060654 0.172682 -0.022004 0.026190 -0.055326 0.162483 0.172754 -0.136435 0.005320 -0.088096 0.163176 0.113820 -0.166617 0.008204 0.025766 0.029681 -0.040556 -0.023808 -0.139595 -0.190870 -0.019949 -0.019155 -0.034762 -0.118453 0.102645 -0.027626 0.046366 0.084799 -0.040113 -0.050800 
。 0.384010 0.013403 -0.179072 0.068780 -0.062029 0.027121 0.174844 0.297757 -0.046418 0.140471 -0.003222 0.275183 -0.041120 -0.139373 0.141018 -0.465028 -0.070922 0.093905 -0.019485 0.108982 0.016203 -0.004874 0.019743 0.164755 0.012101 -0.001284 0.120997 -0.018026 -0.321851 0.162297 0.084196 0.015374 -0.136970 -0.304636 0.129918 0.057444 -0.026879 0.206574 -0.098489 -0.056345 -0.187717 -0.161971 0.176712 -0.247042 -0.079544 0.032688 -0.210404 0.076703 -0.249523 0.041133 -0.009640 0.128590 -0.077830 0.167236 -0.166637 0.252339 0.151075 -0.072505 -0.037331 -0.205375 0.011731 0.216810 0.112720 0.002960 0.041626 0.000302 0.122404 -0.186783 -0.151151 -0.014300 -0.093384 0.050969 -0.216856 0.005509 0.147631 -0.225034 -0.000039 0.134751 -0.009576 -0.131995 
国 0.171592 0.084685 -0.069084 -0.245204 0.055261 -0.081992 0.061163 -0.054940 -0.284962 -0.151218 -0.100449 -0.216735 -0.033932 0.141542 0.161889 -0.213669 0.158078 -0.150662 0.083104 0.001479 0.082774 -0.368334 -0.250707 -0.177710 -0.042492 -0.045996 0.037572 0.126972 -0.106413 0.324019 0.089845 0.033762 -0.126572 -0.164561 -0.059409 -0.122768 -0.258350 0.015752 -0.055551 0.150075 -0.121861 0.244075 -0.071095 0.022480 0.084365 -0.049616 0.396547 0.093429 0.112851 0.020441 -0.009882 0.182182 -0.316907 -0.118207 -0.124915 0.151176 -0.112417 0.011214 0.115200 0.121215 0.270660 0.002432 -0.296121 0.322188 0.066243 -0.028075 -0.221805 -0.095185 0.174361 -0.022981 0.161083 -0.141496 0.056149 0.099743 -0.162469 0.056804 -0.154331 -0.070497 0.146989 0.014939 
一 0.113439 0.059666 -0.001422 0.110649 0.147585 0.197205 0.359111 -0.027596 0.252774 0.059446 -0.119155 0.013665 -0.014102 -0.097030 0.026636 -0.222841 -0.020131 -0.040516 -0.136455 -0.146890 0.069292 0.181392 -0.017153 0.258091 0.051982 -0.046644 0.186665 0.025376 -0.262507 -0.117680 -0.075765 -0.182618 0.063173 -0.001849 0.046692 -0.110640 -0.206936 0.189558 0.009856 -0.158688 0.049618 0.094701 0.131639 0.075138 -0.053584 0.236817 -0.086176 0.233522 -0.078907 -0.015439 -0.184607 0.027311 -0.031687 -0.010558 -0.261997 0.174445 0.192058 -0.120050 0.104746 -0.034198 0.578748 0.080111 -0.007215 0.022981 -0.169972 -0.083202 -0.005077 0.015014 0.123932 -0.141610 -0.150887 0.095496 0.003908 0.202236 0.044088 0.150550 0.037320 0.126667 -0.003119 0.018207 
、 0.179071 0.054763 0.070934 0.088003 0.236055 -0.091819 -0.087105 -0.027463 0.008555 -0.055364 0.099107 0.247428 0.066174 -0.168024 0.070312 -0.186394 0.194189 0.064687 0.049926 0.094836 -0.091891 -0.098645 -0.244900 -0.024768 0.094405 -0.177168 -0.090183 0.072730 -0.011934 0.097476 0.364566 0.117745 -0.047534 -0.367479 0.051406 0.077992 -0.037177 0.297572 -0.249656 0.042161 0.037732 -0.004462 0.475862 0.191142 0.125921 0.054311 0.287316 -0.013283 -0.176218 0.021248 0.331086 0.289648 0.242090 -0.234219 -0.077612 0.074495 0.074980 0.131264 -0.000656 -0.042094 -0.163847 -0.014145 -0.014121 -0.055748 0.345653 0.006868 -0.002489 0.004816 -0.167004 -0.046897 0.067451 -0.194595 0.010892 0.172401 0.020339 -0.053849 0.012447 -0.026520 -0.111174 -0.086629 
在 0.125491 -0.176852 -0.145268 0.058679 -0.071607 0.004413 0.032569 -0.190415 -0.154668 -0.159759 -0.211248 0.054852 -0.050100 -0.152786 0.032825 -0.207699 -0.009472 0.050623 0.032671 0.086645 -0.104196 0.053063 -0.091337 0.002176 -0.066821 -0.164681 -0.002408 0.053052 -0.110666 0.127039 -0.095093 -0.059449 0.109197 -0.055296 0.220069 -0.115069 -0.207659 0.148922 -0.136055 -0.046220 0.016128 0.212464 -0.183902 -0.118544 0.182890 -0.005428 0.092624 0.222878 0.029233 -0.210128 -0.082486 0.206424 -0.026051 -0.154623 -0.061698 -0.077119 0.212408 -0.140285 -0.000013 -0.077827 0.182077 0.100285 -0.205946 -0.145874 -0.001590 -0.186385 -0.003984 -0.151325 0.087317 -0.305687 0.035047 -0.141487 0.073095 0.095795 -0.001951 0.171832 0.192950 0.181569 -0.006705 0.055081 
中 0.100963 -0.001002 -0.020182 -0.167865 -0.057476 0.000680 -0.134999 0.155553 -0.095884 -0.077384 -0.010088 -0.060613 0.006809 -0.171776 0.037050 -0.194333 0.163672 -0.022451 0.003793 0.010371 -0.045811 0.046867 -0.148129 -0.121649 -0.099542 -0.095595 0.020249 0.017158 -0.270058 0.210572 0.217976 0.064545 -0.037106 -0.278283 0.022137 -0.049910 -0.281087 -0.112095 -0.007080 -0.014926 0.066225 0.083411 0.005679 0.122537 0.244959 -0.090400 0.294801 0.055872 0.119421 -0.016191 -0.169902 0.070552 -0.131153 -0.188453 0.049181 0.139405 0.157963 -0.030661 0.018310 0.013852 0.306921 -0.116301 -0.014638 0.307868 0.095118 -0.211276 -0.021063 0.061434 0.092097 -0.045169 0.076049 0.027171 0.159866 0.166174 -0.172437 -0.128683 0.051590 0.038886 -0.020488 0.052024 
是 0.190952 -0.172340 -0.072575 0.093267 -0.090405 0.080238 0.104848 -0.099608 0.030121 -0.045150 -0.176668 -0.012145 0.062979 -0.037547 -0.101540 -0.384889 -0.180981 -0.050373 0.297955 0.018145 -0.004195 0.219165 -0.224541 0.077989 -0.112259 -0.152475 0.220092 -0.176804 -0.115744 0.007084 0.134787 -0.167041 0.053402 0.007905 -0.087584 0.042923 -0.212667 0.190605 -0.139972 -0.195842 0.133987 0.105164 -0.106575 -0.375463 0.063593 0.103311 -0.016175 0.168632 0.028637 -0.179333 -0.168540 0.135766 0.009167 -0.096211 -0.097686 0.043542 0.110377 -0.179723 -0.148883 0.081329 0.034047 0.171433 -0.210090 -0.082900 -0.091159 0.039889 -0.048398 -0.057647 0.055843 -0.238523 -0.015988 0.032354 0.025363 -0.039227 0.055040 0.128645 0.043523 0.000904 0.077229 0.007571 
人 0.176923 -0.175484 -0.027211 0.070414 0.017002 0.244006 -0.066530 0.080756 0.202020 0.113306 -0.136866 -0.008528 0.076330 -0.046063 -0.033153 -0.328284 0.050076 -0.145840 0.137703 -0.021045 0.173664 0.041807 -0.261500 0.155119 -0.153766 -0.194904 0.114922 0.100121 -0.376059 0.344628 -0.063954 0.009692 -0.115511 -0.024509 -0.009886 0.169400 0.136260 0.205947 -0.196722 0.008911 -0.021310 0.142385 -0.012640 -0.002981 0.271611 0.053483 0.088022 -0.141863 0.002756 0.088728 -0.003125 0.145432 -0.113985 0.311887 0.064905 0.099262 -0.112293 0.025053 0.011236 0.253037 0.030443 0.096611 -0.363316 -0.137251 0.018064 0.028763 -0.061499 0.038691 0.161324 0.000729 0.142581 0.094674 0.183418 -0.058872 0.074816 -0.183255 -0.182758 0.308021 0.048569 -0.209887 
年 -0.113875 -0.167730 0.114512 -0.119933 -0.161108 0.104870 0.180525 -0.021508 0.185524 -0.034649 -0.055921 0.112756 -0.305540 -0.445660 0.535777 0.090367 0.200835 -0.214098 0.374855 0.005625 0.022647 -0.375328 0.464750 0.041335 0.149170 -0.164448 0.155128 0.217515 -0.471553 0.004264 -0.342315 -0.011312 0.167678 -0.170595 -0.075073 -0.076320 0.025637 -0.133753 -0.315863 0.070250 0.042005 0.254880 -0.167544 0.060583 0.461117 -0.191417 0.094705 0.140297 -0.205366 0.042248 -0.496187 0.064607 0.097627 -0.374320 -0.046269 -0.025833 -0.022568 0.120884 -0.207946 0.462466 0.067816 0.174407 -0.238852 0.323613 0.261527 -0.053940 -0.127205 -0.110142 0.129516 -0.333188 -0.264334 -0.151433 0.185308 0.094869 0.116847 0.141713 0.353242 -0.163903 0.105189 -0.342385 
有 0.074428 -0.140924 0.201060 0.244350 -0.151925 0.116948 0.259123 -0.158107 -0.059750 0.093801 0.140619 -0.029631 0.184934 -0.010521 0.163250 -0.416949 -0.065297 -0.118265 0.207108 0.109586 -0.055570 0.211709 -0.205552 0.115173 -0.146157 -0.245321 -0.029122 -0.023861 -0.133132 -0.011556 0.256591 -0.257418 0.235409 0.017782 -0.138642 0.097136 0.022375 0.246212 0.035101 -0.369022 -0.079251 0.095023 0.070447 -0.408350 0.044512 -0.012799 -0.058677 -0.069059 -0.105949 0.005055 -0.228522 0.052852 0.136955 0.183045 0.016688 -0.016208 0.212775 -0.218125 0.111915 0.250232 0.077348 0.192866 -0.263616 -0.101334 0.073453 -0.099039 0.004285 -0.304394 -0.073524 -0.250723 0.078801 0.007726 0.005406 0.084744 0.135348 0.167876 -0.087731 0.217703 -0.134804 -0.064998 
大 -0.133978 0.252030 0.004967 -0.011181 -0.238250 -0.049798 0.162331 -0.113106 0.120546 -0.127764 -0.106147 0.084734 0.150630 0.178935 0.150915 -0.339858 -0.116216 0.014236 0.004926 0.073489 -0.100525 0.049462 -0.190150 0.149040 0.055737 -0.145461 -0.008792 0.065282 -0.135758 -0.078260 0.058671 0.131418 -0.092277 -0.430722 -0.149832 -0.021512 -0.091250 0.072966 -0.234507 -0.153041 0.116626 0.068596 0.058049 -0.114689 0.085247 0.153138 0.124978 -0.087397 -0.054274 -0.130388 0.225817 0.145007 -0.117009 0.161259 -0.058571 0.004202 0.045446 -0.073672 0.023332 0.032107 0.394217 0.070186 -0.197725 0.039240 0.033941 -0.169634 -0.076806 -0.153442 -0.009174 -0.016321 -0.123260 -0.135613 -0.101373 0.024104 -0.119151 -0.051372 0.250818 0.182497 -0.133569 0.005362 
了 0.112892 -0.087953 -0.033061 0.091433 0.099770 0.039168 0.247714 -0.012550 0.163942 -0.023711 0.005072 0.342810 0.187269 -0.134289 0.161797 -0.204795 -0.084009 -0.029580 0.163796 -0.010071 0.022881 0.100163 -0.103367 0.132469 -0.065529 -0.023408 0.074053 -0.055487 -0.241972 0.027194 -0.193664 -0.022711 0.059009 -0.201829 0.054421 0.015712 -0.034346 -0.111904 -0.142372 -0.058463 -0.128157 0.110985 0.036437 -0.319725 0.151064 0.218613 -0.238914 -0.081884 -0.100487 -0.171736 -0.109969 -0.019015 -0.156327 0.179649 -0.136106 0.046526 0.113837 -0.000627 -0.083518 -0.216079 0.064360 -0.029091 -0.263576 -0.025202 0.038618 0.018700 -0.074095 0.012297 0.017507 -0.073395 -0.115086 -0.109221 -0.146535 0.051711 0.087552 -0.061089 -0.057836 0.236869 -0.069860 -0.063301 
不 0.137908 -0.371220 -0.071184 0.004761 -0.199606 0.153933 0.150957 -0.227730 0.160085 0.041471 -0.139491 -0.012959 0.202030 -0.057105 -0.134033 -0.262396 -0.263055 0.007070 0.262867 0.132292 0.064099 0.065744 -0.152011 0.275792 -0.116803 -0.152302 -0.015718 0.073318 -0.029751 0.053889 0.245761 -0.087170 -0.013194 0.026147 0.147461 -0.036846 0.008216 0.006963 -0.158575 -0.060887 -0.043984 -0.183256 0.118155 -0.465211 0.097711 0.147666 0.018341 -0.001644 -0.019801 0.013302 -0.223197 -0.113326 -0.035453 -0.069872 -0.066637 0.130842 -0.112326 -0.168577 -0.342186 -0.005891 0.061295 0.104626 -0.260635 -0.042348 -0.021363 0.042751 -0.182319 -0.028749 0.026608 -0.048419 -0.110767 0.004361 0.012359 -0.131386 0.307684 0.156774 -0.163029 0.310127 0.016313 -0.105271 
十 0.150847 0.239037 -0.056277 0.005736 -0.103595 -0.156633 -0.158805 -0.143039 0.430048 -0.018493 0.131942 0.176925 -0.275810 -0.236288 0.008364 0.008317 0.450450 0.023996 -0.095397 -0.008258 0.361628 -0.025854 0.377593 0.199916 0.067451 0.046063 -0.024861 -0.123188 -0.715134 -0.044995 0.020615 0.079472 -0.004272 0.115892 0.098150 -0.465138 -0.112713 0.041469 0.237548 0.087989 0.082235 0.147183 0.159267 0.330852 0.092527 0.107274 -0.444433 0.164451 -0.121596 0.281088 0.005513 -0.026650 0.100031 -0.424692 -0.257767 0.235972 -0.431216 0.366572 0.318350 0.259991 0.598455 0.238503 0.246749 -0.008183 0.059040 -0.519366 0.069241 0.160756 0.142654 -0.246570 -0.360138 0.116083 -0.400832 0.447249 -0.004091 0.110157 -0.264176 -0.515006 0.363015 -0.460494 
为 0.089575 -0.237613 -0.251804 -0.062905 -0.079828 0.114272 -0.063280 0.028923 0.112693 -0.104903 -0.112423 -0.016161 0.160247 0.059019 0.003020 -0.107420 -0.093959 -0.091651 0.208585 0.339106 -0.004866 0.146926 -0.221899 0.182688 -0.150290 0.298696 0.416139 -0.163625 -0.002918 -0.024032 0.100006 -0.172558 0.068315 -0.215686 -0.024562 0.126714 -0.020456 0.128814 0.038529 -0.071358 0.196756 -0.098360 -0.065717 -0.092912 0.109280 0.168174 -0.036484 0.086183 0.054118 -0.038971 -0.087657 0.143634 -0.151214 -0.071564 -0.130398 -0.095781 0.142910 0.048340 0.088103 0.093369 0.031584 0.336006 -0.154904 0.167842 0.010849 0.008429 -0.386127 -0.166057 0.162031 -0.073030 -0.049394 -0.019217 -0.078848 -0.037268 -0.039313 0.030316 -0.064895 -0.163173 -0.041822 0.037247 
和 0.214038 -0.069100 -0.075713 0.031511 0.299476 0.081377 -0.061823 0.035595 -0.149198 -0.016506 -0.096068 0.069093 0.083890 -0.071810 0.108775 -0.266181 0.289609 -0.006237 0.078238 0.119559 -0.125899 -0.157916 -0.026487 0.080517 0.041548 -0.088171 0.087457 -0.028996 -0.213270 0.231649 0.256084 0.027970 -0.062542 -0.393594 0.015670 0.007005 -0.083427 0.307486 -0.171907 0.022655 -0.034776 -0.093186 0.136022 0.252832 0.164081 0.065606 0.124036 -0.057676 -0.069138 -0.022661 0.276274 0.254361 0.051924 -0.110070 0.003957 0.157078 0.081679 0.063140 0.042290 -0.238570 -0.095107 -0.007732 -0.103311 -0.013591 0.168299 0.003147 -0.104057 -0.034152 -0.090740 -0.078005 0.080383 -0.091044 -0.077385 0.191412 -0.065407 -0.100815 0.138670 0.112106 -0.006384 0.027371 
会 -0.012918 0.073764 -0.306254 -0.019410 0.045927 0.012564 0.183309 0.076414 -0.054464 0.147394 0.109156 0.017502 -0.043849 0.194551 -0.065193 -0.122478 0.220607 -0.110873 -0.100425 -0.196698 -0.062872 0.212741 -0.272770 -0.026451 -0.200340 -0.071850 0.085358 0.218424 -0.311895 0.486464 0.151409 -0.330543 -0.164884 -0.191237 0.237570 0.053390 -0.236395 0.329591 -0.188171 0.015724 0.011168 0.218938 0.087196 -0.512562 0.044159 0.308744 -0.115734 0.025715 0.260617 0.038611 -0.051547 -0.129425 -0.223752 -0.005051 0.030308 0.032079 -0.349791 0.012270 -0.354936 0.075891 -0.082646 0.145553 -0.068407 -0.040310 -0.016620 -0.075793 -0.272842 0.151654 0.158209 0.203235 -0.087354 -0.077071 0.035513 -0.008548 -0.073807 -0.040222 0.182719 -0.030343 0.136894 0.105072 
以 0.286412 -0.173203 0.128382 -0.278933 -0.164614 0.078227 -0.060680 0.085493 0.054530 -0.155562 0.036640 0.183447 -0.054992 0.049648 -0.172257 -0.148725 0.099808 -0.242375 0.282340 -0.065590 -0.148950 -0.056867 0.008748 0.035559 -0.197850 0.136920 -0.044342 0.022829 0.000722 -0.050386 -0.110731 -0.224839 -0.024529 -0.259656 0.059991 -0.030732 -0.068442 0.226107 -0.080473 -0.162970 -0.001306 0.029986 0.126069 -0.190458 0.073425 -0.191868 -0.035570 0.173623 -0.111407 -0.220884 -0.258486 0.139433 -0.173717 -0.196834 -0.047564 0.320580 0.125899 -0.140630 -0.003626 0.064522 -0.092224 0.121835 -0.331819 -0.226623 0.165015 -0.251659 -0.202037 -0.142586 -0.298708 -0.036041 -0.023556 -0.125644 0.036539 -0.254683 -0.120171 0.016196 -0.182253 0.143915 -0.005718 -0.165743 
上 0.152101 -0.044259 -0.032383 0.055728 0.033827 0.217108 -0.153780 -0.106092 -0.031546 -0.090194 0.128926 0.042066 -0.035847 -0.141291 -0.041782 -0.197982 0.065753 0.025031 -0.018748 -0.084359 0.000419 0.296791 0.033526 0.083022 0.072557 -0.067296 -0.006251 0.089113 -0.220326 -0.143782 -0.198222 0.055226 -0.150678 -0.245631 0.355063 -0.097417 -0.204953 0.174098 -0.030699 -0.113899 0.103570 0.184575 -0.042790 -0.367224 -0.021465 0.053975 0.098959 0.143013 -0.116793 -0.231282 -0.150529 0.086103 -0.046295 -0.069195 -0.030960 -0.045328 0.167705 -0.038074 -0.122188 -0.258759 0.279044 0.172399 -0.199961 -0.047801 0.082743 -0.250022 -0.161346 -0.177443 -0.093167 0.025687 -0.126553 -0.077323 0.025973 0.018682 0.047210 -0.043977 0.388637 0.151408 0.006729 -0.165009 
台 -0.218858 -0.488081 -0.349814 -0.279511 -0.167301 0.008363 -0.065896 0.110017 0.032666 -0.235360 0.101478 0.458186 -0.335630 -0.121488 -0.006784 -0.328633 0.169622 0.120099 0.162373 0.285780 -0.028310 0.237843 -0.331787 0.261746 -0.132315 -0.191607 -0.120313 -0.050288 -0.061093 -0.224082 -0.033152 -0.271402 -0.286923 0.289136 0.237084 -0.104399 -0.129564 -0.207932 -0.022269 -0.166169 0.228713 0.333380 -0.336653 -0.105058 0.254838 -0.006168 -0.109544 0.055969 0.203780 -0.134843 0.004676 0.034018 0.361193 -0.033300 0.293600 -0.098238 -0.045132 -0.077406 0.201533 -0.050458 0.117074 0.163072 -0.056281 0.299399 0.501763 -0.381959 -0.213670 0.548230 0.071877 0.069930 0.133168 0.154698 0.039822 0.058260 -0.313953 0.058622 -0.103098 0.007266 -0.055442 -0.234941 
出 -0.015029 0.175503 -0.248143 -0.024635 0.102905 0.009308 0.034426 -0.063899 0.289087 0.098001 0.174420 0.184370 -0.082617 -0.058236 0.135584 -0.433071 -0.162712 0.055213 -0.194281 -0.157320 -0.126850 -0.101833 0.329981 -0.059379 -0.038768 0.078365 -0.110179 -0.089933 -0.121525 0.056100 0.031533 -0.220431 0.158852 -0.274792 0.287501 0.039605 -0.232270 0.073632 -0.189828 -0.305671 0.096199 0.085055 -0.155944 -0.194332 0.205756 0.132802 -0.277892 0.118014 0.003335 -0.272524 -0.070106 0.240204 -0.226758 0.175816 -0.122137 0.384861 0.041152 -0.075897 0.098403 -0.048144 0.150270 -0.168364 -0.385916 0.270250 -0.032283 0.262919 -0.144098 0.087908 -0.160732 0.206058 -0.178577 0.105496 -0.015632 -0.084971 -0.010028 0.192891 -0.001153 0.259224 -0.136772 -0.287058 
行 0.039106 -0.248042 -0.066062 -0.254943 0.123641 -0.002986 0.028832 0.112301 0.016675 -0.310371 -0.254076 -0.374925 -0.291026 -0.272066 -0.383666 -0.463809 0.415128 0.328956 -0.203718 0.115842 -0.125964 0.101365 -0.053332 -0.079788 -0.194675 0.096597 0.005636 0.237549 -0.083369 0.301246 0.134661 -0.102794 0.238592 -0.401917 -0.134431 -0.053254 -0.454512 -0.135302 0.072379 0.208662 -0.188892 0.541180 0.354075 -0.384830 0.292241 0.222449 -0.046861 -0.113414 -0.142715 0.180126 0.207937 0.193585 -0.063117 -0.123498 -0.177496 0.001122 0.166932 -0.107058 0.071291 -0.172790 -0.123930 -0.095302 0.106759 -0.135278 0.275934 -0.060680 0.107715 0.151523 -0.091754 0.066999 0.009222 0.035585 -0.159213 0.051573 -0.119284 0.069484 -0.096436 0.070510 0.297235 0.105941 
业 -0.141935 0.412110 0.149687 -0.157354 0.062597 0.117358 -0.054837 -0.012252 -0.216086 -0.478925 0.187598 -0.066454 0.012001 0.142063 -0.118728 -0.458948 0.294174 0.252719 0.031868 -0.016737 0.281882 0.031650 0.118747 0.253967 -0.598883 -0.108365 -0.219962 0.204748 0.084649 0.064100 0.112940 -0.557724 0.127453 -0.561927 -0.454451 0.018724 -0.012298 -0.108123 -0.173822 -0.050279 0.077841 0.127857 0.119405 0.040991 0.207557 0.263317 0.189715 0.221691 -0.329243 0.170850 -0.089675 0.248056 0.194039 -0.060785 0.073416 -0.432660 0.042129 0.189967 -0.042402 0.050469 0.216586 -0.015890 0.323906 0.012625 0.200470 0.253647 -0.159402 -0.085752 -0.123432 0.114580 0.120448 -0.062007 0.218918 0.556263 -0.001771 -0.359286 -0.337147 -0.028902 -0.102466 -0.179943 
发 0.087098 0.270986 -0.464290 0.222866 -0.065977 0.032326 -0.043651 -0.094361 -0.242224 -0.098020 0.046663 0.613152 -0.138774 0.175115 -0.028349 -0.117111 0.112528 0.024544 0.335905 0.001146 -0.404643 0.295527 0.083011 -0.283372 -0.308515 -0.086111 0.217138 -0.003519 -0.235368 0.204954 0.166690 -0.259611 0.134203 -0.047894 -0.134702 -0.332374 -0.200100 -0.301322 0.025514 -0.086736 -0.097146 -0.148505 0.203688 -0.182876 0.208091 0.109701 -0.199542 -0.171361 -0.265979 -0.171245 -0.022331 0.130273 -0.050139 0.046449 0.056918 0.662667 0.305486 -0.020725 0.060311 -0.053737 -0.040912 -0.064120 -0.237552 0.001166 -0.114000 0.043465 -0.037897 -0.175586 -0.257512 0.059946 0.100983 -0.175693 0.080350 0.312439 -0.011949 -0.066383 0.284640 0.120342 -0.109626 -0.271623 
来 0.164519 -0.150164 -0.054912 -0.066536 0.050440 0.071740 0.087656 -0.303102 0.028369 0.057592 0.160054 0.211049 0.049316 0.035055 -0.162211 -0.359449 -0.028660 0.008166 0.262834 0.000554 0.045970 -0.255713 -0.038865 0.121290 -0.093075 -0.252587 0.157843 0.032180 -0.270273 -0.246402 -0.220222 -0.215588 -0.120643 -0.190544 -0.051143 -0.068070 -0.057529 -0.113198 -0.187514 0.127072 -0.072404 0.194178 -0.073232 -0.142518 0.199404 0.135706 -0.196188 -0.058902 0.197480 -0.371565 -0.315179 -0.063501 -0.097772 -0.166446 -0.055484 0.252643 0.068319 -0.157742 -0.163634 0.016862 0.169284 0.112287 -0.209983 0.066000 0.027298 0.173576 0.262427 0.128281 -0.197889 -0.042375 -0.114975 -0.025145 0.026214 -0.168261 -0.186298 0.048079 0.032097 0.247372 0.182164 -0.126286 
家 0.115671 0.169098 -0.022572 -0.117732 0.067442 0.081980 -0.067749 0.004461 0.087008 -0.082833 -0.205002 -0.224068 0.255955 0.078804 0.220017 -0.266096 -0.051798 -0.065567 0.191586 0.214057 0.082846 0.017992 -0.282241 0.012427 -0.200934 0.151954 0.050559 0.049253 -0.359496 0.082294 0.117013 -0.140429 0.028301 -0.247768 -0.280363 0.177994 0.035910 0.211578 0.068490 -0.105391 -0.008780 0.024411 -0.014160 0.118393 0.285414 0.230336 0.204003 -0.051489 0.121402 0.161337 -0.179500 0.044347 0.107602 -0.063703 0.006524 -0.038863 0.017181 0.129970 0.076704 0.016546 0.119374 -0.168639 -0.173067 -0.014900 0.209156 -0.118892 -0.083259 0.125609 0.121105 -0.246977 0.092115 0.025724 -0.031487 0.039873 0.082127 -0.042654 0.023203 0.269235 0.059604 0.156876 
这 0.213657 -0.254353 0.163083 0.245853 0.158863 0.132854 0.295404 -0.052950 0.074316 -0.081691 -0.303078 -0.127123 0.167567 0.080871 0.022185 -0.366088 -0.245628 -0.111925 -0.182444 -0.302928 -0.100241 0.243888 -0.199705 -0.026824 -0.320954 -0.067414 0.193554 -0.016091 -0.075170 0.010583 -0.019338 -0.316723 0.050170 0.185948 -0.176954 0.038939 -0.139023 0.106695 -0.201847 0.052752 -0.149668 -0.044798 -0.017825 -0.395061 -0.027702 0.184415 -0.260543 0.257198 0.150122 -0.047930 -0.254973 -0.041745 0.005022 -0.057982 -0.231292 0.331965 0.298570 0.105085 0.046788 -0.074141 0.447123 -0.003008 -0.062784 0.046420 -0.205817 -0.125263 0.158140 -0.209034 0.318764 -0.193101 -0.021957 0.253527 0.031189 0.215599 0.086162 0.023952 0.155038 0.438606 0.034868 -0.124627 
经 0.117352 -0.169138 -0.221357 0.099365 0.270876 -0.094139 -0.101904 -0.011346 0.002679 0.119799 -0.068864 0.566837 0.092495 0.139443 0.372381 -0.483614 0.361445 0.036685 0.306748 0.216793 0.398916 -0.102782 -0.038161 -0.383770 -0.403432 0.033337 -0.102291 0.130545 0.141322 0.076725 0.288302 0.087422 0.166842 0.123474 -0.215684 -0.133397 -0.008522 -0.119454 -0.001023 -0.010412 0.041884 0.168933 0.012817 -0.082651 0.338865 0.307282 0.085617 -0.337980 -0.002207 0.399059 -0.265408 0.021304 -0.424263 -0.337654 0.028828 0.266971 0.043800 -0.004888 -0.014238 -0.180908 0.257719 0.125635 -0.145093 0.365198 -0.131099 0.062970 -0.275752 0.024502 -0.317014 -0.181534 0.080727 0.125262 0.078779 0.215059 0.313990 0.165215 0.364028 -0.250257 -0.051765 0.244581 
新 0.027785 -0.110321 -0.158605 0.218807 0.268505 0.058910 -0.195965 0.261606 -0.007813 -0.011423 0.088335 0.205709 -0.226152 0.390764 0.285038 0.127167 -0.098410 0.514639 -0.217680 0.061753 0.203926 0.018012 -0.507243 0.264296 -0.213136 -0.529812 0.023079 0.298577 -0.109601 0.006630 0.140854 -0.182850 0.096963 -0.306343 0.319769 -0.081995 0.011264 0.303272 -0.200665 0.096414 -0.130563 -0.439740 -0.039470 0.068422 -0.073856 0.249113 -0.195505 -0.175214 0.136442 -0.166106 0.036783 0.104338 -0.084892 -0.170858 -0.097294 0.116744 -0.000577 0.193914 -0.032824 0.014058 0.145507 -0.094122 -0.049152 -0.042879 0.028296 -0.181046 -0.017341 0.143122 -0.273334 0.132391 -0.312606 0.021242 0.125603 0.292992 -0.388967 0.100109 0.216751 -0.191823 0.168821 0.150372 
个 0.262741 0.009998 0.162214 0.200840 0.261339 0.249800 0.230238 0.200296 0.001147 0.084226 -0.182142 -0.204180 0.043690 -0.258507 0.005874 -0.181283 -0.141240 -0.036770 0.183751 -0.016377 0.002342 -0.038967 -0.082481 0.184855 -0.178870 -0.085902 0.198591 -0.265948 -0.359602 0.335521 -0.314457 -0.317814 0.058984 0.045500 -0.086901 -0.004871 0.085940 -0.011922 0.047842 -0.129103 0.060912 0.155257 -0.094921 -0.021627 -0.086650 0.229155 0.128230 0.153165 -0.083528 -0.180356 -0.246513 -0.064090 0.220532 0.005373 -0.127033 0.051807 0.047729 -0.149928 0.000620 0.028800 0.179378 0.216557 -0.198269 0.123583 0.180897 -0.002302 -0.025861 -0.228976 0.131949 -0.441678 -0.289009 -0.027224 -0.317479 0.106610 0.063242 0.158222 0.120302 0.066399 0.022627 0.176094 
对 0.133964 -0.163325 -0.231617 -0.086021 0.068677 0.036104 0.087873 -0.116257 -0.067890 0.151125 -0.188017 0.013217 0.100377 0.101316 -0.157186 -0.165138 0.137049 -0.005177 -0.025819 0.392479 -0.289316 0.027797 -0.028194 -0.002680 -0.108156 -0.209512 0.183286 0.094501 -0.087652 0.268027 0.347759 -0.058193 -0.045033 0.034018 0.055844 -0.056630 -0.184974 -0.105205 0.101681 -0.016308 -0.070612 -0.037914 -0.015993 0.032859 0.275469 0.135105 0.088898 0.253344 0.117222 0.054801 -0.024761 0.103528 -0.061890 -0.140111 -0.126162 0.013201 0.105596 -0.117351 -0.011501 0.036259 0.054900 -0.001894 -0.335119 0.124615 -0.150828 0.036369 -0.215975 0.016727 -0.058292 -0.215103 -0.081610 0.101813 0.109989 0.013826 -0.045608 -0.029974 -0.055924 0.297043 -0.130243 -0.077825 
到 0.108088 -0.131871 -0.070805 0.017716 0.248209 0.015552 0.079881 -0.176566 0.264947 -0.001131 -0.016541 0.274850 0.277631 -0.340192 0.162980 -0.090670 -0.137801 -0.158648 0.186220 -0.047182 0.097897 0.148105 -0.155899 0.294711 0.082346 -0.213396 0.084215 -0.009729 -0.392079 -0.131293 -0.267744 -0.018350 0.088459 -0.249576 0.103048 -0.002060 -0.370320 0.017926 0.016088 0.114073 0.002445 0.203440 0.088311 -0.262449 0.046177 -0.073989 -0.178814 0.114101 -0.175498 -0.192139 -0.185377 0.010415 -0.015266 -0.093111 0.291674 -0.048976 0.024562 -0.148776 -0.184134 0.033561 0.252479 0.163791 -0.140620 -0.259041 0.108039 -0.053463 -0.164979 -0.128290 -0.192814 -0.163263 -0.185089 0.053011 -0.144033 -0.122650 0.321483 0.074812 0.029990 0.192522 -0.073671 -0.190586 
地 0.343333 -0.030929 -0.116670 0.180181 0.126057 0.123008 0.120047 -0.149785 -0.271399 -0.549162 -0.307311 0.036144 0.295604 0.129332 -0.080834 -0.041016 0.322674 0.069347 0.251470 0.026987 -0.165574 -0.047568 -0.097100 0.159539 -0.047972 -0.380893 0.019268 0.136223 0.012356 -0.182725 -0.133462 0.098143 -0.200654 -0.102821 -0.133924 -0.028410 0.315742 0.023844 -0.347717 0.014133 0.146273 0.086438 0.137350 -0.043956 0.113094 0.124751 0.096678 -0.106560 -0.061578 -0.040241 0.119409 -0.017677 0.058106 -0.021000 -0.189573 -0.149823 0.173027 -0.042031 0.151234 -0.059125 0.267923 -0.209939 -0.125230 0.065997 -0.010999 -0.109801 -0.005007 -0.088446 -0.123980 -0.148184 -0.010369 0.284965 -0.130070 0.350087 0.126605 0.108248 0.100831 0.443464 0.223729 0.049984 
成 -0.114327 0.157463 0.066738 0.015484 0.090559 0.138738 0.101281 0.099847 0.089037 0.028006 0.023616 0.170657 0.040792 -0.213734 0.253566 -0.171985 0.235313 -0.093445 0.243698 -0.027761 -0.011775 0.319953 -0.264150 0.228966 -0.292686 0.007110 0.090621 -0.245532 0.064503 -0.056745 0.192449 -0.259869 0.125082 -0.141768 0.364840 0.121811 0.022275 -0.030640 -0.318602 0.091232 0.221989 -0.013508 -0.102031 -0.047358 0.171792 0.116419 -0.096186 -0.223284 -0.176248 -0.035180 -0.107299 0.378666 -0.387501 0.019065 -0.236309 -0.020453 0.051956 -0.035699 -0.285641 0.149503 0.059908 0.427707 0.068060 -0.022151 -0.182437 -0.408002 -0.162407 -0.132299 0.025108 0.004672 -0.067889 -0.217594 -0.118686 0.280743 0.107443 -0.078774 -0.338270 -0.132373 -0.044441 0.219676 
「 0.310453 -0.197316 -0.235669 -0.124503 -0.045304 -0.050074 0.088743 0.030922 0.223610 0.043315 -0.095157 0.013990 -0.129320 0.216818 -0.156535 -0.389599 -0.307413 -0.043062 0.322206 0.114608 0.059865 -0.123905 -0.289948 0.289258 -0.054060 0.090638 0.021139 -0.129712 -0.082380 -0.108390 0.285407 -0.074096 -0.105164 0.003045 0.104170 0.098164 0.028967 0.314548 -0.188892 0.008975 0.109365 -0.074076 -0.061231 0.108554 0.256342 0.121807 0.153792 0.221375 0.041629 -0.032777 -0.128322 0.010456 0.064107 0.026345 -0.178437 -0.017599 0.080910 -0.160774 0.002669 -0.022280 0.184850 0.149544 -0.013901 0.117184 0.066649 0.092130 -0.031323 0.281642 0.124644 -0.092818 0.137920 -0.041968 -0.167197 0.065153 -0.038060 0.132081 0.043679 -0.120910 -0.075937 -0.183090 
」 0.131114 -0.035485 -0.142385 -0.077937 -0.035642 -0.163069 0.001468 0.090750 0.247536 0.226781 -0.008542 0.102550 -0.202591 0.117336 -0.140710 -0.258795 -0.146940 0.042589 0.295895 0.214115 0.191318 0.077564 -0.277611 0.313706 0.015675 0.042546 0.070600 -0.109294 0.086725 -0.196493 0.359878 -0.014973 -0.181061 -0.115235 0.048486 0.214133 0.049777 0.464995 -0.300273 -0.012262 0.130271 -0.063467 -0.053969 0.017457 0.293886 0.127236 0.002565 0.117937 0.111085 -0.017310 -0.114276 -0.034798 0.051394 0.029054 -0.073383 -0.115984 0.148860 -0.159088 -0.066797 -0.143917 0.119930 0.174416 0.028581 0.150871 -0.077593 0.160614 -0.006506 0.327821 0.029893 0.068348 0.096095 -0.160216 -0.212596 -0.009971 -0.040549 0.139140 0.010272 -0.089598 -0.057246 -0.149442 
外 0.178723 -0.020305 -0.099148 -0.018443 0.002881 -0.352485 -0.028945 -0.082155 -0.120262 0.007975 0.105587 -0.015716 0.206673 0.177962 0.096656 -0.424062 0.053316 -0.082669 -0.027976 0.510123 -0.205026 -0.229814 -0.037633 -0.117778 -0.182216 -0.173620 -0.089520 0.223174 -0.162862 0.246566 0.032076 0.008995 0.271836 -0.105893 -0.138427 -0.186181 0.136588 -0.361642 0.077232 -0.077053 -0.060775 0.109915 0.185868 -0.237054 0.256659 0.550492 0.268122 0.561779 0.186064 0.128785 0.152079 0.084045 -0.117971 -0.172964 -0.115821 -0.215787 0.136343 -0.143194 0.083447 0.265727 0.271822 -0.033135 -0.293074 -0.020477 0.129463 -0.146424 -0.066910 0.085589 -0.190013 0.204052 -0.103352 0.230639 0.287363 -0.002109 -0.008471 0.070334 -0.320639 0.256570 -0.211814 -0.232878 
政 -0.352197 -0.341541 0.031501 -0.146233 0.047080 0.243999 0.068784 0.318136 0.030413 0.004906 0.164289 -0.399870 -0.051479 0.256988 -0.097459 -0.538422 0.205566 0.176256 0.539872 0.056595 0.031933 -0.044460 -0.419512 0.211496 -0.056030 -0.096386 -0.179124 0.347627 0.023156 0.208058 0.335528 0.079681 -0.024467 -0.095560 0.438049 0.132201 -0.098556 -0.256621 -0.266793 0.545899 0.169480 0.088843 0.050579 -0.023985 0.205519 -0.191450 -0.080923 -0.279616 -0.183093 0.179071 0.307913 -0.172477 -0.280954 -0.115878 -0.432295 0.138133 0.142767 -0.128407 -0.097968 0.175609 0.050815 0.087358 -0.700520 0.212945 -0.306352 -0.000363 0.055870 0.677746 -0.349636 -0.277245 -0.191690 0.395277 -0.347264 -0.056355 -0.254242 0.014039 -0.387848 -0.081772 -0.008105 -0.085202 
民 0.032450 -0.434712 -0.132569 -0.040303 -0.111752 0.392112 -0.087203 0.207071 0.315442 -0.287064 -0.122858 0.101491 -0.125892 0.452758 0.266914 -0.115765 0.065151 0.304837 -0.237234 0.031622 -0.043086 0.130862 -0.222773 0.074287 -0.227524 -0.067911 0.279709 0.515435 -0.320666 0.459216 -0.077023 0.022034 -0.122239 -0.079469 0.233068 0.482438 0.173683 -0.039298 -0.095147 0.203127 0.216571 0.088191 0.146730 0.180221 0.386638 -0.063725 0.009243 0.079552 -0.117715 -0.199542 0.079328 0.173517 -0.154579 0.051561 0.120941 0.141677 -0.063263 -0.179825 -0.005929 0.306737 0.166939 -0.072000 -0.227061 0.180984 0.186573 0.168629 -0.101406 0.075265 0.204625 -0.335278 0.120993 -0.195230 0.164074 -0.218809 -0.404707 -0.140764 -0.317711 0.455354 0.107756 0.042356 
时 0.353882 -0.328029 0.097579 0.406031 -0.358978 0.207261 0.035036 0.176029 0.028622 -0.089155 -0.073307 0.056271 0.076572 0.063017 0.023180 -0.420378 -0.326176 0.415277 0.220555 -0.070590 0.153111 -0.374367 -0.123676 -0.127471 -0.111327 0.009089 -0.086487 0.083081 -0.051584 -0.028287 -0.249981 -0.126089 0.149067 -0.019350 0.009666 0.099656 -0.151940 -0.048984 -0.148573 0.171168 -0.048887 0.181139 -0.063564 -0.263311 -0.035262 -0.085442 -0.116816 0.133492 -0.088006 -0.142360 -0.038588 -0.108928 -0.004110 -0.169436 -0.045998 0.163767 0.022627 0.152052 -0.148867 0.183809 0.079055 0.081684 -0.134509 0.133238 -0.050151 -0.312959 -0.187449 -0.330115 0.110783 0.040423 -0.126949 0.033814 0.032632 0.038892 0.124412 0.204209 -0.131030 0.384698 -0.226649 -0.070913 
资 -0.135100 -0.038816 0.239187 -0.565088 -0.061551 -0.185164 0.430352 0.173876 -0.323994 -0.129862 0.046795 0.540178 0.074537 0.128781 -0.088511 -0.710675 0.101623 -0.109245 0.077613 0.182482 -0.024721 -0.181582 -0.080699 0.168870 -0.712874 -0.307606 -0.000599 -0.132319 -0.200439 -0.046626 0.024802 -0.271865 0.311319 -0.452301 0.146925 -0.120428 0.129374 -0.406317 -0.320999 -0.002265 -0.173470 0.044006 0.390270 0.146655 -0.343664 0.443314 0.578540 0.466761 -0.409274 -0.050768 0.164297 -0.300438 0.089622 -0.050322 -0.313265 -0.849706 -0.288758 0.006450 0.049883 0.266824 0.066638 -0.041101 0.210353 -0.116313 0.340618 0.064496 -0.044548 0.029780 -0.295230 0.324173 -0.016514 -0.050850 0.252611 0.093464 0.152188 -0.029194 -0.588240 0.164240 0.176709 -0.004649 
他 0.267022 -0.127819 -0.093270 -0.063101 -0.155506 0.231980 0.002707 -0.035185 0.072164 -0.107343 -0.364822 -0.156925 0.318271 -0.080071 -0.246125 -0.218432 -0.398315 -0.014285 0.100494 -0.105163 0.010714 0.039598 -0.298907 0.034737 -0.132099 0.124865 0.116425 0.152676 0.052380 0.032885 0.003525 -0.315541 -0.000027 -0.018409 -0.056303 -0.056171 -0.189064 0.100109 0.149252 -0.091157 0.083867 -0.077891 -0.043354 -0.401935 0.496407 -0.081655 -0.113502 0.312666 0.201374 -0.161219 -0.326660 -0.187169 -0.013357 -0.030948 0.107499 0.275382 -0.045013 0.078496 -0.216420 0.175935 0.052009 0.043018 -0.000836 0.027005 -0.325758 0.095424 -0.193262 -0.181987 -0.139815 0.049508 -0.048280 0.162942 -0.075983 -0.081666 -0.202063 0.194281 -0.177932 0.349323 0.153939 -0.228034 
三 -0.020237 0.107644 -0.074392 -0.035180 0.076511 0.103116 0.007655 0.006950 0.309204 0.016164 0.029206 0.071750 0.003411 -0.306679 -0.075838 -0.143874 0.216892 -0.039406 -0.272753 -0.186330 0.151041 0.078573 0.214032 0.069867 0.062267 0.071992 0.086349 -0.062226 -0.554514 -0.246411 0.070990 0.045348 -0.127592 0.045902 0.072667 -0.332300 0.078992 -0.052811 0.137086 -0.122797 0.168149 -0.023887 0.156731 0.232643 -0.215012 0.167642 0.075715 0.163616 0.018766 -0.076053 -0.065113 -0.004070 0.079917 -0.338328 -0.221691 0.078897 -0.008534 0.163941 0.274903 -0.058518 0.744768 0.112046 0.314529 -0.052379 0.075141 -0.428215 -0.160492 -0.159388 0.094707 -0.256664 -0.149961 0.058202 -0.132228 0.339152 -0.034829 0.014992 -0.211493 -0.102316 0.020706 -0.094188 
之 0.303590 -0.121467 -0.291012 0.045257 -0.247930 -0.249700 -0.307865 0.158494 -0.229190 -0.293706 -0.090496 -0.047731 -0.112915 -0.320028 0.010894 0.205640 -0.096258 0.040921 0.153297 0.152222 0.153086 -0.164422 0.243531 0.327963 0.032448 0.377587 0.199142 0.107246 -0.251408 0.135939 -0.028966 0.093018 -0.091811 -0.140622 -0.078736 0.075379 -0.109961 -0.015510 0.157889 -0.041871 0.002024 -0.007397 -0.003353 -0.305364 0.149564 0.347444 -0.188789 -0.102466 -0.150446 0.108668 -0.142594 -0.091719 0.023968 -0.178074 -0.155323 0.150177 0.120206 -0.096702 0.404957 0.017037 0.201186 0.539353 0.024418 -0.286083 0.022372 -0.210558 -0.533641 0.175009 -0.230585 -0.101400 -0.154495 -0.376903 0.013602 -0.029240 0.269462 0.192831 -0.284957 -0.205806 0.047831 -0.033670 
多 -0.127459 -0.197427 0.392379 0.281442 0.107910 -0.076606 0.062178 -0.093764 0.010757 0.215407 0.027554 0.291078 0.133821 -0.146901 0.063382 -0.342118 0.086683 -0.119378 0.016910 0.184356 0.160582 0.175188 -0.166262 0.174180 -0.118711 -0.020173 0.128635 -0.060505 -0.367978 -0.223441 -0.005744 0.097365 0.045343 0.004011 -0.040006 0.035612 0.010484 -0.050967 -0.150724 -0.083965 -0.233231 -0.207422 0.237926 0.061401 0.013099 0.205128 0.086906 -0.166664 -0.188825 -0.112831 -0.186645 0.002292 -0.072955 0.039872 0.035564 0.187561 -0.245463 0.275477 0.112470 0.416936 0.021029 0.167445 -0.223521 0.101305 0.307988 -0.156640 -0.030094 -0.167329 0.275491 -0.375571 -0.170270 0.107368 -0.112458 -0.032943 0.183884 -0.005034 0.139929 0.317649 0.039775 -0.279474 
要 -0.128154 0.060948 -0.076479 0.083378 -0.052294 0.237501 0.169610 0.041953 0.084947 -0.244306 -0.175995 -0.089212 -0.004031 0.002247 -0.028308 -0.247757 -0.432335 0.084558 0.324378 0.110548 -0.175718 -0.198868 -0.035828 -0.076273 -0.348712 -0.189319 0.219174 -0.060463 -0.384779 -0.065786 0.120851 -0.009604 -0.197970 -0.133418 -0.095451 -0.004170 -0.188214 0.270729 0.212610 -0.069494 0.157965 -0.214381 0.092896 -0.499486 0.070447 0.201246 -0.058736 0.117193 -0.057973 -0.096981 -0.075917 -0.052946 -0.219077 0.151307 -0.180839 0.166191 -0.000738 -0.126087 -0.332336 0.026517 0.015330 0.173746 -0.061627 -0.051047 0.137861 0.246354 -0.301813 -0.200802 -0.012866 -0.190790 0.026590 0.163614 -0.301274 -0.066102 -0.396346 0.170389 0.031509 0.179823 0.183795 0.011870 
美 0.255121 0.037912 -0.023888 -0.317645 -0.079867 -0.375760 -0.037175 0.220233 -0.236845 0.187203 -0.203030 -0.014250 0.348734 -0.421334 0.131937 0.190786 0.271195 -0.106490 -0.040423 0.537318 0.137175 -0.205600 -0.015786 -0.139898 0.100452 0.162752 0.096278 0.056014 -0.234364 -0.136317 0.071380 0.133898 -0.142772 0.091411 0.379716 -0.048089 0.014966 -0.091983 -0.263038 -0.070224 -0.339568 0.058035 0.161259 0.134007 -0.028393 0.069369 0.240208 0.049902 -0.051689 -0.097006 -0.408574 0.078903 -0.116951 -0.221690 0.037906 0.197581 -0.126379 -0.044596 0.180823 0.283051 0.234501 -0.127141 0.216392 0.296930 0.285794 -0.193247 -0.161716 -0.217986 -0.089768 -0.062632 0.151022 0.205473 0.021525 -0.176056 -0.522681 -0.228166 -0.269578 0.318366 0.262339 -0.270363 
二 -0.102377 0.136394 -0.119936 -0.033486 0.119699 0.077851 0.046320 -0.064377 0.559940 0.156160 0.145123 0.184075 -0.020946 -0.362483 -0.094771 0.043612 0.360627 -0.182454 -0.415343 -0.204743 0.058026 0.102394 0.199013 0.194730 0.016184 0.122671 0.105812 0.013811 -0.648072 -0.183738 -0.102533 0.016819 0.115482 0.115508 -0.017250 -0.339363 0.110449 0.053908 0.115803 -0.223188 0.022761 0.107027 0.135164 0.304240 -0.294246 0.108064 -0.018044 -0.023916 0.007118 0.077596 -0.002983 0.084332 0.142272 -0.264594 -0.157061 0.249482 -0.263878 0.338581 0.124970 0.319621 0.787263 0.358946 0.354976 0.063816 0.026195 -0.386722 -0.151869 -0.153884 0.092849 -0.100083 -0.487399 0.026593 -0.126801 0.378859 0.053783 0.199362 -0.336720 -0.402171 0.275051 -0.191446 
生 0.212416 -0.042693 -0.223242 0.006423 -0.220526 0.150550 -0.300288 -0.033736 0.148734 -0.237131 -0.405659 0.285153 -0.038052 -0.035814 0.080599 -0.109160 -0.107361 -0.213762 0.204556 0.184485 0.100160 0.117491 0.075475 -0.282716 -0.433139 -0.078583 -0.096312 0.194187 -0.166086 0.001265 0.270410 -0.434832 0.011749 -0.271333 0.005785 0.062879 0.097413 0.114894 -0.236826 -0.209345 0.010312 0.051556 -0.018472 0.008176 -0.082299 -0.192843 0.036584 -0.211469 -0.084345 -0.121031 0.098813 0.350641 0.796003 0.176515 -0.143826 0.064440 0.156921 0.042933 -0.325811 -0.051723 0.303134 0.169891 -0.015956 -0.013524 -0.321195 0.083004 -0.124926 0.007394 -0.144940 0.076276 -0.176901 0.045887 0.101985 0.054210 0.204837 -0.508345 0.198631 0.316550 -0.310025 -0.082649 
日 0.276604 0.071322 -0.226553 -0.164319 0.224215 0.064208 0.030395 0.007859 0.066229 0.234620 0.027006 0.200755 -0.126115 -0.342617 0.184928 -0.054033 0.046275 -0.045541 0.436741 0.108005 -0.236374 -0.457700 0.197506 0.137795 0.050260 -0.137681 -0.047601 0.119979 -0.446264 0.187159 -0.646180 0.112884 0.719788 0.389039 0.440815 -0.124622 0.038370 -0.320296 -0.058473 0.094362 -0.259262 0.103954 0.174985 -0.292362 0.398208 -0.516110 0.198601 -0.143116 0.178361 0.187579 0.121025 -0.173421 0.510620 -0.394278 -0.055832 -0.271973 -0.121647 0.265777 -0.105207 -0.042700 0.022227 0.208044 0.342468 0.183699 0.131677 -0.440413 -0.048881 0.185211 0.375314 -0.093605 -0.299920 -0.081547 0.168523 0.400551 -0.329693 -0.133249 -0.194318 -0.265919 0.619114 0.202765 
进 -0.239219 -0.172041 -0.052552 0.041101 0.139978 0.223470 0.210395 0.139694 0.178670 -0.171544 -0.001605 0.146207 -0.319931 -0.175924 0.152264 -0.221581 0.260531 0.244966 -0.181459 0.111974 -0.214895 -0.075501 0.004258 -0.095435 -0.011808 -0.221776 0.016429 0.177358 -0.143683 0.285483 0.034961 -0.163890 -0.062968 -0.263127 -0.160731 0.095676 -0.404077 -0.381870 -0.231960 -0.005839 -0.293060 -0.027557 0.221507 -0.223674 0.140217 0.135352 -0.177273 -0.127107 -0.120640 -0.160494 -0.019293 0.105829 -0.121606 0.108159 -0.074987 0.137784 0.096417 -0.424405 0.442444 -0.434953 0.125474 0.172136 -0.331375 0.105386 0.205995 -0.011397 -0.426489 0.262142 0.311675 0.252774 0.305399 0.173471 -0.037344 0.141884 -0.158341 0.192228 -0.081845 0.188912 -0.062409 -0.001562 
说 0.210686 -0.211747 -0.060659 0.054715 0.249011 -0.099676 0.212925 0.200248 0.065908 -0.113898 -0.133223 -0.044670 0.041267 -0.142799 -0.241943 -0.189881 -0.378795 -0.297138 0.067557 0.087152 -0.250643 0.178168 -0.025861 0.148828 0.078371 0.002325 -0.141842 -0.141811 -0.070074 -0.158978 0.356853 -0.114401 0.258170 -0.163612 0.006600 -0.091623 -0.287749 0.328525 -0.114801 0.162197 0.347632 -0.025696 -0.291101 -0.144623 0.436079 0.215798 0.088002 0.244610 0.308929 -0.017140 -0.153350 -0.079574 -0.114181 -0.192729 0.019545 0.084803 -0.194819 0.127465 -0.002003 -0.191682 -0.221167 0.246244 -0.237539 0.251181 -0.220056 0.183891 0.172844 -0.178982 0.022563 -0.261136 0.049989 0.109994 0.134696 -0.082703 -0.075908 0.197146 0.180249 0.088727 0.015692 -0.384972 
作 0.127289 0.281413 -0.359726 0.054201 -0.011022 -0.123118 -0.028140 0.008075 -0.308995 0.231084 0.035475 -0.012496 0.363545 -0.037878 0.224583 -0.112932 0.472038 0.031800 -0.013362 -0.254236 0.294336 -0.294233 -0.244755 -0.088527 -0.408506 -0.239971 0.152144 0.122910 -0.169047 0.135914 0.058275 -0.309918 -0.090812 -0.384418 0.031565 0.279307 -0.082882 -0.072725 -0.035773 -0.154209 -0.010597 -0.420987 0.161824 -0.260614 0.093530 -0.026359 -0.259894 -0.129982 -0.007230 0.209539 -0.202786 0.138833 -0.190062 0.080174 -0.267079 -0.153717 0.010715 0.231951 -0.217425 -0.458920 -0.138786 0.230335 0.098651 0.228695 0.046108 0.201074 -0.079075 0.188876 0.025723 -0.018422 0.049483 -0.113070 0.200111 0.261667 -0.102651 0.401816 -0.051016 0.162858 -0.297127 -0.046012 
分 -0.030675 0.140818 0.136726 -0.064144 -0.321913 -0.025907 -0.326108 0.414771 0.204410 -0.070606 0.056839 -0.127334 0.145443 -0.596685 0.260038 0.251346 0.007447 -0.168714 -0.081366 0.158021 0.099700 0.023841 -0.018620 0.195669 -0.137285 0.015141 0.125683 -0.066345 -0.294689 0.310156 0.265853 0.225532 0.432471 0.003357 -0.276897 0.134936 -0.012295 0.085554 -0.124184 -0.265954 0.126955 0.017900 -0.087719 -0.390736 0.320410 0.061552 0.039300 -0.038799 -0.446722 -0.014583 0.367525 -0.077608 0.264739 -0.200410 0.019486 0.089271 0.037714 -0.184758 0.299993 -0.024983 0.260025 0.330210 0.091592 -0.606602 0.021217 -0.631088 -0.339369 0.240574 -0.649930 -0.133901 -0.161282 0.036749 -0.306244 0.012708 -0.069540 0.353570 -0.120987 0.032872 0.303087 0.123838 
长 -0.235731 -0.071326 -0.118546 0.141516 0.186175 -0.097597 -0.099105 -0.010153 -0.011913 -0.023192 -0.214636 0.033422 -0.099121 -0.250042 -0.078646 -0.060917 -0.003081 0.328579 -0.026989 0.182766 -0.128629 0.009683 -0.208909 -0.305162 -0.042539 0.170926 -0.249950 0.335299 -0.158531 0.160766 0.402115 0.152781 0.539678 -0.158819 -0.076087 0.143220 -0.228875 0.224129 -0.318031 -0.041779 0.190653 0.225490 0.099701 -0.111950 0.118002 0.147165 -0.063962 0.035845 -0.234390 -0.212045 0.277707 -0.089107 -0.194530 -0.639261 0.115157 0.060667 -0.047664 0.204110 -0.154033 -0.046987 0.244176 0.451330 0.050856 -0.091031 0.137777 -0.267167 -0.364429 0.418578 -0.400516 0.147421 -0.119047 -0.456447 -0.225288 -0.309693 0.312253 0.039732 0.346845 0.306696 0.036177 0.037577 
也 0.070413 -0.100984 -0.162574 0.029883 -0.100722 0.206811 0.068557 -0.139510 0.099415 0.003195 -0.121705 -0.029417 0.185485 0.105851 -0.066738 -0.315345 -0.119952 0.071775 0.285977 0.069943 -0.085177 0.135958 -0.191608 0.068180 -0.049849 -0.156360 -0.013103 -0.027307 0.013259 -0.064199 0.060885 -0.099277 0.108707 0.002158 0.067658 0.025226 -0.246031 0.068962 -0.045393 -0.046426 -0.096020 -0.005910 0.013956 -0.278050 0.130420 -0.000176 -0.147772 0.065862 0.025002 -0.094553 -0.108880 -0.022985 -0.052883 -0.006530 -0.040581 0.063246 0.065589 -0.092076 -0.098872 0.031458 0.075505 0.146415 -0.177120 0.016193 -0.032600 -0.030768 -0.177023 -0.105778 -0.030462 -0.106568 0.050391 0.065600 -0.081604 -0.178950 0.083356 0.163187 -0.046649 0.309261 -0.064058 -0.103091 
工 -0.270626 0.100159 -0.210884 -0.091197 -0.009022 0.379137 -0.043509 -0.136634 -0.034016 -0.422551 0.211393 0.003522 0.291457 0.116642 -0.082895 -0.195992 0.186770 0.080607 0.017686 -0.031592 0.165260 -0.217811 0.097881 -0.020392 0.015750 0.035033 -0.279694 -0.055615 -0.362120 0.182132 0.011564 -0.181593 -0.331469 -0.491220 -0.254484 0.036915 -0.046882 -0.181313 -0.102967 0.056718 0.143063 -0.427499 0.372454 -0.188072 0.194189 0.246649 0.039415 -0.187023 0.019864 0.073388 -0.214807 0.193063 0.213258 -0.099259 -0.277172 -0.203302 0.139873 0.287768 -0.202831 -0.343023 0.085303 0.613622 0.142461 0.242610 0.429163 -0.082319 -0.158542 -0.124962 -0.052313 0.094318 0.295343 0.112779 -0.052426 0.162739 0.134679 -0.032161 0.035736 -0.109221 -0.540803 -0.216922 
前 0.186594 -0.351502 -0.261814 0.085961 -0.317967 0.019392 -0.254771 -0.421899 -0.105728 0.116597 -0.019071 0.028991 0.162934 -0.266606 0.077906 -0.523705 0.179418 0.017494 -0.121898 0.085100 -0.122639 0.117500 0.039200 0.270036 -0.504515 0.034563 0.031516 -0.004022 -0.106841 -0.029019 -0.270285 -0.122916 0.217673 0.009682 -0.031712 0.032980 -0.312553 -0.120541 0.076605 0.069515 0.111500 0.333539 -0.186574 0.006900 -0.088133 -0.095016 -0.155190 0.192485 0.300934 -0.059576 0.048733 0.164212 -0.024380 -0.256601 -0.292417 0.099255 0.152957 0.069258 -0.066708 -0.282671 0.226029 0.091784 -0.254982 0.143351 0.105039 -0.258409 0.161847 -0.143182 -0.223620 -0.122193 0.128088 -0.041246 -0.348647 -0.193472 0.050245 0.003146 0.091301 -0.130768 0.016222 -0.086531 
百 -0.124988 0.186642 0.273196 -0.065007 -0.316631 -0.339656 0.097770 0.213859 0.182905 -0.139298 0.231245 0.271332 -0.098747 -0.398693 0.365629 -0.153507 0.676436 0.004387 -0.044985 -0.251312 0.583368 0.049781 0.368632 0.121463 -0.062292 0.668235 0.109562 -0.041485 -0.569011 -0.019268 -0.012508 0.307151 -0.344189 0.030000 -0.280459 -0.009594 -0.199251 0.416642 -0.067875 -0.345702 0.153605 -0.038958 0.248963 0.477521 0.189458 0.718808 -0.230102 0.225045 -0.170826 0.330883 -0.261438 -0.159348 0.344744 -0.183678 -0.136380 -0.321782 -0.207972 0.100970 0.488278 0.207993 0.386219 -0.082172 0.298776 -0.261234 -0.043551 -0.596931 -0.586929 0.036390 -0.308921 -0.568612 -0.423517 0.341158 -0.167126 -0.183489 0.280192 0.240361 -0.322003 -0.057315 0.227954 -0.341218 
开 0.216473 0.511980 -0.059635 -0.269342 -0.315840 0.181125 -0.008554 -0.156038 -0.240044 0.190296 -0.199590 0.110172 -0.129417 0.265176 0.131402 -0.123243 -0.075870 0.118502 0.332770 0.257835 -0.353804 -0.158732 -0.010335 0.216195 -0.074997 -0.037355 0.192797 0.248590 -0.410517 -0.111975 -0.345677 -0.101576 0.177904 -0.303490 0.086891 -0.208143 -0.096026 -0.070250 0.051189 0.258430 -0.154561 -0.020277 0.031051 -0.042653 0.346037 0.180622 0.121935 -0.109424 -0.075334 -0.267388 -0.173056 0.116865 -0.124375 0.182080 -0.221984 -0.188544 0.165391 -0.061885 -0.193310 -0.442677 0.230588 -0.383422 -0.213955 -0.041218 0.019010 -0.162473 -0.373709 -0.177786 -0.199661 0.189965 0.055570 -0.069254 0.314604 0.365235 0.259038 0.127594 0.234335 -0.149710 0.106853 0.117925 
公 0.073578 0.031879 -0.080572 -0.038273 -0.167714 -0.127174 0.326006 -0.339756 -0.206104 0.128348 0.597469 -0.060589 0.185546 0.010694 0.088796 -0.187094 -0.340076 -0.126859 0.027882 -0.260097 -0.459643 -0.017444 -0.211968 -0.476643 -0.119410 0.139412 -0.128634 0.368080 -0.308029 0.167778 0.161743 -0.043553 0.049005 0.083876 0.010784 -0.114779 -0.037482 0.139706 -0.532271 -0.149500 -0.275777 0.032701 -0.307210 0.177693 0.170360 0.156834 0.158952 -0.288252 -0.199464 0.123478 -0.063205 0.209516 0.066117 0.162738 -0.061101 -0.082670 0.361231 0.038561 0.368927 -0.080600 -0.020503 0.051314 0.326730 0.124225 0.609418 -0.277097 -0.361317 -0.516535 -0.200128 0.034171 -0.126879 -0.218093 -0.050719 0.110524 0.207092 0.117714 -0.350758 -0.084994 0.320741 0.213657 
九 -0.174387 0.013334 -0.179934 -0.323932 -0.097865 0.099825 0.325313 -0.083094 0.572881 -0.177576 0.053210 0.114922 -0.464224 -0.339085 0.018268 0.370166 0.278122 0.021040 -0.263162 0.008459 0.156296 0.022379 0.460740 0.245949 0.376072 0.113369 0.207043 0.364406 -0.576576 -0.142719 -0.019420 0.015993 0.256171 0.082274 -0.050149 -0.293048 -0.313274 0.053845 0.268344 0.066817 0.263055 0.660232 0.523835 0.475549 0.054624 -0.162913 -0.068160 0.379107 0.010853 0.462936 -0.274872 0.106500 0.021066 -0.146119 0.009733 0.123994 -0.224299 0.466692 0.080092 0.344523 0.667187 -0.054431 0.237929 0.232584 -0.048085 -0.035985 -0.035548 0.045201 -0.183019 -0.048204 -0.366536 -0.032796 -0.134328 0.694777 0.162910 0.617417 -0.000385 -0.617150 0.539769 -0.406065 
法 0.174854 -0.166881 -0.248455 -0.446984 0.203081 0.170753 0.214180 0.099669 0.207421 0.231766 -0.266005 -0.293798 -0.044585 0.293019 -0.124252 -0.323207 0.008497 -0.177012 -0.114827 0.089567 0.137512 -0.027851 -0.462560 -0.070357 -0.049689 -0.006811 -0.201298 0.028500 -0.110739 -0.017635 0.243476 0.014386 -0.176744 -0.005201 0.250991 0.168225 0.017299 -0.110705 -0.148841 -0.096967 0.164903 0.077676 -0.051590 -0.460332 0.127700 -0.155627 0.014998 -0.220887 -0.407589 -0.006687 -0.055168 -0.137170 -0.127984 -0.151503 -0.420890 -0.170997 0.202757 0.215753 -0.002573 -0.063006 0.132018 -0.229695 0.161474 -0.186743 0.347524 0.094921 0.179222 -0.029818 -0.421282 -0.144226 -0.062190 -0.150960 -0.124355 -0.089445 -0.074116 0.164244 -0.320507 0.150263 0.065861 0.115384 
方 0.284660 -0.072043 -0.053910 0.324714 0.205484 0.167058 0.237209 -0.332409 -0.366594 -0.003388 -0.054427 0.046612 -0.036675 -0.083373 0.420869 -0.203205 0.032278 0.295651 0.375359 0.297833 -0.291916 0.247966 -0.073384 0.027918 -0.142891 -0.213888 -0.098852 0.002106 0.233318 0.269735 0.061962 -0.127712 -0.262135 0.202923 0.262614 -0.239105 -0.154479 0.154826 0.254786 -0.149182 -0.154412 0.114406 0.227346 -0.189423 0.139849 0.064894 0.078572 -0.024748 0.034839 -0.070936 -0.408163 -0.011898 -0.224335 0.112516 -0.068290 -0.071834 0.035800 0.326440 0.225745 -0.241302 0.379031 0.018658 -0.038001 -0.245923 -0.032124 0.058069 -0.059392 -0.192198 -0.334690 0.124403 0.028655 0.478262 -0.257157 0.096821 -0.081183 0.155884 -0.005970 0.145167 -0.159128 -0.007773 
与 0.138827 -0.181873 -0.463005 0.127035 -0.045327 0.019135 -0.170417 -0.109792 -0.228907 0.019637 -0.041656 -0.031459 -0.086579 0.162309 0.034555 -0.157323 0.292016 0.032995 0.059066 0.235199 -0.091617 -0.148095 -0.239475 0.139009 -0.044694 0.026131 0.029242 0.012288 -0.058093 0.306826 0.270078 0.197186 -0.133756 -0.237896 0.123574 0.124215 -0.135632 0.100049 -0.168341 -0.028596 -0.171145 -0.060768 0.177811 0.229035 0.118967 0.118601 0.087831 -0.104750 -0.115343 0.056132 0.212024 -0.005216 -0.059120 -0.189663 0.034045 0.014277 0.009475 -0.084458 0.215330 -0.007669 -0.065465 0.090320 -0.204073 0.244516 0.278619 0.065287 -0.127435 -0.054098 0.090639 -0.084630 0.110371 -0.038917 0.117912 0.165917 -0.078804 0.067097 0.042935 0.120240 -0.043208 0.032079 
电 0.327100 0.521369 -0.317438 -0.399633 0.021587 0.279068 0.428218 -0.056382 0.292104 -0.034680 0.510735 0.288759 0.032728 -0.119594 -0.398070 -0.123178 -0.290517 0.029768 0.299952 -0.005331 0.196971 -0.234531 0.558508 0.258471 -0.559055 -0.061225 -0.340474 -0.162921 -0.137673 0.026446 0.088963 0.077687 0.473366 0.237706 0.512727 -0.273771 -0.215634 -0.301330 -0.032860 -0.354323 0.160165 0.190804 0.469024 -0.162708 0.339132 -0.683226 0.036189 0.017634 0.427344 0.301758 0.444323 -0.125238 0.728264 0.107909 0.257614 0.022294 -0.037703 0.482689 -0.036945 -0.326278 -0.180645 0.210824 -0.000151 0.195136 0.828807 -0.349087 0.117431 -0.033357 0.109698 -0.574592 0.152604 -0.321256 0.018146 0.704518 -0.023604 -0.115390 -0.255974 -0.317682 -0.107824 0.082309 
市 0.085076 0.070420 -0.109837 0.180851 0.228117 0.255692 -0.022452 0.040802 -0.266076 -0.394575 -0.122237 0.590136 -0.010599 -0.215366 0.018986 -0.240659 0.178089 0.150060 -0.062959 0.049390 -0.377818 0.308067 -0.143254 -0.248302 -0.151327 -0.211109 -0.297780 0.033136 -0.266013 -0.058200 0.232956 0.150684 0.042482 0.269183 0.130533 -0.097219 -0.069797 -0.051648 0.173084 -0.056862 0.154488 -0.091202 -0.374006 -0.275621 0.076147 0.052596 0.134571 0.129600 -0.317291 -0.249095 0.444442 0.400002 -0.222562 -0.010519 0.051482 -0.517882 0.257964 -0.380983 -0.256750 0.099368 0.310846 -0.316808 -0.336926 0.300812 0.351874 -0.332236 -0.216468 0.261882 0.019234 -0.055131 -0.050792 0.010239 0.107555 0.047182 0.441905 0.127637 0.282234 -0.417093 0.255983 0.017356 
将 -0.092098 -0.121044 -0.108981 -0.289945 -0.124888 0.093514 0.285881 0.042689 -0.126404 -0.130574 0.006385 -0.071096 0.036878 -0.043247 0.057922 -0.032027 0.070601 -0.082303 0.057698 0.191181 -0.214784 0.024413 -0.064297 -0.124225 -0.189273 -0.087148 0.026094 0.212367 -0.077613 0.075372 0.032680 -0.118054 0.090512 -0.187953 -0.038037 -0.144828 -0.235703 -0.031487 -0.083496 -0.078853 -0.128647 0.062698 0.003663 -0.178481 0.115639 -0.082489 -0.244738 0.030952 0.000696 -0.219617 -0.100133 0.157416 -0.081612 -0.199510 -0.036945 0.084459 0.086659 -0.111696 -0.145182 -0.057511 0.223094 0.123741 -0.335949 0.020305 0.027454 -0.032361 -0.274219 -0.189713 0.024334 -0.173840 -0.051590 0.090192 -0.048064 -0.109112 -0.259884 0.065053 0.012956 0.170418 0.071368 0.180074 
总 -0.396241 -0.141513 -0.388973 -0.020231 0.313758 -0.020198 -0.058407 -0.129655 0.022950 0.116095 -0.005594 -0.093113 0.051031 0.031756 0.036850 -0.498460 0.050784 0.046691 -0.191014 0.254531 0.305590 -0.011671 0.243714 0.131322 -0.229876 0.415811 0.057456 0.513702 0.185928 0.209039 -0.066309 0.196305 0.612131 0.034758 0.124319 0.122578 -0.866829 0.469321 -0.947389 0.109892 0.092554 -0.007524 -0.209309 0.164571 -0.422175 0.162233 -0.208357 0.226298 0.097822 -0.233478 0.172771 0.047805 0.008425 -0.021700 -0.264399 -0.027168 -0.258138 -0.289482 0.086078 -0.097160 0.412927 -0.073326 0.044155 -0.139687 0.217220 -0.207660 -0.226495 -0.169421 -0.069191 0.077869 0.393272 0.015193 0.374271 0.024195 -0.043216 0.007245 -0.194746 -0.034693 -0.152803 -0.339659 
五 0.091769 0.032654 0.103608 -0.114740 -0.182616 -0.139610 -0.025788 -0.004652 0.358470 0.110883 0.254706 0.072619 -0.221640 -0.407862 0.136954 -0.082084 0.357357 -0.143470 -0.320873 -0.049164 0.280225 0.014514 0.310108 0.048340 0.203279 0.294840 0.204008 0.006720 -0.624858 -0.054500 -0.063726 -0.090957 -0.177799 -0.048811 -0.058604 -0.419152 -0.113356 0.038222 0.224448 -0.184288 0.218322 0.093515 0.201698 0.590035 -0.149406 0.148259 0.040383 0.118776 -0.026758 0.146032 -0.118859 0.019128 0.051806 -0.116584 -0.312660 0.168573 -0.185216 0.227994 0.240360 0.310755 0.682227 0.172480 0.276454 0.120610 -0.058548 -0.385872 -0.426440 -0.145987 -0.167709 -0.123780 -0.332115 0.001864 -0.174829 0.244724 0.211319 0.228867 -0.145910 -0.108869 0.191632 -0.121743 
高 0.005494 0.152539 -0.089784 -0.009396 0.150465 0.297260 0.071715 -0.009068 -0.242236 0.109697 0.027392 0.108561 -0.070284 -0.096482 0.011233 -0.162128 0.038026 0.576580 0.062971 -0.467532 0.106049 0.255160 -0.318422 0.230518 0.381494 -0.019990 0.267371 0.116314 0.093099 -0.249555 0.073342 0.202459 0.108709 -0.370236 -0.149357 -0.063975 0.028917 0.101259 -0.101406 -0.281725 -0.138382 -0.052723 -0.041077 0.000583 0.221806 -0.213020 -0.085698 0.159368 -0.170213 0.095016 0.123290 0.580213 0.334569 -0.036324 -0.112954 0.303577 -0.493147 0.224723 0.330618 -0.054656 0.264615 0.109747 -0.111768 0.186581 0.215065 0.155361 -0.363787 -0.146673 -0.333768 0.222793 -0.433609 0.032348 -0.205049 -0.281861 0.295651 -0.147278 0.126493 -0.243128 0.188996 0.109071 
学 0.032217 -0.116393 -0.039079 0.101178 -0.057846 -0.123241 -0.228588 0.233018 0.085435 0.010947 -0.548154 -0.100549 -0.188257 0.173586 -0.019952 -0.284643 0.112445 -0.215618 0.359090 -0.272193 -0.186205 0.075797 -0.484886 -0.323159 -0.140208 0.060599 -0.197655 -0.383498 -0.285596 -0.496854 0.304832 -0.022081 -0.128628 -0.509690 0.052487 0.186793 0.022595 0.090313 0.111283 0.052058 0.026679 0.043863 -0.008495 -0.014882 0.209273 0.185373 -0.082998 -0.361932 0.278272 0.202081 0.039941 0.071776 0.353773 -0.289054 -0.013853 -0.260371 -0.297984 0.078714 -0.201553 -0.024478 0.681863 0.208471 -0.283374 -0.221408 0.118248 0.102161 -0.070901 -0.090843 -0.180202 0.301167 -0.115795 -0.214372 0.003355 0.178416 0.092856 -0.008874 0.155615 0.074059 -0.427473 -0.188489 
１ -0.062366 -0.586899 0.401982 -0.069140 0.408173 0.483064 -0.334445 0.283811 0.194743 0.650336 0.117693 -0.103625 0.608595 0.059495 0.380345 0.136986 0.393340 0.239386 0.196216 0.030082 -0.203177 -0.008666 0.173725 -0.225307 0.236833 0.052200 0.195047 -0.412640 -0.118711 0.286489 -0.242977 0.203373 0.669451 -0.410561 0.279542 -0.573579 0.203254 -0.303619 -0.381855 -0.283746 -0.280174 0.278145 -0.038184 -0.489351 0.150343 -0.395366 0.021030 -0.114165 0.312782 -0.139669 -0.133377 0.083798 0.214127 0.039367 0.259761 0.139488 -0.041494 0.172182 -0.403333 -0.087990 0.549338 -0.234729 0.580064 0.009711 0.215816 -0.452930 -0.272026 -0.576819 0.102491 -0.470798 -0.146632 0.039886 0.022343 0.134730 -0.255240 -0.014048 0.223201 -0.236097 0.377033 -0.222716 
就 0.198276 0.037913 -0.080365 0.073160 0.108429 0.077085 0.127061 -0.067330 0.013346 0.075104 -0.059705 -0.117602 0.092411 0.022792 -0.151967 -0.362676 -0.164758 -0.054498 0.179785 0.019415 0.005798 -0.040051 -0.064134 0.161980 -0.166504 0.037026 0.087631 -0.087077 -0.065055 -0.155699 -0.107406 -0.167161 0.032981 -0.033954 0.094517 -0.024587 -0.291952 0.207240 -0.090239 -0.032484 0.062438 0.074734 -0.124161 -0.226214 0.065732 0.072607 -0.224345 0.153539 -0.117904 -0.232627 -0.255137 -0.035113 0.116682 0.003322 -0.031752 0.104780 0.052967 -0.096111 -0.191709 0.010070 0.160899 0.170808 -0.168386 0.046215 -0.003157 -0.082040 -0.106651 -0.166443 0.106109 -0.018698 -0.044452 -0.005419 -0.163891 -0.009693 0.097379 0.240909 0.038020 0.040204 -0.048757 -0.169570 
加 -0.461298 0.014831 -0.130914 -0.007966 0.121090 -0.161429 0.223957 0.089066 -0.041337 -0.253664 -0.153788 0.219054 0.332763 -0.108890 -0.058687 0.194002 0.499893 0.112185 -0.211509 -0.025358 -0.193441 -0.411711 -0.355403 0.015711 0.027140 -0.079451 -0.338091 0.092501 0.173034 -0.180219 -0.214708 0.129823 0.094116 -0.339443 -0.076691 -0.021381 -0.246375 0.208615 -0.113458 -0.346400 -0.427918 -0.222989 0.487574 -0.000977 -0.010023 0.187552 -0.006432 0.217661 -0.205023 -0.160405 0.021663 -0.317620 -0.185698 -0.096094 -0.282836 -0.035802 0.071880 0.153430 0.140248 0.079388 0.140147 0.284176 -0.422312 -0.133856 0.201912 -0.064178 -0.428594 -0.187887 0.325425 0.215149 -0.108615 -0.107325 -0.049416 -0.134809 -0.365252 -0.062849 0.131022 0.099636 0.014696 -0.089749 
主 0.032850 -0.365124 -0.309847 -0.333845 0.134045 0.389160 -0.197125 -0.205250 -0.038602 0.055762 -0.024186 -0.013410 -0.283901 0.154436 0.158561 -0.408358 0.099799 0.156847 -0.050025 -0.134916 0.107608 -0.349681 -0.077211 -0.207961 -0.569891 0.064891 0.126113 0.198183 -0.051280 0.200003 0.466108 0.265552 -0.240252 -0.048049 0.063976 0.187732 -0.118269 0.446908 -0.028021 0.370481 0.217812 -0.142665 -0.038190 -0.176411 0.232955 0.235854 0.198432 0.096756 -0.051491 -0.245082 0.134405 0.304319 -0.146053 0.193711 0.101053 0.294984 -0.393248 -0.113073 -0.266896 -0.032810 -0.034527 0.220602 -0.077429 0.223542 -0.004725 0.013078 -0.067749 0.173525 0.160721 0.017548 -0.023584 -0.204361 -0.154545 0.141484 0.247683 -0.017044 -0.067356 0.294928 0.206836 0.169930 
月 -0.023665 -0.268671 -0.011237 -0.112488 0.067126 0.177591 0.208333 0.013935 0.825217 0.278134 0.011423 0.214999 -0.059295 -0.173418 0.323968 0.439423 -0.001927 -0.181801 0.479696 0.082911 -0.433450 -0.286674 0.209678 0.179497 0.312953 -0.320888 -0.202952 0.218954 -0.784779 0.582145 -0.360529 0.011938 0.676145 0.244519 0.497298 0.033663 -0.072301 -0.129656 -0.195588 -0.192445 -0.296710 0.443931 0.020971 0.045145 0.292361 -0.240383 -0.556764 0.272777 0.487848 0.248484 -0.062310 0.040101 0.315515 -0.474009 0.120984 -0.500080 -0.304397 0.231578 -0.142208 0.111966 0.204057 0.010322 0.279928 -0.485418 0.233733 -0.416115 0.008709 -0.270013 0.213648 -0.516071 -0.455006 -0.422775 0.340751 1.098808 -0.478930 0.184966 0.084147 -0.704557 0.367594 0.035410 
过 0.017979 -0.106114 0.173447 0.106923 -0.148264 0.287616 0.040956 -0.235012 0.177229 0.299812 -0.154131 0.138276 0.134285 -0.312927 -0.071543 -0.218158 -0.193986 -0.251721 0.428647 -0.023003 0.165231 0.058946 0.131318 0.119435 0.121051 -0.055559 -0.205530 0.338810 -0.302170 -0.004829 0.212819 -0.239151 -0.223163 0.021531 0.093628 0.089304 -0.382981 0.008898 -0.310951 0.062799 0.163982 0.125401 0.004012 -0.391709 0.054443 -0.008620 -0.037123 0.061958 0.119754 0.178276 -0.322829 0.142218 -0.260812 -0.160542 -0.047053 -0.097337 -0.120542 -0.142405 0.156025 -0.362061 0.217603 -0.101115 -0.097625 0.213806 0.403258 0.046031 -0.111139 0.032097 -0.001074 -0.188723 -0.162261 -0.004837 -0.103935 -0.308421 -0.089016 -0.262005 0.085005 0.011174 -0.179628 0.120614 
区 0.024001 0.065321 -0.005141 -0.048777 0.335636 0.182944 -0.289870 0.039528 -0.421186 -0.509162 -0.592983 0.259234 0.451496 -0.035476 -0.018936 -0.015030 0.418132 0.078935 0.218301 0.332036 -0.088356 0.101523 -0.082505 0.113165 0.304175 -0.327257 0.208820 0.252812 -0.150293 0.130896 0.322727 -0.147908 -0.050953 -0.075518 -0.169462 0.196882 0.254753 -0.171438 -0.082691 0.366194 0.054168 -0.078929 0.179000 0.254207 -0.114481 0.450836 0.125502 -0.142761 -0.075091 -0.181860 0.109035 0.059875 0.055696 0.062049 -0.082701 -0.121132 0.355439 0.181762 0.098873 0.014025 -0.024614 -0.191747 -0.258107 0.108723 0.215085 -0.288054 -0.326991 -0.004550 -0.388546 -0.153421 -0.012872 0.219584 -0.146829 0.410963 -0.062084 0.135523 0.270154 -0.095142 0.288466 0.249853 
产 -0.311546 0.316224 -0.072983 0.125254 0.028837 0.005910 -0.102330 -0.365795 0.470405 -0.645909 -0.051863 0.176907 0.092982 0.225099 0.236487 -0.390311 0.230244 0.075156 0.244315 -0.092054 0.191196 0.298453 0.407825 0.104839 -0.467193 0.021586 -0.054921 -0.384733 0.165416 0.351897 0.270837 -0.120760 0.079096 -0.230991 -0.165319 -0.468553 0.171502 0.087543 -0.123598 -0.107419 0.049102 -0.223126 0.201015 0.192509 -0.241716 0.016758 -0.002348 0.076376 -0.303094 -0.233208 0.174158 0.598757 0.559062 -0.084734 -0.194059 -0.226801 -0.086328 0.064324 -0.188278 0.042481 0.371699 0.100655 -0.070168 0.019556 0.100777 0.257814 -0.367538 -0.255099 -0.308796 -0.055534 0.227305 0.236065 0.423873 0.383398 -0.236637 -0.502787 -0.496143 -0.170129 -0.157736 -0.036953 
而 0.191227 -0.133949 -0.295170 0.013289 -0.096716 0.253353 0.107399 -0.200219 0.078754 -0.126712 -0.146842 0.124611 0.046525 -0.106940 -0.076128 -0.119051 -0.054643 -0.129547 0.093145 0.206211 -0.014025 0.145690 0.004642 0.136573 0.084459 -0.235489 0.099329 -0.009328 0.180615 0.184664 0.107551 0.147861 -0.114681 -0.178337 0.032637 0.161694 -0.207542 -0.043161 -0.232216 0.077907 -0.149404 0.043087 -0.069544 -0.236621 0.028638 0.158415 -0.195048 0.050740 0.088033 -0.076312 -0.042248 -0.012485 0.023941 -0.061166 -0.095488 -0.052001 0.252532 -0.092157 0.049236 0.078952 0.229875 0.089158 -0.188533 0.085188 -0.111205 0.059942 -0.065818 -0.020956 0.026252 -0.204464 -0.151758 -0.271391 -0.078565 -0.301782 0.014620 -0.060828 -0.120868 0.120646 -0.259966 -0.132335 
部 -0.025093 0.236472 -0.219871 0.322012 0.294625 0.096602 -0.043158 -0.099683 -0.374356 -0.191330 0.064946 -0.049546 0.049125 -0.094769 -0.002053 0.011779 0.240312 0.157115 0.293986 0.130893 -0.138755 -0.326135 0.150922 -0.170112 -0.003569 -0.001885 -0.202525 0.218758 -0.228864 0.455180 0.443200 0.066773 0.040570 -0.028219 -0.263168 0.178894 -0.051566 0.096774 -0.280188 -0.068535 0.104294 0.078552 0.075587 -0.207837 0.148533 0.153115 0.214220 0.186587 0.305572 -0.318005 0.187023 -0.028702 -0.206393 0.065546 0.006386 -0.070398 0.285893 0.071278 0.072544 0.417092 0.387179 0.297560 -0.002303 0.045802 0.291631 -0.229326 0.025472 0.243161 -0.655886 -0.000875 0.223888 0.013416 -0.096306 -0.036591 0.026592 0.356378 -0.038872 0.054021 -0.221093 -0.101629 
同 -0.021406 -0.188400 -0.130118 0.616597 -0.200415 -0.057645 0.224244 -0.054659 0.016196 0.113147 -0.248095 -0.019363 0.066209 0.168030 0.303778 -0.167974 0.162888 -0.082798 0.453291 0.234439 -0.043106 -0.178060 -0.163784 0.025222 -0.049178 0.136043 -0.126154 0.204434 -0.130361 0.026951 0.323868 -0.030634 0.030621 -0.199354 0.370812 0.070944 -0.221193 -0.064265 0.236112 -0.118211 0.032871 0.121945 0.040932 -0.003714 -0.065844 0.083435 -0.052910 0.123999 -0.067647 -0.011174 0.099331 0.267005 -0.013449 -0.398516 0.091245 0.155710 -0.018619 0.027540 0.249907 0.030166 0.156517 0.110682 0.097612 0.018272 -0.039850 0.120962 -0.277334 -0.052496 0.078941 -0.104227 0.202298 0.255487 0.265879 -0.130854 -0.328117 0.147237 0.079902 0.584571 -0.202279 -0.015420 
合 -0.011676 0.206188 -0.466632 0.255622 0.136295 -0.182069 0.129868 -0.281213 -0.496547 0.254273 0.078191 0.075353 -0.021192 0.091731 0.337060 -0.155133 0.277249 0.206979 0.178884 -0.182956 -0.034952 -0.413822 -0.280106 -0.124232 -0.076354 0.717273 -0.258534 -0.094843 -0.005240 0.328848 0.281361 -0.273694 -0.110624 -0.499062 0.210752 0.211335 -0.037185 -0.394360 -0.129556 -0.073545 -0.428049 -0.456118 0.383981 -0.087772 -0.023295 0.412371 0.191094 0.303304 0.108204 -0.047263 -0.002139 -0.127717 -0.355139 0.042974 -0.150324 -0.137447 0.122168 0.024040 0.131827 0.049207 0.155567 0.222723 0.172374 0.310343 0.087065 0.255204 0.036405 -0.318649 -0.236443 -0.444314 0.112061 -0.148284 -0.062657 0.173040 0.001377 0.483016 -0.228178 -0.241668 -0.229710 0.425283 
者 0.074343 0.269204 -0.299071 -0.151554 0.016706 0.297405 0.023618 0.338500 -0.256509 0.203328 0.038306 0.526750 -0.161779 -0.024250 -0.174510 -0.323288 -0.151831 0.020503 0.169822 0.296113 -0.095178 0.297715 0.083950 0.406689 0.123193 0.051337 -0.153502 -0.179139 -0.262413 -0.137682 -0.022472 0.221120 0.155649 0.062885 -0.227860 0.314289 -0.089410 0.238518 0.236543 0.243916 0.038783 -0.144231 0.255141 -0.211560 0.099576 -0.507046 -0.264080 0.223881 0.586594 0.429922 -0.009533 -0.091552 0.390778 0.135513 0.221248 0.077308 0.100252 0.680973 -0.142846 -0.438150 0.047618 0.029707 0.122471 0.389511 0.260629 -0.013916 -0.103027 0.207895 0.245807 -0.140379 -0.080190 -0.331096 0.571433 -0.074479 -0.131309 -0.134720 -0.482270 0.357962 0.094279 -0.283225 
天 0.000687 0.043286 -0.463963 -0.000902 0.170875 0.193471 -0.102638 -0.019065 -0.291237 -0.151939 -0.142432 0.166256 -0.228295 -0.469838 0.042508 -0.015178 -0.418898 -0.195310 0.095141 -0.069253 0.132679 0.380355 0.044065 -0.233250 0.166264 -0.333863 -0.071159 0.231383 -0.025458 0.219834 -0.201523 -0.086971 0.163217 -0.233270 0.498207 -0.162496 -0.182847 -0.176295 -0.034010 0.256926 0.098516 0.215984 -0.328572 -0.225637 0.134521 0.231645 0.155389 0.257685 -0.112224 -0.259454 -0.418454 0.086805 0.274825 0.036621 -0.195675 -0.292490 -0.089784 -0.025062 -0.449818 -0.076215 0.203190 0.053540 -0.329310 -0.212579 -0.010057 -0.435408 0.055077 -0.277352 0.184210 -0.136629 -0.245044 -0.341607 0.136337 -0.026164 -0.055863 0.320322 0.263625 0.205632 0.162579 -0.284542 
全 0.144651 -0.042456 -0.013981 -0.037016 0.189603 0.304075 0.010230 -0.246769 -0.029465 -0.070660 0.039979 0.030250 0.006033 -0.214733 0.133298 -0.035300 0.086433 -0.086453 -0.026943 0.020432 0.246227 0.249299 -0.133007 0.050689 -0.216302 0.092042 -0.138562 0.034662 -0.195948 0.442496 0.127175 0.165628 -0.194046 -0.038573 -0.023776 -0.060647 -0.050745 0.087126 -0.197174 -0.090377 0.059371 0.235842 0.100745 0.101797 0.023474 -0.037013 -0.088181 0.015368 0.089440 -0.029284 0.094954 0.282570 -0.284220 0.070684 -0.255917 0.264574 0.060560 -0.042212 -0.213803 0.227127 -0.010673 0.097808 -0.068572 -0.132114 -0.073385 -0.076256 -0.456995 0.068574 0.017729 0.150294 0.403121 0.039210 0.129427 0.414262 0.016613 0.080613 0.165169 0.203449 0.199056 0.296521 
现 0.284883 -0.022617 0.040614 -0.001875 -0.236197 0.270946 -0.072253 0.125610 0.116744 -0.051257 -0.182961 0.301608 -0.106118 0.000158 0.163691 -0.419009 -0.003675 0.050397 0.169618 -0.288766 0.320529 -0.166158 -0.072527 -0.077782 0.019025 -0.252146 -0.080450 0.016400 0.052290 0.161101 -0.169566 -0.455664 0.021186 0.199885 0.096945 -0.298002 -0.246797 -0.085234 -0.107033 0.103012 -0.017239 -0.097693 -0.099988 -0.469390 0.307670 -0.144525 -0.150827 0.070216 -0.181671 0.034439 0.007060 0.064476 -0.281376 -0.151602 -0.172365 0.087377 0.260142 -0.052972 0.137161 0.138199 -0.080653 0.072347 -0.085624 0.189572 -0.249458 -0.008283 -0.011610 -0.010322 0.025057 0.083915 0.154733 0.075260 0.029091 0.249880 0.333582 -0.104004 0.171315 0.093432 0.099783 -0.200963 
（ 0.114223 0.160481 -0.097564 -0.003711 0.589415 -0.217748 0.155422 -0.150520 -0.018783 0.313167 0.301729 0.768162 -0.714404 -0.476183 -0.446940 0.110193 0.212442 0.340660 0.861517 0.101197 -0.521761 0.097141 -0.317641 0.458879 0.667442 0.106580 -0.329040 -0.618327 -0.507802 -0.302522 0.334331 0.711082 1.066235 0.113255 -0.139701 -0.260977 -0.071322 0.688587 0.235669 0.156639 0.392335 -0.274285 0.757868 0.423232 -0.267908 -1.006817 0.047315 0.488352 -0.066481 0.542871 0.235409 0.292619 0.682031 0.001853 -0.183911 0.176421 0.088678 0.534904 -0.041476 -0.492182 0.024461 0.786648 -0.074639 0.233375 0.287726 -0.118854 0.110808 -0.608680 0.846217 -0.221493 -0.428447 -0.907862 0.682434 0.149378 -0.048186 -0.423766 -0.389986 0.122082 0.442225 0.576845 
湾 -0.013440 -0.275493 -0.795276 -0.139337 -0.289506 0.001286 -0.009804 -0.154386 -0.219415 -0.149836 0.056972 0.359109 -0.388911 0.109241 -0.145760 -0.317381 0.215417 0.331877 0.206567 -0.303827 0.158156 0.074575 -0.269094 0.298989 -0.255000 0.228430 0.062650 -0.396713 0.041417 -0.141301 -0.190022 -0.311263 -0.431336 0.224856 0.284188 0.057312 0.079500 -0.134791 -0.232462 -0.223404 -0.055534 0.025051 -0.432107 0.064037 0.338247 -0.156962 -0.169067 0.178675 0.330449 -0.257588 0.325053 -0.095625 -0.087651 -0.055008 0.269698 -0.169984 0.060752 -0.369455 -0.046056 0.209500 0.417991 0.229658 -0.401186 0.277847 0.235778 0.173348 0.005292 0.316016 -0.247155 -0.286476 0.181080 -0.112313 0.294879 0.224874 -0.172265 0.037819 0.199798 -0.014668 0.038294 -0.034535 
四 -0.046101 0.105998 -0.027780 0.084280 -0.045767 -0.034519 -0.054975 0.103724 0.324471 0.054631 0.077475 0.071474 -0.112980 -0.416122 0.145256 0.074891 0.277701 -0.106257 -0.282258 0.063109 0.166457 0.087028 0.220051 0.161873 0.151045 0.156500 -0.054055 0.028450 -0.684319 -0.298924 0.005790 0.032058 -0.132829 0.034739 0.249302 -0.249877 0.069315 0.001026 0.174024 -0.166221 0.126708 0.168529 0.180139 0.332879 -0.236382 0.223277 0.111211 0.081943 0.049687 -0.089323 -0.141989 0.133961 0.036172 -0.240341 -0.377730 -0.002933 -0.205278 0.187615 0.195354 0.135323 0.736828 0.189062 0.253377 0.047928 0.079373 -0.305596 -0.258997 -0.107186 -0.112918 -0.151704 -0.212575 0.118561 -0.104435 0.337083 0.146855 0.123805 -0.363690 -0.288899 0.184240 -0.094908 
） -0.030515 0.103301 0.040983 -0.049768 0.320366 -0.247624 0.126504 -0.001034 -0.124476 0.150926 0.357012 0.949880 -0.575229 -0.724874 -0.001500 0.089730 0.050574 0.790946 0.488041 0.021865 -0.399706 0.044778 -0.458309 -0.064315 0.655950 0.001941 -0.282578 -0.463906 -0.280331 -0.468911 0.358673 0.423032 0.774205 0.066848 -0.004094 -0.049885 0.050978 0.260369 0.132524 -0.051817 0.944029 -0.225872 0.499827 0.453952 -0.411782 -0.774781 -0.382582 0.093199 0.184459 0.425668 -0.037219 0.512870 0.469108 0.216810 -0.729068 0.156148 -0.052603 0.628865 0.332873 -0.646396 -0.311896 0.520692 -0.393468 0.194405 0.207258 -0.084866 -0.268761 -0.082218 1.049147 0.063861 -0.128557 -0.570111 0.213027 -0.154558 -0.015629 -0.095345 -0.485267 0.323081 0.422320 0.354604 
０ -0.137176 -0.646068 0.701000 -0.173385 0.053384 0.263377 -0.090281 0.251835 0.110727 0.479631 0.381702 0.230787 0.399182 -0.084972 0.497803 -0.117399 0.512863 0.351992 0.178778 0.179717 -0.108330 -0.058045 0.052241 -0.445174 0.290110 0.128966 0.112500 -0.825360 -0.389452 0.301885 -0.118927 0.323537 0.751462 -0.133656 -0.041671 -0.509265 0.202969 -0.276541 -0.323680 -0.363978 -0.453469 0.098147 -0.255374 -0.335603 -0.053736 -0.346912 -0.353188 0.150968 0.042294 -0.067162 -0.281344 0.193108 0.239702 0.480266 0.137969 -0.110734 -0.039256 0.403517 -0.407655 0.073099 0.307715 0.266367 0.249243 0.020311 0.254935 -0.524104 0.037750 -0.525416 -0.186352 -0.463079 0.005004 -0.046384 -0.158470 0.249632 -0.000280 -0.076025 0.148126 0.130351 0.352892 -0.424605 
能 0.210073 -0.242047 0.001025 -0.015048 -0.045055 0.188727 0.034618 -0.041251 0.207858 0.044515 0.033617 0.128505 0.018810 0.046235 -0.199746 -0.271068 -0.097836 -0.208378 0.391237 -0.061823 -0.033383 0.255695 -0.281076 0.274086 -0.071014 -0.053323 0.062367 0.034939 0.035345 0.049802 -0.017259 -0.321132 -0.035511 -0.014734 -0.062158 -0.363068 -0.045493 0.167560 -0.113390 -0.228174 -0.239244 -0.122761 0.497259 -0.331741 -0.026881 -0.093881 -0.218451 -0.123365 -0.136032 -0.269120 -0.328254 0.108046 0.050962 -0.128741 0.135219 0.160331 -0.043117 -0.368316 -0.493470 0.048606 -0.004483 0.234946 -0.222297 -0.065497 0.016074 -0.096202 -0.154859 -0.268892 -0.289806 0.050694 0.045674 0.009391 0.013937 -0.211672 -0.172189 0.386071 -0.184769 0.287819 0.111214 0.116651 
可 0.288451 -0.452920 -0.141247 -0.184209 0.007515 0.160662 -0.083529 -0.235133 0.166402 -0.044189 0.095434 -0.049463 -0.146668 0.086266 -0.212683 -0.225474 0.008733 -0.117222 0.312391 -0.118046 0.218630 0.085495 -0.072743 0.143364 -0.013612 -0.059052 0.032703 -0.124952 0.052118 -0.131560 0.036224 -0.337673 0.012260 -0.043950 -0.008297 -0.218276 0.087706 -0.017382 -0.083232 -0.177712 -0.235512 0.002920 0.301272 -0.401838 0.114765 -0.137497 -0.165604 -0.012026 -0.153254 -0.172293 -0.020185 -0.102711 0.124536 -0.191488 0.112720 0.186071 -0.095286 -0.196490 -0.131326 -0.105720 0.059682 0.245212 -0.285454 -0.060344 0.275594 -0.051542 -0.197138 -0.155498 0.018237 0.122987 -0.135057 0.290951 0.006779 -0.434931 0.289644 0.249943 -0.180919 0.230396 0.072293 -0.238985 
们 0.329083 -0.317233 -0.139936 0.225090 -0.108788 -0.205467 0.068702 -0.002913 0.365424 -0.053172 -0.248331 -0.073131 0.469853 0.213031 -0.220450 -0.228700 -0.427923 -0.293149 0.023535 0.009824 -0.160231 0.018147 -0.459614 0.044256 -0.172715 -0.428897 -0.075049 0.079052 -0.286721 0.115955 -0.005280 -0.322514 0.064927 -0.135096 0.061320 -0.082775 -0.247480 0.195152 0.202443 -0.040784 0.139260 -0.187554 -0.149509 -0.205225 0.339154 -0.007318 -0.028671 0.441254 0.256154 -0.020348 -0.006019 -0.077940 -0.203986 -0.192354 0.343574 0.167130 -0.141686 -0.097234 -0.227422 -0.257789 0.018899 0.318094 -0.215909 -0.109020 -0.324890 0.231075 -0.156534 -0.444422 -0.001142 -0.121653 0.135967 0.606730 0.027610 0.087451 -0.107692 0.332999 -0.122129 0.152240 0.147422 -0.014569 
元 0.262022 -0.093468 0.632768 -0.457716 0.003006 -0.288304 0.300182 0.354723 0.099994 0.179989 -0.218379 0.189765 0.236628 -0.789826 0.111769 0.391638 0.963968 0.235806 0.355577 0.723155 0.375345 -0.045846 0.621819 -0.296785 -0.272795 0.169447 0.212379 0.080392 -0.354018 0.004670 -0.267539 0.003255 -0.173479 -0.030973 0.290305 -0.427913 -0.124471 0.154374 -0.689765 -0.275355 -0.311387 -0.097520 -0.295600 0.186259 0.040635 0.111332 0.363480 0.129550 0.118946 0.197205 0.092902 0.007175 -0.216187 -0.248751 0.275248 -0.302402 -0.387748 0.102893 0.271385 0.234864 0.238951 0.199110 0.223204 0.299355 -0.131566 0.242765 0.121830 -0.102893 0.041723 -0.281276 -0.394655 0.106824 -0.282331 0.049042 -0.063417 0.108808 -0.220682 0.239805 0.294167 -0.286129 
自 0.304343 -0.355183 -0.280315 -0.005460 0.008324 0.512342 0.093324 -0.400030 0.241634 -0.178472 -0.341269 0.002142 0.403174 0.267891 0.008008 0.024213 0.225604 -0.345939 0.400285 0.084815 0.100562 0.003775 -0.059474 -0.037144 0.105704 -0.038779 -0.113104 -0.064548 -0.285163 -0.101229 -0.133859 0.047837 0.091521 -0.154727 0.184818 0.134516 -0.196945 0.321078 0.040041 0.339857 -0.213641 0.015347 0.117520 0.057102 0.374373 0.020488 0.039285 0.254278 0.077899 0.075519 -0.095602 -0.137264 0.218216 -0.031480 -0.131991 0.186301 0.241393 -0.039253 0.012969 0.140211 -0.208669 0.256465 -0.138823 0.299612 0.019731 0.425449 -0.155393 0.289329 -0.242859 0.086713 -0.045195 -0.073028 0.088496 -0.068118 -0.217514 -0.028952 -0.120873 0.060895 0.178998 0.219011 
展 0.138747 0.442960 -0.413307 -0.043769 -0.280747 0.192560 -0.341878 0.303066 -0.364926 -0.011688 -0.175660 0.509142 0.111235 0.204616 0.323987 0.121094 0.237531 0.249540 0.488804 -0.040507 -0.002562 0.015784 0.023647 -0.114464 -0.458720 -0.098548 -0.002688 0.430388 0.064530 0.176410 0.290584 -0.571790 -0.075605 -0.101307 -0.235137 -0.192398 -0.058409 -0.433176 0.047019 -0.206918 -0.302368 0.064526 0.325197 -0.029953 0.262510 0.289412 -0.242701 -0.224121 -0.397003 -0.250245 -0.295559 -0.225421 -0.072587 -0.048415 -0.071541 0.406207 0.036575 -0.003222 0.216976 0.006843 -0.170079 -0.223050 -0.157015 0.383111 0.104696 0.010343 0.013762 -0.054003 -0.128441 0.475277 0.299810 -0.228387 0.024821 0.377826 0.143473 -0.138865 0.302966 0.161350 0.368679 -0.001290 
建 -0.188253 0.167454 0.312147 -0.186731 0.103227 0.241490 0.506182 0.105892 -0.067381 -0.204292 -0.247081 0.184908 0.273952 0.257221 0.183490 0.126308 0.233015 0.293097 -0.023283 0.492738 -0.257993 0.130646 -0.310014 -0.046404 -0.338283 0.250186 0.049863 0.024210 -0.558672 -0.324161 0.261748 0.059384 -0.244133 0.077775 0.309198 0.092620 0.150236 0.003061 -0.275861 0.127278 -0.001828 -0.098314 0.124917 -0.076465 0.038612 -0.053101 0.143964 -0.087241 0.125794 -0.171732 -0.249510 0.053686 -0.059835 -0.388550 -0.458250 -0.131980 0.162318 0.182038 0.069541 -0.254263 -0.160344 0.280642 0.054291 0.503452 0.045050 -0.210026 0.121935 0.096952 -0.247545 0.070401 0.147933 -0.258586 -0.002903 0.407992 0.268311 -0.110461 0.027557 -0.189590 -0.078270 0.208419 
力 0.070702 -0.117007 -0.332964 0.097159 -0.357855 0.221739 0.113040 0.183420 0.025629 0.045588 0.031498 -0.061944 -0.154597 0.139341 0.010018 -0.470723 0.032387 0.074782 0.139428 -0.094150 -0.064782 -0.010646 0.088642 0.261349 -0.159255 -0.103851 -0.175868 0.289358 0.000495 -0.120017 0.225393 0.061653 -0.208412 -0.157759 -0.401371 -0.268914 0.091836 0.012931 0.083800 -0.139288 -0.781400 -0.010318 0.502372 0.015916 -0.131839 -0.142403 -0.027764 -0.119366 -0.200437 -0.378047 0.232293 0.064081 -0.147357 -0.050430 0.031847 -0.018844 0.183995 -0.112632 -0.449256 -0.150968 -0.145556 0.459095 -0.229980 0.100195 -0.027128 0.202239 -0.364300 0.013195 -0.165099 -0.023524 0.101356 -0.013455 -0.005330 0.084928 -0.000502 -0.318785 -0.124089 0.189539 0.097349 0.169781 
重 -0.139562 0.447880 -0.317232 -0.046908 -0.087096 0.351947 -0.079451 0.433893 0.078763 -0.135961 -0.047763 0.257563 0.305445 -0.277911 -0.016186 -0.071317 -0.190967 0.173968 0.197793 0.403192 -0.161496 -0.285942 -0.089107 -0.010803 -0.346924 -0.146994 0.245645 -0.168098 -0.161646 0.001110 0.362839 0.130432 -0.478962 -0.132232 -0.181698 0.094214 0.041912 0.113173 0.134063 0.201961 0.086954 -0.220302 -0.209855 -0.560142 -0.188584 0.062140 -0.125411 -0.170449 -0.334952 -0.298256 -0.026160 0.071684 -0.119843 0.322733 0.012108 0.285173 -0.144476 0.116994 -0.077782 -0.096007 0.374818 0.136265 0.012072 -0.029183 -0.111689 -0.052351 -0.039819 -0.209890 -0.172084 0.019843 -0.392583 0.410977 -0.251226 0.296681 0.060724 -0.109015 -0.076460 -0.129541 -0.131706 -0.026063 
表 -0.048948 0.271501 -0.198049 -0.055703 -0.177489 0.341532 0.193281 0.253727 -0.128490 0.340325 -0.396707 0.377163 -0.152093 0.072097 0.168301 0.075415 0.054016 0.011389 -0.126206 -0.247839 -0.238838 -0.035348 0.050848 0.124432 -0.174765 0.124294 -0.153579 -0.019839 0.220367 0.252498 0.159439 -0.631766 0.259533 -0.015347 0.395896 0.059657 -0.383732 0.398872 -0.025074 0.271999 -0.514905 0.263771 -0.577046 -0.142951 0.500300 -0.145572 0.210908 0.309978 -0.212341 -0.021799 0.324507 -0.102439 -0.266589 -0.478102 0.179788 0.102420 -0.290956 0.439197 0.032254 0.045611 -0.094811 -0.030674 0.090617 0.208292 -0.477262 -0.264223 -0.264011 -0.117099 0.071918 -0.139064 0.116851 -0.002759 0.233825 -0.270792 0.074812 0.334684 0.163562 0.770656 -0.137887 -0.225318 
文 0.269444 -0.096616 -0.018310 0.103498 -0.066528 -0.172918 -0.192718 0.512889 0.202040 0.080287 -0.015001 0.015079 -0.184794 0.268703 0.127924 0.087602 -0.012069 -0.141162 0.105440 -0.002088 0.291323 0.054525 -0.164806 -0.364593 -0.108901 -0.036344 -0.148515 -0.084577 0.313444 -0.018305 0.428004 0.051335 -0.023311 0.119032 0.164159 0.057500 -0.373269 0.282926 0.111164 0.092827 -0.176399 0.086663 -0.165741 -0.238194 0.232709 0.213245 0.414531 -0.556853 0.204368 0.106752 0.140335 0.151231 0.006280 -0.067531 -0.113397 -0.183807 -0.151839 0.410379 0.204405 -0.000875 0.254272 0.182470 -0.048132 0.474067 0.287151 0.375399 0.049074 -0.010755 -0.115304 -0.180774 -0.192215 -0.207503 -0.029425 0.566427 0.101806 0.148842 0.475579 0.392873 -0.118759 -0.358368 
点 0.075082 0.196158 0.116101 -0.107822 -0.238643 -0.163612 -0.002246 0.428423 0.057162 -0.479431 -0.359696 0.368865 0.092306 -0.676190 0.232116 0.221297 0.025045 0.047551 0.123508 0.122608 0.177094 -0.200088 0.292081 0.318031 -0.210766 0.089486 0.222559 0.127036 -0.457828 -0.225738 -0.112551 0.386590 -0.056796 -0.287716 0.209544 -0.256293 -0.119106 0.100543 -0.032784 -0.223093 0.144427 -0.085342 0.150966 -0.010145 0.013016 0.227250 -0.033697 0.264495 -0.453286 0.249847 -0.337071 -0.286712 0.226759 0.224542 -0.130648 -0.041126 0.002601 -0.062710 0.197440 0.279503 -0.006867 0.065969 0.299278 -0.199718 0.051708 -0.172681 -0.509191 0.032586 -0.414553 -0.379181 -0.213975 0.203115 -0.482864 0.248229 -0.116334 0.038886 -0.044903 -0.218766 0.200845 -0.261725 
已 0.067653 -0.073206 -0.087930 -0.141425 -0.059028 0.048368 0.051332 -0.128273 -0.050213 0.176138 -0.174804 0.272616 0.168689 -0.195751 0.416238 -0.253560 -0.007053 0.001321 0.099125 -0.002753 0.227275 -0.015576 -0.002547 0.393525 -0.306978 0.037304 0.128814 -0.067967 -0.023585 0.249534 -0.118156 -0.402073 0.271083 0.006224 -0.131131 -0.051784 -0.115931 -0.352549 -0.111792 0.058856 0.111223 0.134703 -0.055865 -0.045582 0.130143 -0.071406 0.059253 -0.040839 0.061288 -0.139776 -0.243565 0.288740 -0.150083 -0.348184 -0.076912 -0.213639 0.242612 0.083904 -0.004236 0.067874 0.189282 0.089452 -0.181354 0.098600 0.118514 -0.083010 -0.204765 -0.094908 -0.256054 -0.027159 0.023015 -0.090869 -0.160623 -0.051390 0.445767 0.048708 -0.011810 -0.119087 -0.114647 0.012975 
最 0.126091 0.279643 -0.267289 -0.026375 -0.102901 0.063633 0.081434 0.336323 -0.028796 -0.083399 0.069997 0.292085 0.166137 0.045990 -0.125061 -0.100566 -0.105097 0.352552 0.233976 -0.166084 -0.148775 0.165589 -0.257549 0.068726 0.167992 -0.101678 0.240424 -0.105656 -0.066161 0.001778 0.039184 0.256970 -0.139207 -0.243543 -0.489531 -0.193245 -0.018475 -0.126803 -0.093490 -0.134436 0.053361 -0.056312 -0.299259 -0.107238 0.006004 -0.154156 -0.143629 -0.109874 -0.239443 -0.030962 -0.253905 0.248397 -0.040890 -0.063079 -0.427531 0.177849 -0.199614 0.028327 0.127730 0.240683 0.098633 0.187509 -0.302928 0.072755 0.094053 -0.179743 0.117936 -0.030531 0.272802 -0.008888 -0.208620 -0.107341 0.139468 -0.222634 -0.121762 -0.036350 -0.253509 -0.077071 0.334068 0.070927 
金 -0.064224 -0.086707 -0.232017 -0.224376 0.337621 -0.284977 -0.062149 0.483322 -0.139271 -0.127186 0.428734 0.335441 -0.141717 0.057839 0.395262 -0.358162 0.591231 -0.449392 0.238387 0.000333 -0.326250 0.217318 0.193229 -0.039318 0.139259 -0.106345 0.369363 0.077149 -0.025375 -0.261065 0.031381 0.029793 0.035362 -0.307486 0.191950 -0.483930 -0.104106 0.153175 -0.372397 0.011492 -0.083879 -0.576941 -0.050730 -0.088587 0.026802 0.348710 0.353211 0.519607 0.510819 0.306628 0.342284 0.256477 0.008212 -0.317111 -0.051010 -0.115170 0.079814 0.095558 0.063844 0.247072 0.205004 -0.112137 -0.116496 -0.184475 0.177951 0.279337 0.106446 0.047817 0.299835 0.275183 0.264455 -0.199619 -0.383381 0.236858 0.081382 -0.128132 -0.550089 0.287153 -0.088728 0.290258 
目 -0.080767 -0.390591 0.097323 -0.122081 -0.017625 -0.007712 -0.452288 -0.364839 -0.141390 0.132543 0.006441 -0.189001 -0.104278 -0.607584 0.421047 -0.110636 -0.091385 0.202299 0.034249 0.069948 0.107839 -0.200761 -0.235420 0.383000 -0.566574 0.324830 -0.088227 0.044484 -0.479796 -0.071107 -0.266201 -0.401596 0.093464 -0.098208 -0.407033 0.114440 -0.063359 -0.476538 0.189675 -0.344865 0.010097 -0.335602 -0.462147 -0.379836 -0.295893 0.169729 0.488893 -0.073372 0.294835 -0.192785 0.207403 0.292421 0.074809 -0.071908 -0.568434 0.360730 -0.049476 0.059698 0.063567 -0.146668 -0.167161 0.462236 -0.220396 0.038520 -0.226126 -0.077183 0.321697 -0.146171 -0.224620 0.169142 0.044705 0.033098 0.045302 0.360757 0.145562 0.286589 -0.405459 0.196453 0.139407 0.025974 
动 0.418982 -0.287581 -0.237977 -0.069324 0.035496 0.141659 0.223492 0.088210 0.182786 0.035920 -0.185993 0.106684 0.143934 -0.010361 -0.528007 -0.089247 0.375913 0.176128 0.031351 0.080380 -0.086255 -0.141272 -0.083616 0.034963 -0.132030 -0.195562 0.226410 0.470697 -0.122858 0.503124 -0.113006 -0.267411 -0.084105 -0.315801 0.330346 -0.046072 -0.119041 0.002855 0.149723 -0.036064 -0.287309 0.215422 0.173023 -0.148038 -0.047318 0.144925 -0.317491 -0.561449 0.103514 -0.032174 0.081719 0.297251 -0.141002 0.320199 -0.089598 0.027549 0.036478 0.043841 -0.182980 -0.101882 0.071220 0.281645 0.257046 -0.024586 -0.033147 -0.115364 -0.361453 0.183103 0.071556 0.334083 0.063717 -0.090861 -0.182668 -0.218295 -0.247892 -0.085516 0.231922 0.173205 -0.212780 0.084424 
下 0.025330 -0.116588 -0.129032 0.221394 0.118888 -0.171117 -0.017519 -0.052264 -0.077919 -0.162328 0.046996 0.095549 -0.088370 -0.221750 0.029564 -0.063636 0.003664 -0.183373 -0.096957 0.029838 0.106320 0.180814 -0.240755 0.159065 -0.131675 -0.265241 -0.027379 0.273623 0.068784 -0.041272 -0.230939 0.001970 -0.214574 -0.193444 0.185971 -0.239339 -0.167683 0.185481 -0.104268 -0.095222 0.112821 0.160485 0.077589 -0.174620 0.228555 -0.168730 -0.132351 0.216756 -0.204114 -0.217158 -0.049938 -0.017796 0.111074 -0.088919 -0.062837 0.013842 0.198573 -0.361874 -0.138167 -0.193528 0.271369 0.171778 -0.069332 -0.252190 -0.136463 0.044078 -0.324929 -0.161407 -0.061450 -0.197191 -0.180071 -0.282694 -0.068371 -0.056061 0.083315 0.025222 0.202996 0.168935 0.011923 -0.061203 
社 -0.147563 -0.188846 -0.444380 0.138799 0.170977 0.010283 0.477040 0.358392 0.076667 -0.145636 -0.087471 0.295865 -0.346258 0.339441 0.369960 0.345874 -0.325573 0.085185 -0.020301 0.326761 -0.190766 -0.158764 -0.227083 0.045124 -0.215257 -0.531759 -0.419020 0.144935 -0.251604 0.120207 -0.007972 -0.356914 0.074473 0.121176 0.366028 0.603828 0.217816 0.614143 -0.091729 -0.065263 -0.269840 -0.256829 0.443602 -0.147348 -0.084566 0.245192 0.040148 -0.462173 0.116899 -0.009776 0.065787 0.150902 -0.212079 0.021649 0.665225 0.290769 -0.355309 0.282094 -0.079044 0.011826 0.139825 -0.198072 -0.392751 0.195163 0.344471 -0.517127 0.267024 -0.042595 0.213856 -0.155740 -0.406767 0.197075 0.101920 0.606821 0.170613 0.134487 0.010381 -0.645424 0.466696 0.173338 
定 -0.119411 -0.050379 -0.257223 -0.127886 -0.013901 0.278382 0.003142 0.009868 0.116554 -0.098103 -0.167871 0.031726 -0.035861 -0.058408 0.131003 -0.220696 0.164957 -0.270921 0.104093 0.147299 0.071372 0.068607 -0.316131 0.056246 -0.193289 -0.114927 -0.173045 -0.183650 -0.255056 0.501100 0.555701 -0.027593 -0.329218 -0.214790 0.003609 -0.104021 -0.332394 -0.319722 -0.275219 -0.152618 0.310764 -0.073288 -0.103975 -0.235693 -0.028511 -0.063266 -0.253529 0.001546 -0.266572 -0.123435 0.013562 -0.239493 0.238121 -0.279266 -0.197667 0.184066 0.364681 -0.144545 0.002712 -0.101472 -0.194955 -0.546817 0.106783 0.193309 -0.196435 0.361829 -0.089315 -0.208261 0.090379 -0.118038 -0.225001 -0.124587 -0.328808 -0.022106 0.032970 0.352040 -0.176426 -0.057523 0.441398 0.380732 
得 0.040455 0.009770 0.238544 -0.108335 -0.355051 0.158572 0.034821 0.247368 0.033531 0.045069 0.012587 0.445546 0.216724 -0.074002 0.166511 -0.403476 -0.217941 -0.199972 0.143493 0.134817 0.392490 0.616538 0.003206 0.366343 0.248808 -0.385096 0.081985 -0.153445 0.068757 0.093231 -0.100106 -0.025544 -0.001514 -0.286728 -0.082196 -0.035802 -0.049328 -0.103023 -0.064721 0.050453 -0.161385 -0.077124 0.261753 -0.423680 0.319074 -0.046676 -0.322114 0.069240 0.150391 -0.088069 -0.099678 0.149431 -0.144258 0.000268 -0.183548 0.266920 -0.247302 -0.144716 -0.278073 -0.107951 0.111068 0.204935 -0.132546 -0.168942 0.129134 0.227540 0.026284 0.090605 0.027989 0.132746 0.078377 0.179059 -0.357999 0.071520 -0.155736 0.258407 -0.323791 0.101556 0.112372 0.093426 
关 -0.088033 0.160260 -0.219772 0.176994 0.274663 0.238411 0.087710 0.312239 -0.408446 0.139601 -0.113706 -0.350226 0.421577 0.017413 0.436735 -0.129436 0.277132 -0.003288 0.441683 -0.078700 -0.228208 -0.276272 -0.127962 -0.062576 -0.015827 -0.275928 0.563408 0.266302 -0.266330 0.080074 0.434396 -0.227698 -0.326064 -0.111193 0.111673 -0.011056 -0.153168 0.008119 0.170832 -0.133404 0.053612 0.316533 0.025877 -0.287898 -0.143680 -0.109750 0.041711 -0.272707 -0.146514 0.136525 -0.170027 -0.489449 0.024454 -0.180807 0.061100 -0.003934 0.106652 -0.251844 0.314074 -0.076085 0.385322 -0.313807 0.046123 0.118826 0.004296 0.093467 0.111309 -0.178543 -0.016826 -0.151965 0.383370 -0.210525 0.451942 0.087670 -0.065075 0.265787 -0.366269 0.075334 -0.020829 -0.281707 
机 0.283824 -0.034926 -0.489073 -0.211635 0.423444 0.040039 0.146759 0.178494 0.201173 -0.063701 0.235227 0.089048 0.175394 -0.221504 0.250761 -0.323351 0.333138 0.178679 0.239846 -0.138174 -0.173274 0.156591 0.319608 -0.118272 0.068569 -0.270405 0.213431 0.061747 0.067810 -0.165510 0.016520 -0.109079 -0.024337 -0.223825 0.122336 -0.115850 -0.374681 0.004929 -0.037465 0.018952 -0.333169 -0.030541 0.079683 -0.358729 0.182413 0.026587 0.096060 0.327119 0.026924 -0.170588 0.238649 -0.065495 0.359027 -0.019230 0.081813 0.007386 0.535329 0.095704 -0.283567 0.338391 -0.028623 -0.063928 -0.144392 0.065315 0.254107 -0.298511 0.405306 0.075508 0.122305 0.331614 -0.052946 0.056355 -0.193791 0.099349 0.512699 -0.152403 -0.443902 0.223299 -0.488576 0.330208 
用 0.365844 0.244061 0.252014 -0.133277 -0.392753 0.111976 -0.028024 -0.033622 -0.072250 -0.077921 0.316652 0.108699 0.215827 -0.128005 0.015326 -0.404012 0.174673 -0.205977 0.159491 0.127516 -0.016953 -0.292212 0.228308 -0.217623 -0.155912 -0.174935 0.163023 0.099274 -0.113202 0.092116 0.306223 -0.271700 -0.242128 -0.080905 -0.052672 -0.022657 -0.103494 0.172972 0.145865 0.077335 -0.311968 -0.296675 0.376955 -0.164043 0.103615 0.093328 -0.030569 0.118068 0.224786 -0.219971 0.201076 0.448331 0.112682 0.192115 -0.195252 -0.061686 -0.055442 0.014849 -0.044789 -0.127555 0.135823 0.129882 -0.111245 -0.083469 0.081771 -0.092486 0.057767 -0.213950 0.001112 0.030959 -0.140068 0.001745 -0.028709 -0.188397 -0.108900 0.556309 0.035848 -0.017968 -0.184792 0.197973 
员 0.008227 0.005563 -0.186677 -0.111234 0.519419 0.746865 0.065479 0.222429 -0.066216 0.112658 -0.051222 -0.166018 0.084660 -0.154374 -0.234474 -0.272566 0.130087 0.012896 -0.379443 -0.173468 -0.011600 0.363986 -0.249488 -0.136166 0.052151 -0.041290 -0.063526 0.292979 -0.295261 0.282164 -0.143551 -0.094360 0.035387 -0.199648 0.058493 0.267151 -0.126914 0.332065 -0.326959 -0.193592 0.071648 0.338682 0.102068 -0.151527 0.210230 0.104960 -0.028870 -0.115272 0.372189 0.259496 -0.143012 0.180036 -0.504480 0.159885 -0.074502 -0.240350 -0.129363 0.413168 -0.316057 -0.020817 0.185614 0.379574 0.024653 -0.010657 0.137011 -0.288080 -0.190041 0.017894 -0.209369 0.054260 0.411848 0.004846 -0.115544 -0.464000 0.152218 -0.065814 0.003184 0.038766 -0.137531 -0.003910 
华 0.398034 -0.311945 -0.596462 -0.020101 -0.016050 0.147579 0.281888 -0.078498 -0.107170 0.013987 0.047542 0.163445 -0.218660 0.202677 0.328683 0.401966 0.030615 0.470896 -0.663072 0.448330 -0.259020 -0.164871 -0.273385 0.255682 0.103767 -0.402259 -0.589158 0.036474 0.008840 0.616330 0.373947 -0.310491 0.406596 -0.288839 0.252708 0.328566 -0.025242 0.449610 0.097149 0.369580 -0.072014 -0.070876 -0.084546 0.066834 -0.233234 0.246331 -0.104805 -0.486558 0.418361 -0.459763 0.061999 0.163624 0.080126 -0.315981 0.623566 0.035878 -0.579441 0.478457 0.237098 0.304510 0.059677 -0.186191 -0.066337 -0.038379 0.394482 -0.103380 0.205880 -0.020351 0.265000 0.080427 -0.679569 -0.148182 0.087601 0.485030 -0.374044 -0.046777 -0.098446 -0.486614 0.489007 -0.141333 
等 0.008087 0.242299 0.162953 0.220734 0.272924 -0.124913 -0.188182 0.058718 -0.163222 -0.045245 0.147093 0.079067 -0.053561 -0.236196 0.039698 -0.346925 0.132074 -0.044371 0.004933 0.065689 -0.192061 -0.146813 -0.142505 0.045451 -0.052410 -0.169891 -0.029086 -0.097683 -0.117588 0.044365 0.161167 -0.025053 -0.230219 -0.142096 0.086832 0.115781 0.026227 0.268298 -0.160444 -0.158383 -0.159857 -0.051952 0.339722 0.060367 -0.031024 0.083543 0.271519 -0.073969 -0.139022 0.185703 0.243898 0.309670 0.242464 -0.101895 -0.102964 -0.021793 -0.083279 0.168319 0.076785 -0.073338 -0.051759 -0.060578 0.016409 -0.043891 0.428472 0.021509 0.079388 -0.267650 -0.232038 -0.189295 0.319429 -0.050487 -0.011443 0.260936 -0.016789 0.072190 0.041547 0.021744 -0.146242 0.000569 
理 0.071688 -0.193486 -0.464726 0.200479 0.201488 -0.176429 0.094673 0.257943 0.228269 0.142965 -0.079345 -0.009375 -0.059698 0.244203 0.336576 -0.473524 0.059516 -0.186179 0.182491 0.037280 0.099594 0.035338 -0.079955 0.136540 -0.166452 0.162697 -0.428634 0.097739 0.011548 0.065575 0.039298 -0.057014 -0.139151 -0.262185 -0.306358 0.058001 -0.400529 0.330454 -0.686407 0.543554 0.129124 -0.039181 0.092400 -0.115140 -0.114224 -0.111913 0.455586 -0.121694 0.104990 0.478018 -0.057853 -0.028411 0.366245 0.125024 -0.073921 -0.089335 0.058753 -0.199802 -0.187847 -0.221731 -0.087260 0.130893 -0.084746 -0.104434 0.043697 0.108340 0.104149 0.100877 -0.485858 0.059848 0.044536 0.102651 0.189239 -0.174369 0.188082 0.343968 -0.134485 0.009958 -0.042602 -0.021170 
我 0.467869 -0.098445 -0.158533 -0.080587 -0.108152 0.061256 -0.108201 -0.046153 0.183914 0.043349 -0.422417 -0.087200 0.427397 0.087802 -0.336007 -0.003147 -0.325789 -0.046191 0.136698 -0.159085 -0.100548 -0.144261 -0.452336 -0.191621 -0.069707 -0.019654 0.095417 0.055927 -0.055562 0.031145 0.090897 -0.350434 -0.190799 -0.101002 0.016610 -0.183414 -0.106022 0.024496 0.278529 -0.072035 0.064994 -0.091380 0.167521 -0.391462 0.242395 -0.241145 -0.047770 0.580229 0.100198 -0.235468 -0.489277 -0.139440 -0.271075 -0.063652 0.228140 0.210918 -0.117143 -0.393817 -0.415195 0.255314 0.095579 0.075052 -0.143782 0.146888 -0.325524 0.034569 -0.036984 -0.267083 -0.067160 0.177002 0.047988 0.138990 -0.094016 0.056063 -0.314554 0.437018 -0.098497 0.320139 0.325237 -0.190792 
两 0.094432 -0.190280 0.105960 0.097706 0.168123 0.056553 0.135963 0.115101 -0.062364 0.178528 -0.076697 -0.241513 0.212526 -0.101493 0.232647 -0.373033 0.146377 0.150764 -0.041186 -0.214392 -0.090617 -0.112982 -0.088909 -0.155093 -0.074110 0.147159 0.469799 0.168813 0.085187 -0.007350 0.136533 -0.187325 -0.192283 -0.045886 0.125478 0.057029 -0.070060 -0.101067 -0.046807 -0.217761 0.106705 0.028179 0.032146 0.237357 -0.186984 0.004427 -0.022151 0.068676 -0.177960 -0.110465 -0.375245 -0.188979 -0.006096 -0.343678 -0.050546 0.270151 0.170871 -0.017905 0.114893 -0.288698 0.600829 0.097915 -0.324264 0.078473 0.015034 -0.249879 0.207740 -0.171712 0.132685 -0.181528 0.064365 0.002453 0.076386 0.081845 -0.183494 -0.097887 0.016431 0.296565 0.090585 -0.140008 
都 0.149051 0.024338 0.103333 0.205006 0.101447 0.261911 0.065843 -0.133695 0.174622 0.077770 -0.162428 0.010638 0.300230 0.097729 -0.155826 -0.377813 -0.002668 -0.003433 0.181801 -0.027409 0.006014 0.184701 -0.206322 -0.004356 0.025429 -0.123538 -0.026412 -0.181332 -0.107093 -0.020131 -0.060273 -0.292621 -0.153960 0.019796 -0.032785 -0.031648 -0.101816 0.121181 0.084265 -0.109584 -0.017849 0.056292 -0.016060 -0.225723 0.129837 0.059235 0.043864 0.127507 -0.026127 -0.142023 -0.002403 0.092429 0.060208 0.104771 0.092831 0.088353 0.007884 -0.054145 -0.142161 0.061167 0.177294 0.214511 -0.124860 -0.063555 0.141168 -0.132379 -0.044118 -0.085832 0.071445 -0.209375 -0.071112 0.039588 -0.063866 -0.082469 0.208560 0.179404 0.014798 0.172644 0.095501 -0.075667 
北 0.233279 -0.121010 -0.505087 0.165736 0.114426 -0.112157 -0.066240 -0.003301 -0.065904 -0.249088 -0.210119 0.372351 -0.200695 -0.113592 0.159709 0.400503 0.169215 0.200635 0.129503 -0.272770 -0.523801 0.056046 -0.442232 0.269880 -0.064040 -0.365962 -0.525707 0.080825 -0.159282 -0.022799 -0.060589 0.008738 0.098099 0.371302 0.196928 -0.035302 0.238741 0.072982 -0.199261 -0.229772 0.172742 0.256058 0.009949 -0.005290 0.067585 0.299252 -0.171248 -0.013711 0.340450 -0.740431 0.334543 0.262731 -0.199137 -0.447827 0.650286 -0.118964 0.071946 0.266615 0.082505 0.008278 0.434263 -0.092061 -0.059290 -0.079374 0.390198 -0.377063 0.283531 0.051947 0.013087 -0.381598 -0.603759 0.345182 0.011570 0.556035 0.002654 0.384555 0.136717 -0.493535 0.113726 0.195568 
统 -0.226669 -0.217002 -0.609525 0.051448 0.409311 -0.354535 -0.065118 -0.025752 0.108047 -0.064206 -0.312202 -0.059759 0.120810 0.158296 0.269765 0.247814 -0.157051 0.235963 0.401331 -0.022971 0.365177 -0.144129 0.104072 0.208329 -0.389080 0.301730 0.153537 0.555925 0.289799 0.219039 0.029593 0.308732 0.226597 -0.082687 0.092216 -0.164994 -0.540923 0.671100 -0.420837 0.086538 -0.212688 0.358562 -0.408824 0.048065 0.204692 -0.369281 0.040074 -0.456368 -0.152418 -0.128801 -0.065332 -0.022076 0.282034 -0.070972 -0.654366 0.016490 -0.083413 -0.499016 0.115353 -0.055517 0.182793 -0.212939 -0.072142 0.013778 0.272629 -0.132797 0.182517 -0.129486 0.384785 0.043011 0.369844 0.040324 0.155007 -0.164571 -0.416822 0.427291 -0.437026 -0.112409 -0.261709 -0.413093 
事 0.054998 0.160301 -0.254345 -0.121789 -0.105930 -0.197333 -0.189355 0.498684 0.063537 0.170140 -0.110865 -0.042278 -0.107276 0.150614 -0.099921 -0.236921 -0.192148 0.025465 0.109039 -0.089117 -0.087354 -0.146763 -0.290839 -0.094336 -0.158638 -0.136304 -0.164223 0.181870 -0.235724 0.267555 0.158461 -0.342556 -0.051153 -0.042687 -0.349896 0.215822 -0.013392 0.074280 -0.386727 0.221070 0.173304 0.583351 0.294356 -0.664784 -0.425672 -0.114952 -0.019688 0.175146 0.068702 -0.238730 -0.100217 0.101266 -0.254765 0.122812 0.012797 0.145642 0.353069 0.116455 0.191376 0.092739 -0.065762 0.457644 0.034484 -0.148811 0.155360 0.224543 0.239562 -0.003232 -0.294550 -0.149266 0.012693 0.036661 0.043352 0.120723 0.413415 -0.192959 -0.103834 -0.004275 -0.007265 -0.189134 
今 0.033120 -0.319849 -0.409927 -0.013855 -0.111295 -0.100097 -0.104827 -0.163586 -0.292310 -0.114358 0.057694 -0.150322 -0.093500 -0.296604 -0.065405 0.008726 -0.050591 -0.017270 -0.341931 -0.097519 0.222556 0.336078 0.011103 -0.188989 -0.069119 -0.014242 0.123529 0.105503 0.023943 0.050157 -0.077539 -0.165914 0.478769 -0.058564 0.514308 -0.306406 -0.203057 -0.217510 -0.319007 0.211206 0.113134 0.249554 -0.009740 -0.343609 0.252419 -0.270575 -0.041437 0.209181 -0.003892 -0.119684 -0.502263 0.010827 -0.133602 -0.009582 -0.293479 -0.190264 -0.134597 0.339467 -0.208929 -0.155891 0.631835 -0.066612 -0.607542 -0.077436 0.067649 -0.131502 -0.068202 -0.164684 0.141725 -0.069015 -0.025091 -0.060294 0.205405 0.040706 0.087597 0.162172 0.513091 -0.105415 0.317614 -0.113599 
